ipc,N1,N2,N3,N4,N5,N6,N7,N8,N9,N10,N11,N12,N13,N14,N15,N16,N17,N18,N19,N20,N21,N22,N23,N24,N25,N26,N27,N28,N29,N30,N31,N32,N33,N34,N35,N36,N37,N38,N39,N40,N41,N42,N43,N44,N45,N46,N47,N48,N49,N50,N51,N52,N53,N54,N55,N56,N57,N58,N59,N60,N61,N62,N63,N64,N65,N66,N67,N68,N69,N70,N71,N72,N73,N74,N75,N76,N77,N78,N79,N80,N81,N82,N83,N84,N85,N86,N87,N88,N89,N90,N91,N92,N93,N94,N95,N96,N97,N98,N99,N100,N101,N102,N103,N104,N105,N106,N107,N108,N109,N110,N111,N112,N113,N114,N115,N116,N117,N118,N119,N120,N121,N122,N123,N124,N125,N126,N127,N128
A01B063,-0.14101629,-0.1441492,0.22286265,0.07294626,0.036747877,-0.13158529,-0.08315659,-0.054168012,-0.089634076,0.038734727,0.18762986,-0.001880725,-0.03483402,-0.15476277,0.034059875,-0.0953033,-0.022987919,0.066125855,-0.09420211,-0.038293347,-0.006365434,0.20641662,-0.064860046,0.027964877,-0.096842326,0.057259623,-0.14252737,0.11014895,-0.096900456,-0.035156824,-0.13951206,-0.058305223,0.09710446,0.04384654,-0.029422032,0.09615213,0.15004177,-0.07007677,0.04253167,0.005726699,-0.009743561,0.13837689,-0.055418137,-0.05125563,0.040287286,0.034856904,-0.04816127,-0.12835665,-0.11519579,0.07746202,0.04296218,-0.11282632,0.15866452,0.12839685,0.12680581,-0.07273445,0.094986364,-0.13582909,-0.02390796,0.07025918,0.00151968,-0.05964014,0.122709535,0.022519436,0.05278747,0.072507665,0.13144211,0.08993093,0.03390539,-0.065207064,0.25147355,-0.026719267,-0.14854722,-0.105279215,0.03313926,-0.009477386,-0.123293586,-0.13257663,-0.010636016,0.0366922,0.004551239,0.000393684,0.08171068,0.14124899,0.011361273,0.13950616,0.120205194,-0.031196134,0.0856853,0.010601362,-0.20291062,0.06481782,0.07466573,-0.000290274,0.2767324,0.01851051,-0.056085676,-0.22579777,-0.005924772,0.009628315,-0.22951165,-0.08504747,-0.000638687,0.029635932,0.28055474,0.024796288,-0.11577689,-0.031392887,0.14960043,-0.26196286,0.11181064,0.01852426,0.098041,0.12335299,0.06432604,-0.02000981,-0.00129364,-0.16309935,-0.044862684,-0.083822444,0.05386739,0.110255994,-0.03767778,0.12186767,0.07538496,-0.16080587,-0.14166994,-0.03771293
A01B069,-0.12893121,-0.05989652,0.08916977,0.0421714,0.04106777,-0.09754979,0.047116693,-0.112985775,-0.052137967,0.006343663,0.08987754,-0.032332476,0.021036085,-0.1432166,0.09653723,-0.10799931,0.010030558,0.094753705,-0.1106622,-0.018900136,0.146506,0.10639458,0.057845205,-0.10850455,-0.019206444,0.18392426,-0.043047618,0.078353405,-0.019780202,-0.0523588,-0.07897011,-0.04991011,0.03060055,-0.017181527,-0.036832344,0.24469721,0.22703342,0.005677903,0.07727676,-0.13613676,0.008400383,0.12194842,-0.10419365,-0.00852711,0.0910923,0.013160819,-0.005512662,-0.1446544,-0.10437935,0.08273639,0.080152944,-0.013391487,0.20544629,0.18179438,0.11828483,0.001567523,0.08791227,-0.059081197,-0.1496036,-0.005112381,0.02159756,-0.022248358,0.16574726,-0.05311723,0.08278157,0.037717577,0.09894592,0.1532156,-0.025694609,-0.10242725,0.08782104,-0.23165202,-0.14970803,-0.14330423,0.05954931,0.014128282,-0.065146215,0.04651657,-0.068674594,0.087138824,-0.10632638,0.004173262,0.19672953,0.14668071,0.013896419,-0.001235745,0.013083275,-0.0963562,-0.03884548,-0.026216479,-0.16457182,-0.013883852,0.09936647,0.051903773,0.23771772,0.017701391,-0.16475645,-0.26175153,-0.09779824,-0.08845078,-0.17120267,0.055168036,-0.02741675,0.059309125,0.18337111,-0.051491976,0.011260228,-0.16902536,0.07468704,-0.18776032,0.1298923,-0.020754639,0.111967355,0.14226907,0.1635982,-0.067956015,0.05016558,-0.20073062,-0.1104499,-0.059225835,-0.05273906,0.08215258,-0.13962546,0.07384305,0.03399348,-0.067049176,-0.07415527,-0.056093145
A01B079,-0.020677283,-0.07521107,0.087735295,0.05652051,0.042128902,-0.1177751,-0.08759971,-0.016190654,-0.13323325,0.06745526,0.20241416,0.017026745,0.080337465,-0.06906227,0.14162442,0.013646662,0.07880475,0.07979229,-0.12364962,-0.095238656,0.094397515,0.1506571,-0.054904737,-0.16417453,0.014470583,0.15509097,-0.009531867,0.13092497,-0.05977599,-0.014491894,-0.1210114,0.0874644,0.06961304,-0.013111093,0.035923157,0.14607082,0.17076899,-0.09108979,0.049967486,0.028031548,-0.06996382,0.09328605,-0.10316621,-0.02096577,0.08553644,0.011833945,-0.096656926,-0.19740655,-0.008914258,0.10874796,0.004603011,-0.06778618,0.17786828,0.099023685,0.14369157,-0.034573395,0.10440106,-0.18752734,-0.13821064,0.003103074,0.09602289,-0.03882372,0.0728803,-0.056605577,0.097488575,0.085784,-0.001539257,0.15582515,-0.026269557,-0.056453034,0.20777878,-0.17767034,-0.1195331,-0.06213381,0.04958997,-0.067738906,-0.120490365,-0.095662996,-0.026025536,0.09030933,-0.09017894,0.014584529,0.15461576,0.23326515,-0.025682645,0.11550063,0.12191129,0.007444219,0.13201407,0.10206847,-0.13209864,-0.030702993,-0.003139067,-0.10905879,0.31599733,0.02593397,-0.06861868,-0.14325969,-0.030725699,-0.04209246,-0.20039316,0.106578715,-0.08228946,0.022528555,0.2076556,-0.036437184,0.052510113,-0.02671895,0.1790194,-0.22872606,0.09596494,0.02778837,-0.02236052,0.077159576,0.14854303,0.11275344,-0.015138047,-0.006180177,-0.008004316,-0.035951037,0.08900092,0.13523702,-0.08848156,0.13735342,-0.03347287,-0.13817607,-0.06470017,-0.007056419
A01C001,-0.17205724,-0.08186082,0.06839959,0.03538769,0.09581722,-0.3169721,-0.013085334,-0.10030659,0.041064695,0.18273161,0.18313935,0.02856706,0.018885242,-0.14711383,0.12253484,-0.05476975,0.18195659,0.09083499,-0.097174846,-0.028494854,0.11340852,0.17061985,0.10888322,-0.09231891,-0.09676197,0.13747175,-0.14247856,0.1136192,-0.004693126,0.027618373,-0.09455547,0.071181685,-0.05304817,0.09024777,-0.15973485,0.10601685,0.20343941,-0.06338085,0.14775741,0.049419478,-0.05495784,0.07001685,-0.12644267,0.068980284,0.023890235,-0.022560697,-0.015665248,-0.114875846,-0.17491135,0.11621698,0.09209537,0.08219082,0.22973922,0.21799918,0.11292926,0.015392946,-0.09295307,-0.14026152,-0.15740135,0.009055409,0.14207609,-0.11457056,0.08754504,-0.18706374,0.073348336,0.064130746,-0.005032216,0.25125912,-0.013932116,0.006793339,0.054991253,-0.19933638,-0.1873396,-0.13599214,-0.06995663,-0.038728688,-0.14042136,-0.021236384,-0.1706753,0.08798965,-0.05563177,0.06677891,0.12926784,0.11627335,0.03257027,0.044515047,0.18225059,-0.073750176,0.051873956,0.025897106,-0.056075048,0.13273712,-0.013495573,-0.014573468,0.21171895,-0.058314785,-0.06825961,-0.23144615,-0.12479953,-0.05958569,-0.108422585,0.06187095,-0.102487415,0.002728395,0.1784308,-0.045872487,0.03278789,-0.13828485,0.11042865,-0.3309857,0.24331176,0.04964636,0.074280925,0.16618961,-0.04320356,0.028714526,0.036618493,-0.039164077,-0.101891465,-0.17874488,0.038143814,0.019847803,-0.042588323,0.081353,-0.029542845,-0.03287069,-0.10485758,0.06318479
A01C021,-0.13885598,-0.11749173,0.007706608,0.040697016,-0.10450434,-0.14029995,-0.06425826,-0.12663089,-0.08664712,0.076757856,0.21038608,0.116805255,0.084128276,0.08911988,0.14652093,0.003891327,0.057270594,0.06157401,-0.12130735,0.001329907,0.119179994,0.12522995,-0.053915877,-0.20182902,0.07199784,0.08970603,0.07483921,0.16922218,-0.023068562,-0.06739799,-0.19380584,-0.061784122,0.14652768,-0.01637552,0.0713207,0.08919157,0.114657804,-0.043034453,0.08276794,0.017786346,-0.16217193,0.07356377,-0.028830122,-0.06196317,0.29111478,-0.027077569,-0.12069218,-0.16685171,0.10910983,-0.029586516,0.034173887,-0.033676755,0.15164393,0.22968866,0.13624267,-0.05396986,0.06730579,-0.3401861,-0.16415757,0.09606133,0.055877794,-0.092986874,0.05863038,0.02952794,0.104342334,0.18586828,0.051177245,0.14753242,-0.13407464,-0.123574786,0.18434623,-0.08461334,-0.13984844,-0.12284854,0.10382619,-0.07343533,-0.18805662,-0.104408056,-0.075505115,0.10189546,-0.06691813,-0.11224913,0.057647698,0.15444824,-0.038421944,0.09116089,0.06857383,-0.064157076,0.27131602,0.051336773,-0.10109517,-0.03137941,-0.006943815,-0.08017435,0.22846328,0.053769894,-0.07312463,-0.14096245,-0.2538359,0.09484912,-0.2910503,0.1318543,-0.057732113,-0.04959447,0.2075008,-0.22743887,-0.023272855,-0.08366536,0.16657275,-0.16537318,0.062586114,-0.06195736,-0.12978393,0.0535949,0.08470967,0.007262985,-0.113564,-0.07532947,0.035824224,-0.110403895,0.043767232,0.07412637,-0.13922709,0.1442684,0.025070557,-0.15643266,-0.088798024,0.07607188
A01D034,-0.097816445,-0.1560565,0.17348471,0.000639099,-0.14615503,-0.1986426,-0.05261315,-0.031149732,0.007261251,0.016010748,0.19321553,-0.07071189,-0.17137536,-0.1320056,0.15757215,0.04120868,-0.045879178,0.10011664,0.023134932,-0.10177995,-0.058977816,0.1632392,-0.042446513,-0.14727145,-0.11579967,0.043321,0.0638824,0.047044624,-0.0687602,-0.15403426,-0.22354339,0.015373694,0.041548684,0.025512064,0.06952884,0.26338887,0.21801554,-0.06547686,0.1110196,0.12613906,-0.029078979,-0.04596318,-0.15963535,-0.05889268,0.11168937,-0.020709604,-0.01854416,-0.14068073,0.032098528,0.1493162,0.041512325,0.03995702,0.09064262,0.22341144,0.11251543,0.14746426,0.16222496,-0.1352193,-0.17222622,0.23283868,0.07906807,0.000817847,0.109181866,0.0477386,0.011082904,-0.041781083,0.111127816,0.20752488,-0.10627812,-0.07031738,0.22069128,-0.06337134,0.015301676,-0.16240515,0.092376545,0.001863444,-0.107037365,-0.075646915,0.04186123,-0.069069326,-0.01597854,-0.14915895,0.21486863,0.105107866,-0.09261168,0.13543999,0.21226251,-0.16669883,0.13565575,0.004368363,-0.12610152,0.07819451,-0.06895979,-0.0832873,0.28814003,0.16056317,-0.1109675,-0.13374825,-0.13828157,0.08228108,-0.43587086,0.10571907,0.10113206,-0.027858611,0.2715198,-0.19583707,-0.008212321,-0.15002349,0.16653688,-0.15960708,0.030323243,-0.11361705,-0.03175691,-0.04396412,0.13229722,0.07139398,-0.10173272,-0.07137175,-0.02976568,-0.0559123,0.01258841,-0.08450354,-0.060868558,0.13724883,-0.018618194,-0.068740584,-0.18901804,0.19347693
A01D041,-0.14208992,-0.018765248,0.06995929,-0.03406859,0.07346806,-0.1032294,-0.05630486,0.09065911,-0.015761668,0.06382747,0.1451924,0.006289817,0.027604492,-0.19105676,0.07534303,-0.079250485,0.08582371,0.061588477,-0.03334147,0.06716029,-0.009326947,0.21243156,0.09428727,-0.001981723,-0.13174085,0.1347131,-0.11493103,0.10149103,-0.06798042,-0.041899297,-0.21601012,0.07561326,-0.06739042,-0.10024344,-0.04571869,0.19555096,0.1755404,-0.09357968,0.033157077,-0.0808574,-0.022660377,0.15724018,-0.052748796,-0.016288787,0.16232225,-0.020802766,0.011496525,-0.015527909,-0.104706705,0.14441764,-0.016573487,-0.026971502,0.14808515,0.096866846,0.07825787,-0.059155457,0.047637172,-0.07404522,-0.17506994,0.101903096,0.024636017,0.054485135,0.08264421,-0.19501278,0.07423521,0.18450008,0.022843162,0.26866943,0.029339919,-0.05426569,0.18586525,-0.20596576,-0.099809274,-0.079523705,0.07162106,0.076237865,-0.026604773,-0.09518315,-0.0986129,0.111265704,0.002224749,-0.053805187,0.10323402,0.1816759,0.032754194,0.102403216,0.16302739,-0.007885552,-0.11896533,0.0881832,-0.15995632,0.13175108,-0.033361856,0.006503332,0.23184182,-0.06586085,-0.1317692,-0.25683573,-0.040778372,-0.08021096,-0.10629647,-0.010662144,-0.07613634,0.051668268,0.22598605,0.002931146,0.019872244,-0.16138473,0.07408271,-0.2389587,0.16410176,0.067670256,0.16970609,-0.001227387,0.19101314,-0.044606157,0.08900213,-0.03978264,-0.07612322,-0.16737314,-0.023827588,0.12243201,-0.094600506,0.063142255,-0.006386846,-0.0555968,0.000756372,0.0628319
A01D046,0.14550291,-0.004358556,-0.00649663,0.104573086,0.044692136,-0.2423376,0.030681472,-0.092637345,0.015167516,0.05496614,0.20478891,-0.100714825,-0.02619372,-0.09919299,0.0876847,-0.028590292,0.09080093,0.0851398,0.022053702,-0.090545006,0.10287245,0.15859151,0.13990012,-0.1572854,-0.09143669,0.059782814,-0.15711062,0.20037912,-0.04892075,-0.14747341,-0.12615255,0.04848314,0.02203288,0.1209512,0.02578921,0.2220267,0.19244094,-0.17345789,0.21402226,0.066821955,-0.08525616,0.024702026,-0.14412335,0.007128643,0.14009467,-0.033594478,-0.061709467,-0.08167653,-0.32757416,0.13000774,0.019981863,-0.08123287,0.38345712,0.26673624,-0.052620478,-0.07529689,0.15406619,-0.071789294,-0.05339056,-0.028718576,0.10669345,-0.11307783,0.023160467,-0.1981643,0.09267732,0.1387017,0.023029407,0.012982785,0.036036957,0.0448031,0.11206419,-0.06928003,-0.3106067,-0.059352122,0.023430958,-0.002559746,-0.11322643,-0.025792722,-0.30202696,0.06873681,0.01619042,0.06823245,0.24747092,0.16448133,-0.10059974,0.09254032,0.25791293,-0.06853402,-0.04374952,0.007857116,-0.08398559,0.15087493,0.07829787,-0.02713319,0.28193423,-0.1869758,-0.17561193,-0.18324038,-0.15701246,-0.085295774,-0.11923464,0.040097132,0.013851387,-0.02519819,0.16154326,-0.008343463,-0.05119641,-0.25055036,-0.006798762,-0.20401819,0.22611818,0.049037945,0.11681955,0.14112999,0.10574183,0.14101984,0.12579726,-0.04631139,-0.14476387,-0.12794721,-0.000525856,0.013898683,0.030620595,0.07583726,0.16397956,-0.050349116,-0.056957647,0.1132239
A01D075,-0.10845731,-0.06842479,0.13374954,0.14958537,0.11345806,-0.20733209,0.0663611,0.018353608,-0.043864492,0.035625968,0.26414114,-0.11352761,-0.07203696,-0.15534815,0.00931082,-0.13322487,0.09235706,0.07953495,0.031483807,-0.035911947,0.0738006,-0.008940124,-0.08204064,-0.0698903,0.026238507,0.058532737,-0.24786411,0.21354987,-0.04552224,-0.05728404,-0.13611,-0.13688153,0.16455719,0.07942245,-0.06560111,0.29256532,0.03689454,-0.1853985,0.18346941,0.023525907,-0.12194734,0.18831092,-0.016103897,-0.021826794,-0.043010283,-0.006189796,-0.005531228,-0.15940087,-0.34171495,0.14696464,0.16481182,-0.13152556,0.16116738,-0.010680498,-0.05205067,0.043445904,0.26204184,0.028291058,-0.16061427,0.1377734,-0.1114565,0.120071545,-0.038586818,-0.036419883,0.07343874,0.14459138,0.14832284,0.018756377,0.044204697,0.06831136,0.10323651,-0.227429,-0.124710485,-0.10543334,-0.0724713,-0.28304467,-0.063273236,0.08564504,-0.21761027,0.07389869,0.025496427,-0.09579425,0.25787735,0.28288004,-0.00164482,0.10245211,0.27889538,0.000310122,-0.07687104,-0.11855021,-0.12546794,0.04028695,0.12854172,-0.005504069,0.18983139,-0.2041093,-0.06723489,-0.23795295,-0.061553262,-0.009676322,-0.2698205,-0.20192882,-0.11428359,-0.018048132,0.14269423,-0.15438014,0.013639328,-0.25242803,0.088997245,-0.080922976,0.53275764,0.020387297,0.105595544,-0.058398515,-0.13233528,0.017842235,-0.09071252,-0.15949897,-0.36097413,-0.21535031,0.008794258,-0.15692,0.001517334,0.21012163,0.2044729,-0.08907471,-0.005832241,-0.09366552
A01D101,-0.29042524,0.001768239,0.07336791,0.17300327,-0.20449649,-0.24910256,-0.17188083,-0.2327284,-0.12907684,0.004611525,0.36168224,-0.05860085,-0.14416881,-0.089402094,0.49384326,0.11787508,-0.23892641,0.05219372,-0.13155267,0.06533099,0.15481843,0.1255306,0.10071352,-0.03258147,0.1018516,0.15907826,-0.13686398,0.164228,-0.07552184,-0.03528969,-0.07913394,-0.22524449,0.3690801,0.09015869,-0.05643411,0.047238808,0.25844806,0.004426292,0.1736381,0.001446332,-0.15893687,0.3418454,0.022849238,-0.43043703,-0.044415537,-0.23034047,-0.1571884,-0.08543872,0.12133433,0.06778859,0.15533674,-0.20021379,0.10298826,0.27991384,0.1507358,-0.0376139,0.04894776,-0.18564843,-0.011827145,0.1563551,0.18926837,0.12292395,0.08045718,0.21978632,0.010424166,0.1166895,0.26028174,0.13563295,0.13271709,-0.16894639,0.15950245,-0.1404699,-0.14220639,-0.06928365,0.28295603,-0.044099044,-0.15468782,-0.10544635,0.20052934,0.38666478,0.032789323,-0.15465704,0.22250825,0.22498062,-0.007169559,-0.010459912,0.12899753,0.094514735,0.12388566,0.25069043,0.01303151,0.13956864,-0.115939,0.009487465,0.121080406,-0.03907117,-0.27282125,-0.17293295,-0.05039855,-0.1781754,-0.09345213,0.124585554,-0.15027694,-0.0752021,0.15181719,0.098025404,0.07584665,-0.04288303,-0.07099971,-0.09925033,0.32574114,-0.24795426,-0.09069641,0.03588755,-0.11395414,-0.001355577,-0.18499847,-0.03166735,0.03322618,-0.009972193,-0.29861936,-0.000599738,-0.117671035,0.02176682,0.05568858,-0.12977031,-0.034688856,0.03830572
A01F025,-0.16712779,-0.09049635,0.015271973,0.016245218,0.05706154,-0.15190059,-0.12694874,-0.1371422,-0.093298204,-0.000588284,0.11354858,-0.1327926,-0.078192614,-0.27824187,-0.03963095,-0.045560893,0.14053364,0.13935637,-0.11707986,-0.08041533,-0.0346897,0.24920417,0.013615354,-0.16068591,0.13803892,0.14262503,-0.05515652,-0.011519702,0.034879997,0.041392915,-0.13755183,-0.08525456,-0.040913288,0.14620246,-0.033754632,0.08143813,0.15561083,-0.031240936,0.08067849,-0.02387861,0.01610412,0.17687297,0.019615205,0.084960066,0.11936783,-0.03869458,0.094769,-0.01776857,-0.14443961,0.15113115,0.027099479,-0.21874212,0.21815671,0.08651903,0.08141988,-0.11642874,0.15203305,-0.21885864,-0.11029143,0.15278572,0.15646835,-0.20289008,0.2966841,-0.20154722,0.089868054,0.112903714,0.03412974,0.09807482,0.059347924,-0.08491908,0.1713539,-0.09412667,-0.20659065,0.031618718,-0.1092347,0.063030794,-0.10780482,-0.025869258,-0.028995538,-0.03993989,-0.108204715,0.039518,0.08165668,0.27305168,0.11095856,-0.03227501,0.11337307,-0.00784288,0.073311664,-0.08284332,-0.077083975,-0.08045647,0.04171504,-0.10919867,0.16650936,-0.010396639,-0.2889926,-0.23276763,-0.099601984,-0.13250165,-0.348283,-0.020226274,-0.010886328,0.035698164,0.33548954,0.053652193,0.027373023,-0.06231574,-0.026798707,-0.23278601,0.19952145,-0.08875827,0.15418671,0.09303838,0.137291,-0.10357893,0.13200767,-0.02672414,-0.12920287,-0.041548476,-0.08281493,0.008234335,-0.058964472,-0.05556273,0.122173145,-0.05527662,-0.039809797,-0.016837658
A01G007,-0.09871509,-0.094048865,0.2379046,0.15155257,0.19907455,-0.30005878,-0.11605972,-0.11356182,-0.16468927,0.035831716,0.24081129,-0.07012254,0.016743539,-0.26690775,0.011886004,0.04949296,0.14403607,0.1202981,-0.003731217,0.052385386,0.30977598,0.18700281,0.12009037,-0.11602413,-0.1268685,0.068284966,0.046408564,0.19289592,-0.041601818,-0.028176047,-0.029018365,-0.003242508,0.06480229,0.026553702,0.03618982,0.11609601,0.21995892,-0.022832707,0.054476265,0.01460822,-0.011797445,0.22337325,-0.14816195,-0.050098386,0.002781613,-0.04493644,-0.121593714,-0.15929873,-0.17824787,-0.15861435,0.07594711,-0.01584347,0.15212092,0.21675113,-0.016363569,-0.102095164,0.18010594,-0.06718731,0.066428915,-0.043542113,0.15278159,-0.057819847,0.16006705,-0.023222804,-0.085189015,0.20440152,0.010597713,0.20303592,-0.06521105,0.06333279,0.07648184,-0.19759414,-0.16851388,-0.13547294,-0.038849518,-0.002879765,-0.0742992,-0.004804886,-0.08751106,-0.000134541,-0.14766058,0.056589693,0.21363994,0.34110734,-0.035363574,0.16923967,0.13023087,-0.087536514,-0.032309134,-0.086913474,-0.10288938,0.13827893,-0.08981077,-0.1411496,0.17104393,-0.15885828,-0.14485511,-0.109916255,-0.15622698,0.019506339,-0.16222852,0.006628079,-0.001314118,0.16598545,0.19407634,0.020727443,-0.05122363,-0.2919595,0.014818389,-0.22167529,0.20802112,-0.063443236,0.12788764,0.040238295,-0.10914356,-0.23858714,0.015933128,0.00102503,-0.11020016,-0.08267864,0.06493251,0.012649365,-0.11528459,-0.10547574,-0.053501923,0.05535136,-0.043388065,0.009734161
A01G009,-0.15920828,-0.17161219,0.12078532,0.047731217,-0.10005164,-0.13561559,0.09756524,-0.14739287,-0.028894527,0.054911707,0.20133238,-0.036027372,-0.2043318,-0.1433896,0.10841221,-0.018411174,0.114680514,0.007607711,0.048123393,-0.10281053,-0.031028884,0.07291098,-0.022137744,-0.164503,-0.18662995,0.17722875,-0.009779205,-0.03795008,0.081344776,-0.13055316,-0.18980299,-0.19540863,-0.008797175,-0.016615802,-0.085575946,0.2760022,0.2947211,-0.074711055,0.08182686,0.078219235,-0.07510498,0.022510506,-0.08506206,0.013297652,0.14796677,-0.029486323,0.05921368,-0.06707846,0.051254943,0.26768264,-0.057916086,-0.1148027,0.11294469,0.20931582,-0.022291884,0.16404682,-0.05077853,-0.08724834,-0.16361322,0.19962889,0.0530279,0.018996822,0.14136444,-0.09671897,0.0762257,0.040906604,-0.01932482,0.11382023,0.062428866,-0.11364806,0.21568319,-0.22762564,-0.06449284,-0.032789223,0.06814689,0.028271172,-0.13125613,0.03654067,-0.12199824,0.015611436,0.03236981,-0.123186074,0.256603,0.117588356,-0.0519334,-0.026881425,0.11208362,-0.20078844,0.060866028,0.01182328,-0.004510352,0.14954837,0.06401256,-0.1068581,0.20531525,0.098154105,-0.11663767,-0.051104903,-0.13037023,-0.11106886,-0.3230495,0.08724882,0.054363865,-0.054876864,0.33059004,-0.032955118,-0.04552972,-0.25011212,0.05330853,-0.2223536,0.08174892,-0.16068429,-0.087339506,0.08267225,0.05275598,-0.010763948,-0.01605528,-0.1109164,-0.061435662,-0.033286206,0.13765638,-0.16838217,-0.06965786,0.079028286,0.070357375,-0.067916706,-0.15975626,0.098320186
A01G015,-0.1317798,-0.21402079,-0.13115844,0.19860192,0.19712059,-0.07223022,-0.1245619,-0.16621982,-0.028884364,-0.070111945,0.14603001,-0.05938273,-0.16516227,-0.21295671,0.002872786,-0.19097817,0.1010809,0.08785574,-0.00584142,-0.10769055,-0.10255617,0.13134216,0.10070341,-0.033621047,-0.31975406,0.1831202,-0.18972504,0.13767517,-0.008859618,0.03996967,-0.22699155,-0.08254822,-0.095613554,0.13954201,-0.005620853,0.22999242,0.17672586,0.007187504,0.13782845,-0.07253531,-0.022380032,0.008707451,-0.071234874,-0.062355876,0.24759577,0.013516862,0.19238682,-0.08830004,-0.044909403,0.10631282,0.10324761,-0.013324537,0.18779694,0.026927691,0.2300719,-0.060018174,0.047430996,-0.18527567,-0.32063532,0.15411104,0.18794219,0.12496773,0.11336379,-0.02698321,0.13797319,-0.018613335,0.100374356,0.22435504,0.00878772,-0.0922071,0.12529568,-0.26319915,-0.1920489,0.03302874,0.061136268,-0.119969204,0.038617466,-0.05487386,-0.19927451,-0.001063257,-0.21333134,0.07773661,0.15520948,0.1653177,-0.030244151,-0.10433169,0.21377835,-0.21010892,0.016734192,0.122398764,-0.057654615,0.06262263,-0.05416037,0.052701432,0.07894567,-0.07966841,-0.064471744,-0.16382828,-0.012015857,0.09925359,-0.06635828,0.07451293,-0.162408,0.043931294,0.25780618,-0.14951551,-0.04260603,-0.18318322,0.0828411,-0.22586496,0.11589919,-0.08536453,0.14121054,0.13285142,0.029401593,0.10412915,0.09249048,0.076034844,0.03755715,-0.020496197,0.1323743,0.23047632,-0.21158217,0.027899917,0.10739814,0.006958979,0.047236126,0.076540254
A01G022,-0.2297007,-0.1720172,0.006554018,0.14853102,0.1371148,-0.22039025,0.03252329,-0.060190793,-0.11933784,0.15418479,0.13322379,0.028245632,0.029678827,-0.20242223,-0.024580142,-0.008133296,0.17821944,0.14001366,-0.2837099,-0.025342684,0.08141516,0.16975959,0.07255826,-0.20473653,0.08555761,0.082753964,-0.06729864,0.10915285,-0.15336432,0.101265505,-0.262283,0.028156534,-0.015990317,0.16016652,-0.12069528,0.16329503,0.07270502,-0.17311506,0.020915695,-0.07094587,0.019811276,0.03750963,-0.09863942,0.008812905,-0.000573386,-0.031140175,0.07433818,-0.13846102,-0.15305422,0.10296985,0.10044923,-0.12353037,0.25097552,0.22785233,0.05314354,0.003311642,-0.002063288,-0.23073557,0.024169253,0.091448255,0.08445079,-0.09096313,0.20065217,-0.03328938,0.06398025,0.102529824,0.1017036,0.07239789,-0.07792389,0.000572408,0.18079442,-0.05636112,-0.19898206,-0.09569048,-0.055737264,0.10597276,-0.07680555,0.08490445,-0.2325754,0.0553339,0.10928266,0.018275902,0.15717736,0.13513525,0.07755526,0.09653536,0.18749608,0.17887124,0.01704686,0.085156806,-0.053835005,0.081317715,0.10342891,-0.041732196,0.33411303,-0.09285366,-0.21806106,-0.09565907,-0.047957152,-0.044411946,-0.12501752,-0.057124685,-0.07267124,0.024484247,0.25796926,-0.083113454,-0.031002915,-0.16938443,0.0751108,-0.18050848,0.16485818,-0.077379644,0.054302834,0.12274043,0.10409303,0.027196055,0.06259296,-0.1428724,-0.12107143,-0.1310794,0.16727503,0.0658727,-0.038007576,0.023102202,0.020729788,-0.08408287,-0.08516549,0.09403162
A01G025,-0.12491615,-0.00156313,0.005509259,0.05902401,0.103753515,-0.105307564,-0.05706295,-0.0757975,-0.12169363,-0.04424331,0.18025231,-0.13023674,-0.15208383,-0.17547466,0.005250151,-0.13325301,0.09970804,-0.09528914,-0.19471012,-0.061107945,0.07932141,0.25328556,0.16989152,0.036921714,-0.14159226,0.15824923,-0.032387894,0.20476884,-0.016335387,0.036531266,-0.25363424,-0.015602887,-0.23010907,0.13165572,-0.09409173,0.13376956,0.28680772,0.030962823,0.10522398,-0.16245194,-0.011054816,-0.0429872,-0.040400084,-0.11453277,0.14796095,-0.035319403,0.025442101,-0.123204574,-0.07156854,0.17053266,0.09352161,0.028905498,0.30009657,0.016184254,0.14655265,-0.09962754,0.09837329,-0.05926927,-0.15369485,0.047274236,0.12814689,-0.031156462,0.25439656,-0.08574834,0.08199642,0.057923116,0.0161889,0.021742526,0.20511204,-0.016786564,0.12405,-0.2549973,-0.19443926,0.10426182,0.07341496,-0.119392626,-0.007705641,-0.18280952,-0.002552171,0.15331233,-0.095517546,0.08278604,0.23367275,0.14835837,0.013582256,-0.059742656,0.0919627,-0.18788257,0.064077824,0.098556206,-0.14366452,-0.04064227,0.022404686,0.16420095,0.114833854,0.07343117,-0.1195573,-0.3023293,-0.063325256,-0.029202819,-0.21470289,0.024137862,-0.09246997,-0.046676993,0.25103796,-0.09309687,-0.058079977,-0.22704439,0.039644994,-0.17323683,0.0909248,-0.11382094,0.22426082,0.085139945,0.12413556,0.13692534,0.10403127,0.09330893,-0.104962416,-0.01260005,-0.007260139,0.09866462,-0.15967949,0.073699065,-0.022543311,-0.009417833,0.029204084,0.08429994
A01J005,-0.07010976,-0.123798296,0.26434234,-0.042704806,-0.101320155,-0.25246024,-0.077168554,-0.007964239,-0.00935238,0.05964636,0.27772915,-0.07747305,-0.109402046,-0.084265225,0.050694015,0.09095269,0.042879473,-0.021521071,-0.033497464,-0.13194449,-0.06329462,0.08877522,-0.045340806,-0.08605426,-0.16168919,0.10718907,0.012023028,0.08125162,-0.119947836,-0.16357231,-0.2257926,0.118549444,0.08621624,0.038538635,-0.03646626,0.24696201,0.08193444,-0.111077674,0.0930771,0.07912626,-0.13968953,0.08591347,-0.2117067,-0.10856567,0.18522082,-0.004837013,-0.073764026,-0.10869452,0.050428487,0.23372391,-0.0452265,-0.01446903,-0.046685565,0.15134041,0.14134596,0.043545946,0.14064966,-0.13603269,-0.15057105,0.105293915,0.061253857,-0.007233872,0.18038423,0.13094465,-0.062285703,0.052934106,0.037028424,0.2007677,0.004608688,0.065126956,0.29608038,-0.038504038,-0.09791792,-0.081707485,0.038004737,0.017385706,-0.119767345,2.29E-05,-0.026325949,0.10931469,-0.007904517,-0.057905793,0.16408093,0.25278622,-0.048309494,-0.03085019,0.16002712,-0.26506934,0.16748437,-0.010537864,-0.001533827,0.01945299,0.002198009,-0.12600282,0.39772412,0.029216439,-0.11078735,-0.15727797,-0.22995062,0.022547195,-0.33823588,0.1269519,-0.04490548,0.01502543,0.19980256,-0.12517767,-0.04874509,0.0028477,0.2733233,-0.19895512,-0.119869165,-0.16069894,-0.15659638,-0.1460582,0.04412678,0.120809264,0.022579715,0.051305685,6.60E-05,-0.14573033,0.16520518,0.063833684,-0.05620109,0.06900781,0.011203111,-0.042426992,-0.19177537,0.17867705
A01K001,-0.21206352,0.14485708,-0.06790047,0.12623383,0.050845355,-0.17269027,-0.124679275,0.005106478,-0.12797038,-0.011319662,0.26396024,-0.05625905,-0.051552225,-0.22227405,0.25530425,-0.09844992,-0.20652102,0.008196349,-0.070234045,-0.05480844,0.039504934,0.25094044,0.07833322,-0.082283534,0.007722673,0.057535496,0.01817594,0.0296219,-0.019368356,-0.11017921,0.03533852,-0.19464356,0.1403753,0.06363982,-0.03600233,0.24138917,0.20949416,0.1090632,0.087458596,-0.0886869,-0.03740557,0.17721637,0.04631571,-0.20042305,-0.07525042,-0.103877075,-0.03741689,-0.15669332,0.090147056,0.067325346,0.04071197,-0.120106146,0.10400849,0.25256252,0.19172193,0.05528663,-0.093698844,-0.1601718,-0.07713983,-0.012274124,0.03539692,0.21270047,-0.009876239,0.14560418,0.12111103,0.36032248,0.04499937,0.1281921,0.004890353,-0.08382356,0.1973309,-0.18301457,-0.024279425,-0.05689784,0.14571308,-0.01835006,-0.13277884,-0.03323181,-0.010078721,0.28661725,-0.041363586,0.13619293,0.07111939,0.33768824,-0.2915295,-0.01221417,-0.010583614,-0.115068674,0.06112702,0.28228432,-0.106248915,-0.031150417,0.08260555,0.004772726,0.1885454,-0.015722848,-0.13497892,-0.2733225,-0.3791928,-0.10700508,-0.2727281,0.13532701,-0.096557975,-0.24481031,0.08059833,-0.16597061,0.08310326,-0.12423967,0.06355173,-0.23766923,0.3709223,-0.022945356,-0.08455993,-0.14825487,0.047340672,-0.25922465,-0.12729174,-0.028701214,-0.006300823,0.07027835,-0.11281501,0.105479315,-0.29273358,0.058952756,-0.015981102,-0.095041096,-0.004676065,-0.06161998
A01K005,-0.055955123,-0.15750036,0.04428847,0.037541635,0.26491264,-0.18928142,-0.16208625,0.2600324,-0.10572996,0.078151375,0.11589187,0.007968309,0.095363595,0.15078217,0.28209406,0.124623425,0.4215944,0.23364916,-0.15134437,-0.23170772,-0.2124911,0.04770758,-0.005048436,-0.07108647,0.18768863,0.124153264,-0.24201554,0.05189462,-0.014535999,-0.33624536,-0.048314102,0.07551092,-0.046261776,0.025837028,0.16844869,0.11002457,0.22642928,-0.055386465,0.23875764,0.040075548,0.06649291,-0.2755681,-0.056298975,-0.24344315,0.22544006,0.13139601,0.19285864,-0.21049127,0.049827088,0.13497338,-0.16790959,-0.09582067,0.011703371,0.37028563,0.14119525,0.07316787,-0.013803206,0.11598055,-0.1333368,0.08980646,0.220908,-0.16218928,0.11104788,-0.19348373,0.1285811,0.11140039,-0.09652596,0.0157018,0.093801744,-0.25009865,0.23943967,-0.2118621,0.08047405,-0.15485206,0.11178831,-0.058213457,-0.023918238,-0.17414862,0.03769634,-0.02398736,-0.39931113,-0.06606583,0.26711488,0.09730972,-0.27452767,0.23406109,0.21528119,-0.106190324,0.11137824,-0.16575544,-0.149905,-0.054958362,0.2113403,-0.38462427,0.491007,0.14671753,-0.3142401,-0.21767543,-0.076833904,-0.24345094,-0.25556624,0.023522194,-0.104193814,0.2242123,0.22806062,-0.059823498,-0.04536323,-0.035664223,0.25293857,-0.10519054,0.115933836,-0.074200474,0.010648444,0.039747756,0.029017266,-0.07510986,-0.16043045,-0.22563837,0.25544888,0.09950349,0.021369714,0.06836909,0.06826913,0.16330938,-0.084250286,-0.076747686,-0.20956133,0.107106805
A01K011,-0.16885781,0.058941625,0.09686114,0.1920033,0.13575913,-0.21600646,-0.11996174,-0.15137455,0.06583993,-0.006049896,0.1919592,-0.05212654,-0.014252408,-0.124112785,-0.003026846,0.10455442,0.009444507,0.28651717,-0.27093259,0.080116086,0.18509366,0.12769598,0.11205484,-0.12399644,-0.11460819,-0.04589641,-0.12890635,0.05132559,0.16146809,-0.14398548,-0.13357615,-0.022880975,-0.113734215,0.090139784,0.033021677,0.042714473,0.3168203,0.008777089,0.13424692,-0.043863494,0.027008846,0.02692087,-0.032291394,0.00096117,0.26923734,-0.015111133,-0.011403719,-0.13751721,-0.08042255,0.23730612,0.003878916,-0.184023,0.001268841,0.34944573,0.15423319,0.027373182,0.013736675,-0.035313673,-0.07719501,0.011608246,0.17247519,-0.06835965,0.08667709,-0.18448812,0.08257712,0.008158535,-0.049170986,0.1110875,-0.08338982,-0.09597379,0.03575838,-0.42359436,-0.26789877,-0.014663103,-0.012660144,-0.025837544,-0.08215088,-0.026294407,-0.15353423,0.00568604,-0.05263563,0.037130527,0.32585573,0.1493239,0.1349436,0.08136828,0.015660701,0.06623894,0.00547374,-0.12531695,-0.1798328,-0.05059281,0.26337206,-0.09057731,0.319375,-0.05896751,-0.048828322,-0.23535651,0.019666906,-0.104124546,-0.1158596,0.076309584,0.13998266,-0.015949333,0.2847287,-0.022241909,0.017412808,-0.24629746,0.21516708,-0.33277243,-0.032529835,-0.039010737,0.07251377,0.04622649,0.17001776,-0.070092104,0.04833725,0.107555464,-0.10262153,-0.09201067,-0.035319064,-0.15032108,0.05470857,0.033685636,-0.09726959,0.081257656,0.005727004,0.026400464
A01K023,0.13673374,0.027133737,0.18998146,-0.039466303,0.043912757,-0.20316981,-0.004300807,-0.04239276,-0.3704058,0.042947203,0.20152874,-0.1686011,0.010637935,-0.16395448,0.026546555,0.077442475,0.12994228,0.27621892,-0.07428279,0.12296234,0.05524481,0.24001285,-0.16397303,-0.11762025,0.13382868,0.09340267,-0.2262476,0.08222228,-0.01821413,0.13478647,-0.18786861,-0.07329775,0.005194248,-0.048843987,-0.32450795,0.19952744,0.11215695,0.3232526,0.15414158,-0.10235843,-0.15979418,0.12779342,0.1076175,-0.1301058,0.16423942,0.12452844,0.116144486,-0.25963056,-0.2229088,0.18958579,-0.027373057,0.03799749,0.23587504,0.08374865,-0.23860237,-0.115761206,0.14617616,-0.09779868,-0.11014671,0.12716153,-0.05769476,0.020350348,0.20390882,-0.07280637,-0.06151634,-0.032881424,-0.023954587,0.22417243,-0.08569019,-0.15361445,-0.02656912,-0.22470903,-0.25087208,-0.14339143,0.023320409,-0.036794566,-0.099938504,-0.1246273,-0.12362056,0.13606623,0.001179527,-0.0341178,0.1444852,0.31918815,0.2739638,0.027942937,0.29539344,-0.11364385,-0.083635114,-0.026937298,-0.07813697,0.07830479,-0.084716395,0.16392615,0.13675879,0.09899151,0.030380726,-0.30351964,-0.03504028,-0.15779655,-0.1950792,0.023197826,0.16158748,0.018358998,0.32955366,-0.1455871,0.001422981,-0.042747255,0.088092156,-0.32185805,0.039615627,0.005421998,0.13762784,0.36656848,-0.029409343,-0.123215094,0.09270853,-0.000101431,0.2758333,-0.016834753,-0.049611636,0.01594158,-0.06154016,-0.060173046,0.019148717,-0.08361625,0.055948604,-0.008068888
A01K029,-0.004058383,0.022157038,0.18738467,0.102414556,0.15641314,-0.1120135,0.005627009,0.13520949,-0.16425101,0.03088269,0.16319509,-0.098765366,-0.019548682,-0.10594171,0.1825124,0.12210534,-0.08514636,0.224427,-0.17851204,-0.028700769,0.07495644,0.040446136,-0.012280389,-0.1329853,-0.001292688,-0.009807689,-0.08349062,0.03143894,0.03951833,-0.07125775,-0.10128696,0.08422311,-0.006843281,0.024641722,-0.23077466,0.3189463,0.1271338,0.104650654,0.012363314,-0.10995772,0.023006527,0.095491424,-0.034635946,-0.06542321,0.2094467,-0.0683299,0.129312,-0.23220707,-0.14193228,0.2241203,-0.032415576,-0.0483333,0.24862552,0.0905716,0.047309533,-0.24415037,0.03606592,-0.096513696,-0.17611133,0.068362705,0.110777594,0.14448316,0.20508632,-0.2037646,0.038762018,-0.014953396,-0.009152932,0.2759499,-0.098268844,-0.15606378,0.011312025,-0.30921334,-0.19894156,-0.07367458,-0.04146653,-0.062408935,-0.2360876,-0.0807393,-0.090436675,0.13596019,-0.03665257,-0.014562767,0.24172644,0.22798587,0.21548542,-0.012434271,0.11627866,-0.030580487,-0.07557659,0.028864432,-0.10519575,-0.14099465,0.20919253,0.02562422,0.23922375,0.016912604,-0.023709282,-0.16816257,0.034010608,-0.007802052,-0.1560304,0.014967886,0.18154196,0.03911763,0.10642735,-0.17484254,-0.09316863,-0.06076129,0.23285463,-0.45290494,0.083049394,0.07615162,0.1295305,0.12868072,0.14610633,-0.1255624,0.14892282,0.025435785,0.13001819,-0.09765102,-0.17962715,0.055609655,-0.02773033,0.049671564,-0.027993612,-0.06250454,0.07344977,-0.023168227
A01K061,-0.17110506,0.011154749,-0.020768775,0.15794688,0.36700588,-0.25726402,-0.05171016,0.07797317,-0.10532479,0.0095637,0.30142272,0.036401544,0.24615511,-0.51440173,-0.02128019,0.13603476,0.20746404,0.043474056,-0.063451655,0.13079278,0.20267989,-0.102520086,0.3539476,-0.34103635,-0.25810897,0.28833184,-0.06630745,-0.16039464,0.028518314,-0.17643715,-0.31304136,0.2849005,0.045436792,0.09892837,-0.1255557,0.23804665,0.1642105,0.09671197,0.2053086,-0.085531466,-0.3689514,-0.047549,-0.031008342,0.028452022,-0.006992227,-0.004367752,0.122413635,0.09592709,-0.0892435,0.30584964,-0.1938446,-0.13262728,0.19228126,0.12594797,0.13980754,-0.16065499,0.2254434,0.016628912,-0.23898079,0.1388544,0.2053156,-0.08716415,0.17476961,0.03923486,0.042881433,0.16633713,-0.052288968,0.20762706,-0.10058404,0.008898683,0.27510393,-0.20191143,-0.11132985,-0.20925099,-0.09859628,0.013863771,0.19960819,-0.14142096,-0.15952992,0.0866655,-0.08892249,-0.06522374,0.23588774,0.37600553,-0.1602286,0.0638346,0.29623505,-0.10723584,0.04233294,-0.088617556,-0.5807004,-0.068263434,-0.2666029,-0.18047893,0.16279992,-0.24104431,-0.001474066,-0.17647126,-0.2789999,-0.03615689,-0.22286716,0.15916806,-0.24644372,0.19518608,0.10211996,0.1681801,-0.09787019,0.03982838,0.17710999,-0.047969703,-0.041984804,0.023901723,-0.0850852,0.23599435,-0.1265986,0.032963555,-0.13516262,-0.1443597,0.2134917,-0.20741424,-0.14798301,-0.004378633,0.11442314,0.10355484,-0.005104215,0.012668778,-0.15113741,0.000170546
A01K063,-0.14796606,-0.08622074,0.19755082,0.1756371,0.10119663,-0.20140524,-0.04774558,-0.12767088,-0.18094274,0.24648337,-0.11351789,0.053390853,0.24735318,-0.08519812,-0.10065788,-0.16746242,0.060577746,0.021578202,-0.0933539,0.0366206,-0.039702356,0.33693814,-0.012796468,-0.05135145,-0.049629476,-0.06915766,-0.20926937,0.052057307,0.11656219,-0.30384275,-0.051984694,-0.0571674,-0.028022299,0.2617879,0.009158242,0.23137157,0.19841354,0.003615436,-0.025781233,-0.062865175,0.14362723,0.2518477,-0.20649202,-0.017890628,0.050910152,-0.013716297,0.014405588,0.011290229,0.028533986,0.1036523,0.18527889,0.09606625,0.26011547,0.17883334,0.07307556,-0.13343327,0.007852757,-0.045393027,-0.1213334,0.002205599,0.12692192,-0.16076636,0.41197428,0.008155965,0.035143893,0.12357169,0.06840626,0.023816722,0.009927793,-0.25127912,0.11321307,-0.29735327,-0.18985683,-0.26204652,-0.167299,0.15327065,-0.05643957,-0.40974274,-0.108392656,-0.0295626,0.09850703,0.1657858,-0.043634236,0.2248547,0.17409746,-0.028068192,0.2712519,-0.057827745,-0.1619284,0.106038675,0.006489423,-0.09703127,0.039644796,0.10515919,0.37676096,-0.06660604,-0.3877231,-0.30479005,-0.039021954,-0.069640554,-0.17993948,-0.029194772,-0.14267063,-0.032741558,0.2882688,0.000729803,-0.123684786,-0.060444508,0.11136717,-0.3439373,-0.20361653,-0.07132236,0.20155407,0.2110764,0.13998659,-0.110644765,0.015286015,-0.075092785,0.016726704,-0.16433445,-0.029765371,-0.029805114,-0.040707376,-0.000698482,0.016868101,0.1660922,-0.16945857,-0.0909855
A01M001,-0.058469974,-0.17841226,0.24999733,0.07651942,0.3139907,-0.018057158,-0.1359145,0.06490266,-0.17063831,-0.060303465,0.2699953,-0.11721782,-0.15050748,-0.08333276,0.14224124,0.02886713,0.27204546,0.176966,-0.18085188,-0.060273994,0.1510893,0.27147368,0.117089905,0.07724374,-0.11025004,0.18707822,-0.04638204,0.035873786,0.14001961,0.15069136,-0.2727953,-0.24053068,0.043365557,-0.050962616,-0.11803259,0.27727765,0.033836707,0.028373055,0.21370196,-0.11370571,0.06811939,0.000267071,0.15155318,-0.06505633,0.25183332,-0.11662348,-0.15351275,-0.000211023,-0.25948316,-0.10146629,0.28863838,-0.18407929,0.06862276,0.08700399,-0.051663365,-0.011229445,0.14763641,0.12822011,-0.14799966,0.3387017,0.069289595,-0.008619138,-0.018078586,-0.020393526,0.2945665,-0.09323046,0.004710008,0.15368587,-0.19141941,-0.12548345,0.3078387,-0.17981514,-0.21994981,-0.10070683,0.006472955,-0.033827707,-0.20046711,0.18412778,-0.22070083,0.13997176,-0.06883124,0.04302359,0.015377595,0.3128498,0.10779393,0.035392944,0.22117053,-0.06825169,-0.080025926,0.21411866,0.057093687,-0.034008846,0.038525943,0.06615591,0.14802432,0.069397025,0.003148642,-0.0927772,-0.103601135,-0.1523172,-0.026941791,0.13997516,-0.062652335,0.21530212,0.2424669,-0.04012915,0.068315946,-0.036322705,0.21505643,-0.2165095,-0.06605924,-0.02366201,0.12512618,0.15458246,0.012708348,0.013387108,-0.118360355,-0.05790402,0.17022176,0.23734215,-0.029534161,0.065345205,-0.08619029,0.097298555,0.18299827,-0.030189196,0.0690661,-0.01668972
A01M007,-0.04266486,-0.2185742,0.13260208,-0.08830913,0.06863564,-0.1624686,-0.23437981,0.04001932,-0.11724188,-0.008724088,0.1292636,-0.05033331,-0.21491197,-0.34005004,0.103757106,0.13950695,0.04098539,0.18869974,-0.17357574,-0.1128477,0.030884746,0.26909196,0.16194928,0.054276843,0.044038102,0.0828977,-0.07374684,0.012667548,0.09557093,0.033396546,-0.12921347,-0.019165004,-0.02426454,-0.045193907,0.03463934,0.39885926,0.21347879,-0.09588482,0.11900979,0.006736619,0.18334964,0.06944943,0.014260275,-0.030564392,0.08756806,-0.055960853,0.11257036,-0.08952043,-0.30393183,-0.0910926,0.15632863,-0.011065941,0.1821215,0.031472027,0.30355844,-0.11116775,0.05801958,0.09507612,-0.2709778,-0.030338353,-0.025414886,-0.003338345,0.073433034,-0.051711544,0.10221724,-0.023860151,-0.060984675,0.25392172,0.021622622,-0.055393577,0.12088358,-0.22101927,-0.000879692,-0.26349065,-0.18518095,-0.22842036,-0.080535874,0.13592903,-0.007242341,-0.011188976,-0.084981136,0.10811989,0.111603834,0.26665226,0.06774632,0.049567882,0.09024204,0.018724356,0.04204645,0.14968419,-0.2121974,0.10386798,-0.1317988,-0.023930917,0.26413482,0.090827346,-0.13267168,-0.10739698,0.016345166,-0.1268293,-0.24755381,-0.007578437,0.011276431,0.3094233,0.15935895,-0.11885758,-0.068892606,-0.06534937,-0.004431246,-0.2999959,0.17538358,-0.14940928,0.15429763,0.19394471,0.1940226,-0.005315512,0.22567432,-0.056542255,0.10191989,-0.1002204,0.038602203,-0.000789698,-0.1460158,0.079695456,0.07617944,0.122403555,-0.15613748,0.03959668
A01M021,-0.068506666,0.009537401,0.027677312,-0.044039045,-0.001058571,-0.28366387,-0.036582723,-0.13900211,-0.04788618,-0.015315037,0.07315129,-0.04600364,0.12256367,-0.06964481,0.047215797,-0.06973182,-0.005100797,-0.03739997,-0.22978055,0.091287844,0.044271495,0.28078353,-0.06177713,0.117421076,-0.09955372,0.19752756,-0.03545226,0.045804232,-0.022996377,-0.00098545,-0.18822251,-0.035544682,-0.15008627,-0.057611614,-0.15258645,0.2950416,0.25214353,-0.11679807,0.1474778,0.03231101,-0.092656225,0.20283622,-0.044092137,0.05821453,0.050957028,0.025610516,0.093299165,0.011803851,-0.20759122,-0.044226073,0.0372934,0.017419068,0.23728995,0.2205998,0.021803979,0.018538192,0.03621103,0.008286458,-0.15311225,-0.016070742,-0.05396318,0.08448344,0.1528472,-0.069080696,-0.032969374,0.15170583,-0.031225689,0.14373042,-0.095241204,-0.1653094,0.15245545,-0.1929458,-0.20847282,-0.06826481,0.063186325,-0.059160337,-0.009688911,-0.004831844,-0.099151894,0.15182273,-0.082525045,-0.0625436,0.23630251,0.09980172,0.06269665,0.19143714,-0.12740237,-0.18961224,0.03422483,0.30855674,-0.21847248,0.004146386,-0.09336561,-0.10952456,0.33972174,0.016672287,-0.13692774,-0.32504988,-0.011145488,-0.03341834,-0.18855283,0.037551165,-0.023867792,0.038378675,0.25691786,-0.038112804,-0.01877344,-0.083392814,0.096609205,-0.27095297,0.15769535,0.11756311,0.17847358,0.032674335,0.15369338,0.007443116,0.006988187,-0.09644097,-0.04106209,0.09192702,0.10113673,0.029459331,0.005969713,0.09347765,0.015898766,-0.2227585,0.053726617,-0.042348456
A01M031,-0.049803928,-0.10606716,0.2577525,0.00771608,0.1646005,-0.06685337,0.055764444,-0.17126197,-0.14379704,-0.028143726,0.30622548,-0.008826036,-0.015805503,0.09635514,0.17937928,-0.02416499,0.18953116,-0.10593093,-0.16771698,0.029980632,0.064693205,0.1204655,-0.040988535,0.40460694,0.030737024,0.16822655,-0.12181834,0.14550364,0.12846696,-0.08333923,-0.09615875,0.099163994,0.002682481,-0.20294727,0.15606125,0.14304379,0.06677908,0.04550279,0.019510876,0.14012697,-0.30364338,0.19033341,0.08138544,-0.057616696,0.24753794,0.2491851,0.043102473,-0.04422135,-0.13234529,0.25922036,0.031586148,0.024254214,0.32659784,0.10653204,0.24581589,-0.08948983,0.20540498,-0.14000554,0.02820097,0.2988504,-0.17016906,-0.09705118,0.17834218,0.040371064,0.057286087,-0.016254578,-0.24447119,0.09644594,-0.09881704,0.1302747,0.36172226,0.1244374,-0.42546988,-0.06174372,0.22809483,-0.17629363,-0.04326559,0.07609031,-0.103295974,0.09960053,-0.19294044,-0.13375872,0.14922403,0.18284224,-0.03042073,0.16663149,0.03679851,-0.014750508,0.17050603,0.032235347,0.08716594,-0.10745963,0.03980731,-0.0776939,0.3129588,-0.07389049,0.058076035,-0.12465591,-0.3425577,-0.025514936,-0.17155245,0.16259328,-0.20851724,-0.037129957,0.12182418,-0.018693525,0.13299067,-0.27831447,0.11664445,-0.2472092,-0.16909479,-0.29268086,-0.057584796,-0.027805392,0.13795243,-0.032551505,0.06572136,-0.053245865,-0.009129457,-0.06012026,0.18305829,-0.001173998,0.022643708,0.14262031,-0.1137312,-0.19539313,-0.09045098,0.032460738
A23J003,-0.24893953,-0.03522406,0.002718522,0.012629472,-0.009146847,0.05375217,-0.21571222,0.17281593,-0.06457206,0.16253124,0.089205116,0.0415192,0.078554645,-0.15503137,-0.029148081,-0.025362732,0.08192808,0.05278717,-0.17971583,0.15550104,-0.13738377,0.36993682,0.15191536,-0.003475948,0.09988212,0.27838248,-0.14926338,0.022995189,-0.035183657,-0.14108273,-0.07765458,-0.014672549,-0.04842851,0.037065614,-0.07459873,0.27563792,0.15237457,0.014386175,0.24942087,-0.014300737,0.08616689,-0.03983051,-0.021478027,0.18883334,0.12469702,-0.0510783,-0.029013632,-0.109356575,-0.14318597,0.27341688,0.05934434,-0.11535765,0.21416599,0.14539877,0.007439887,-0.03285908,-0.085931525,-0.26986086,-0.08492558,0.09187822,0.32922277,-0.21537718,0.19386365,-0.29340255,0.029080706,0.33456972,0.01967885,0.26072288,-0.07719947,-0.1715703,0.13547127,-0.28445077,-0.2737564,-0.04992317,-0.24933583,0.06994516,0.046358146,-0.13068147,-0.001503892,-0.22867358,-0.07931068,0.19972587,0.10707066,0.43421224,0.17217198,0.031700585,0.20881534,0.108065106,-0.06799867,-0.1748609,0.060985006,0.08514756,-0.045172065,-0.1152965,0.28090242,-0.072352886,-0.22077774,-0.16483797,-0.15709068,-0.08481855,-0.25512034,0.056757867,-0.12610206,-0.19387732,0.032607645,0.18316421,0.18679632,-0.16543534,-0.17396298,-0.31128842,0.06082959,-0.18291554,0.13791846,0.28552237,0.16915064,0.20279017,-0.016290313,0.036305044,-0.2792817,-0.23466372,-0.11924871,0.018497983,-0.15891702,0.1496744,0.049395252,-0.0697457,-0.000250535,-0.019462451
A23L033,-0.19590393,-0.007515446,0.09271152,0.0827249,0.06071069,-0.31458098,-0.08693748,-0.03249828,0.036690045,0.14193997,0.1741601,0.07985592,-0.0924686,-0.25788862,0.13288695,-0.021615861,0.061866533,0.20863056,-0.149953,-0.085501686,-0.032084636,0.09686495,-0.007728693,0.020554451,-0.056984648,0.019022882,-0.103297256,0.19441383,0.018986242,-0.048909117,-0.20283724,0.01409571,-0.19777665,0.005968388,-0.05729543,0.11607181,0.15863095,0.06701505,-0.000224695,-0.113990285,0.25699535,-0.013521715,-0.017294934,-0.17076515,0.30401012,-0.04788244,0.1399043,-0.21184625,-0.02935455,0.078563735,0.040705558,-0.052064262,-0.014519795,0.33274737,0.25686663,0.008893711,-0.009206378,-0.05415939,-0.22714297,0.08750383,0.071362406,-0.09758814,-0.05952122,-0.2010843,0.07973108,0.04708868,-0.02195949,0.27629545,-0.15518743,-0.35184208,-0.03352064,-0.3759425,-0.2955338,-0.10824597,-0.18004738,0.008303196,-0.07746281,-0.022126585,-0.082184136,0.17379214,-0.086216986,0.0545197,0.21982756,0.1677117,-0.026717972,0.06644447,0.19135004,-0.07262754,0.019214353,-0.08859013,-0.10516289,-0.055332307,0.0675994,-0.17122969,0.2873811,-0.04462353,-0.19017367,-0.09991225,0.05461605,-0.32929802,0.038169358,0.025170693,-0.009929683,-0.07553448,0.28214574,-0.13329466,0.08957198,-0.37327865,0.19034281,-0.19911148,0.09505482,-0.06641487,0.099700846,0.048224773,0.15902284,-0.030801473,0.23018622,-0.008131927,0.030935759,-0.047850255,0.036453165,0.15454714,0.012815825,0.051686835,-0.036290076,0.096504614,-0.089338385,0.15113214
A41B001,-0.2684772,-0.098995686,0.02645839,0.1377267,0.22302657,-0.07223593,-0.12327773,-0.114241764,-0.1294183,-0.12453894,0.38048342,0.16989152,0.12920362,-0.14260197,0.002175692,-0.18227571,0.22295772,0.14944547,-0.08349786,0.08273374,-0.18177444,0.20858032,0.15902367,-0.029797781,-0.06613899,0.0862135,0.017388865,0.2816998,-0.16701359,0.18470025,0.026988152,-0.10911448,0.045549497,-0.07079889,-0.114249274,0.26035947,0.25264952,0.12959784,0.045759432,-0.11316904,-0.2119236,0.07061742,0.101908684,-0.14362763,-0.10699588,-0.17362498,-0.18321723,-0.12697096,0.14620396,0.022808991,0.07259948,0.032530043,-0.14778881,0.19362831,0.107986294,-0.05918453,-0.021681605,-0.12945665,-0.08825673,0.15391243,0.2672199,0.02830127,-0.08669104,-0.22000949,0.04491955,0.061087396,-0.09653794,0.003881586,-0.22433914,0.18776245,0.022883654,-0.14746377,-0.26041162,-0.000671995,0.049535345,0.07449493,-0.21111019,0.00942669,0.007467522,-0.11975545,0.01594756,0.14375472,0.10487285,0.22714251,-0.011572805,0.11986001,0.18043043,-0.04841328,-0.12535629,0.099601775,-0.13772781,-0.06785483,0.24632661,0.24400349,0.2955342,0.18455873,-0.508436,-0.26624694,0.06741625,-0.10621099,-0.3271856,0.006828315,0.17283429,0.10415523,0.065309,0.10237375,-0.22551304,-0.13277979,-0.12013782,-0.10256442,-0.009962311,-0.12940635,0.30670354,0.26109937,0.41914088,-0.00192136,0.03896923,-0.24508606,-0.09389566,-0.30620912,0.114625655,-0.049079783,-0.10478551,0.032438155,0.2540684,-0.084810376,-0.21718366,-0.06058378
A41D001,-0.16639271,0.03502003,-0.02121134,0.12656394,0.10725046,-0.12777606,-0.021324635,-0.295698,-0.1196586,0.026964536,0.2185532,0.051390227,-0.10010717,-0.12866582,0.10288998,-0.25950757,0.12657568,-0.053551126,-0.057133157,-0.12004914,0.06399759,0.13787106,0.006718379,-0.05084695,-0.16125168,0.15382893,-0.11718449,0.046161354,0.014696226,0.08453942,-0.18913499,-0.09333104,-0.21035261,0.018621715,-0.022349168,0.094736196,0.29014814,0.09144605,0.220781,-0.018328039,0.015667634,0.022221906,0.019169029,-0.07655089,0.018559456,0.034071762,0.05415737,-0.18509465,-0.28794214,-0.04110542,-0.012963382,-0.000726147,0.22286679,-0.16653825,0.18010244,-0.15282677,-0.00201277,-0.020071778,-0.2940997,0.09323932,0.12010239,0.15788338,0.20738566,-0.018250965,0.17878155,0.005082473,0.050343372,0.14449167,0.16529882,-0.089016326,0.20695719,-0.089711264,-0.023975726,-0.00582462,0.13834105,-0.12674105,-0.10354915,-0.168016,-0.21279229,0.09004813,-0.04890692,-0.044417188,0.06811875,0.18753235,-0.073473044,-0.026342785,0.11065961,-0.09177152,0.006909766,0.0549073,0.008129985,-0.09140346,0.034950852,0.1520472,0.08530439,-0.13742805,-0.2132346,-0.22408737,-0.087187506,-0.045722477,-0.11409421,0.17966288,-0.15462144,0.12993392,0.34907764,-0.10558694,0.002211494,-0.16638623,0.09359692,-0.29164925,0.0549803,-0.032700066,0.1890954,0.06729242,0.117802806,-0.008366195,0.21374767,0.08943535,-0.09785009,-0.08075268,-0.02345385,0.17710628,-0.20138767,0.038848408,0.06709968,-0.07157071,-0.016519407,0.09641772
A41D003,0.09385483,-0.19266589,0.042725272,0.17013712,-0.018629722,-0.11315222,-0.055514228,0.11344067,0.043343257,-0.026526872,0.13285048,0.057220686,-0.035364173,-0.16058783,0.10994925,0.025808621,0.08467522,0.03839413,-0.008515215,-0.35808355,-0.014533835,-0.010668798,0.05818289,-0.27169257,-0.2631267,-0.14317389,-0.1640867,-0.08140761,0.062371593,-0.20005545,0.001618675,-0.011248075,0.003648487,-0.06652834,0.017664352,0.20777716,0.11415341,-0.16813064,0.20053631,-0.031144453,-0.013517123,0.07364278,-0.1680743,-0.049834307,0.058864087,0.0463362,0.027169824,-0.005999376,-0.14866775,0.32047555,0.003702211,-0.14210474,0.2787079,0.2730245,0.007060498,0.15574668,-0.10741056,-0.096531026,-0.36330092,-0.037315655,0.019475773,-0.20959674,0.0718457,-0.074690446,0.18027996,0.000851355,0.24383849,0.14114635,-0.15031646,-0.012835793,0.13489178,-0.13826811,-0.27225178,-0.05406035,0.11932303,-0.08569936,-0.34451687,0.08242564,-0.26617315,0.086155586,-0.18054855,-0.0597324,0.26590195,0.20049152,0.017294344,0.21300776,0.14956202,-0.11778488,0.16699062,-0.08470136,0.14181602,0.24997433,-0.101066,0.16417344,0.38625515,0.056301493,-0.22926709,-0.116453566,-0.1617433,0.078237034,-0.30187577,0.06043129,-0.1241075,0.17027994,0.34010017,0.08599781,-0.051498987,-0.30261627,-0.10510503,-0.109796755,-0.006637949,0.08127354,-0.11527979,0.051366277,0.20597406,0.15704565,-0.13943477,0.11340347,-0.09478737,0.034400087,0.18748064,-0.11301664,-0.071799256,0.2717614,-0.017467046,0.039252892,-0.18360643,0.13963103
A41D027,-0.25398722,0.055719398,0.16919804,0.114553034,0.21521209,-0.19140516,0.10669387,-0.0439183,0.092325605,0.19867547,0.5032835,-0.21536168,-0.13229918,-0.13673551,0.042711563,-0.100596726,0.17530434,0.15989293,0.12952925,0.050331626,-0.08729001,0.05645966,-0.32300234,-0.10148631,0.09110867,0.23128152,-0.17165951,0.19700253,0.0796593,-0.03852705,-0.2051155,-0.14297949,0.09536824,0.14930567,-0.08656295,0.116848074,0.12076513,-0.28466564,0.074412584,-0.13487563,-0.06898619,0.20600617,-0.1567981,-0.05005755,0.10498845,-0.04277181,-0.22986528,-0.00027019,-0.41239676,0.2755768,0.14327025,-0.29006612,0.2753175,-0.13381056,-0.06667979,0.019596124,0.2499089,-0.009174918,-0.18530637,0.13027458,0.13462533,0.09263666,-0.07932869,-0.07738264,0.10794747,0.11880201,-0.06151692,0.11451004,-0.054619122,0.071158744,0.18297863,-0.24392737,-0.085861996,-0.11929971,0.07953191,-0.12626703,0.16436473,0.10768659,-0.12056418,0.012822343,-0.03473352,-0.016468922,0.005497952,0.01487563,-0.08695456,0.20469883,0.28308237,0.05638788,-0.062839545,0.029962692,-0.28574473,0.04482186,0.029617067,-0.07149383,0.171776,-0.113762766,-0.10826209,-0.31800184,-0.1069042,-0.095363066,-0.37590346,-0.25139174,-0.18263654,0.06388634,-0.04555642,-0.12118766,0.025598213,-0.009131139,0.26542342,-0.2051841,0.5069991,-0.034136113,0.2521657,-0.11870037,-0.24099712,-0.058158524,-0.035171214,-0.08407159,-0.22209467,0.007233346,-0.08766495,-0.24067108,0.10504262,0.059218373,0.18616949,-0.038749818,-0.13302694,-0.15348507
A41H003,-0.06771997,-0.15163282,0.20660788,0.26169753,-0.16825381,-0.3063698,-0.098951034,-0.1399421,0.06321414,-0.012016669,0.050916586,-0.15078962,-0.22539198,-0.035362937,0.08004478,0.14982449,0.05042454,0.012353054,0.11554835,-0.09036089,0.22885887,0.31979495,-0.04108249,-0.1377874,-0.12277385,-0.074248806,-0.03441548,0.06551987,-0.22834298,-0.07519332,-0.16873118,-0.11977345,0.13369823,-0.035641797,0.24561626,0.21605928,0.087247096,0.044391755,0.1482026,0.001176381,-0.006344955,0.019470328,-0.061745837,0.001969438,0.1849795,0.03966688,0.05302636,0.003286027,-0.089761026,0.0558562,-0.054611094,0.010677509,0.13012241,0.24916421,0.09614735,0.17117107,0.012388038,-0.13283657,-0.14353192,0.27747077,0.12860715,-0.1304973,-0.0447272,0.027727632,-0.123306766,-0.04215957,-0.12746826,0.24606818,0.05893977,-0.062322717,0.10440769,-0.11562819,-0.10831357,0.015998969,0.018758876,-0.055651393,0.05882439,-0.09024988,0.018511642,0.006301485,-0.07088962,0.01653201,0.1985976,0.3984845,-0.122615755,0.10003351,0.39077228,-0.1541916,0.18344863,-0.09677681,-0.24394666,0.001331583,-0.010539245,0.06677593,0.35609162,0.20807141,0.01822679,-0.17241411,-0.17112021,-0.108939424,-0.24544309,0.12894917,0.038139116,0.059270483,0.25139612,-0.19050857,-0.08909132,-0.04538693,0.37175646,-0.06897488,0.0680265,-0.14921331,-0.003613679,-0.19195531,0.104314536,0.054241404,0.040452905,-0.068679094,-0.004686348,-0.19839422,0.1492137,0.028684445,-0.004646051,0.14195098,-0.077118725,-0.149156,-0.1661707,0.10881998
A41H043,-0.069775194,-0.22367238,0.10384801,0.08850951,-0.10328842,-0.08989005,-0.20455515,-0.099039,-0.2451524,0.09353239,0.22538194,0.000140143,0.041375667,-0.04428744,0.08423527,-0.18574665,0.2580403,0.014774494,-0.24906196,-0.16856433,0.1117463,-0.048350707,-0.15824232,-0.13149683,0.072791584,0.0486187,-0.05184202,-0.015024141,0.1156993,-0.023772942,-0.16971168,-0.048955176,0.048614077,-0.053128663,0.07490837,-0.11020476,0.18727061,-0.07044987,0.072911926,-0.14583588,-0.218352,-0.001278522,-0.08912238,-0.16186555,0.3014851,-0.18967697,-0.08043439,-0.08455896,0.20888865,0.08749189,0.14618528,-0.04446887,0.11024471,0.22932364,-0.001877825,-0.08152175,0.35569912,-0.26213297,-0.112536885,0.18410015,-0.021809151,0.02964516,0.006905532,0.04350721,0.08491294,0.3832931,0.1197794,0.35021144,0.07093615,-0.18166979,0.36021945,-0.09854095,-0.021410353,-0.0672163,0.21967463,-0.12824568,-0.20278178,-0.20843779,0.005679525,-0.18434295,-0.121421516,-0.10557193,0.14124496,0.2472269,-0.27598366,0.056038413,0.23859838,-0.16371305,0.018407842,-0.073174335,-0.04319336,-0.011089521,-0.033420518,-0.12278811,0.41688228,0.10588533,0.026596623,-0.11936097,-0.14205897,-0.10706269,-0.1748499,0.050554518,0.011482671,0.22080365,0.009122501,0.031284668,0.023040177,-0.09019699,0.05372921,-0.13240835,0.1821636,0.041020166,-0.059442133,-0.04849138,0.3293479,0.013857101,-0.072166644,-0.16565698,0.097573094,0.08557702,-0.10570066,0.02651694,-0.24747847,0.14231502,0.09698635,0.04778139,-0.17996573,0.047825407
A42B003,-0.107651025,-0.08767016,-0.040466815,0.06249781,0.01626191,-0.10112638,-0.15609603,-0.023367403,-0.12176988,0.24782819,0.2912464,0.0682607,-0.072165355,0.038093895,0.1481653,-0.007283165,-0.2356361,0.10582391,-0.10468069,-0.15121746,0.00174789,0.20899238,0.07379553,-0.26700792,0.022981808,-0.14577453,0.10780816,0.06469214,0.0692764,-0.18293776,-0.076567985,-0.040802762,0.20934059,0.037298374,-0.09338476,0.17619191,0.1615217,0.03982999,0.18641314,0.18380348,0.011792494,0.12120234,0.12222003,-0.2311589,0.14697313,-0.08033916,-0.08364773,-0.062541455,0.19618812,0.0767858,0.23810723,-0.014758451,0.25652203,0.22129892,0.095868275,0.18975307,0.05115053,-0.28877887,-0.20147565,-0.00825527,0.026838282,-0.034034956,0.023560168,0.036813196,0.072354674,0.18188278,0.059987307,0.007921265,0.015328462,0.027282938,0.27120623,-0.08914567,-0.04596637,-0.14555451,0.053576306,-0.18461187,-0.28868523,-0.08314826,0.08922274,0.31737855,-0.027883342,0.16127473,0.078596644,0.20262282,-0.24022444,0.14985287,0.036043376,-0.17707708,0.08497906,0.19400786,-0.072505824,-0.034591924,-0.10622602,0.003822168,0.21589194,-0.05937097,-0.105970584,-0.20856039,-0.35283443,-0.09228211,-0.29959935,0.13914402,0.00673517,-0.087676235,0.33403593,-0.040892664,0.00192398,-0.036983624,0.08050043,-0.012105822,0.37151602,-0.051576223,-0.24206308,-0.000389215,0.21032928,-0.1848187,-0.108155444,-0.08667239,-0.07720039,-0.1638566,-0.08221514,0.15208654,-0.26078326,0.13167751,-0.016849663,-0.04532486,0.027251428,-0.11190716
A43B003,0.16973132,-0.17271388,0.09069369,-0.3578858,-0.044849172,-0.5105562,-0.027868537,0.053550415,-0.23331235,-0.1528579,0.18187717,-0.058933135,-0.07884581,-0.05222653,0.018052936,0.072762236,-0.001379541,0.24644908,-0.090780005,-0.18625142,0.13390261,0.2787054,0.049827088,-0.033236705,-0.15197423,-0.050379314,0.003076947,0.23531194,0.016881805,0.14537558,-0.08298234,-0.044861756,-0.14111306,-0.1152485,-0.24572949,0.28605416,0.099267565,-0.094299264,-0.112951964,-0.068111196,0.1882994,0.15855755,-0.15736783,0.090144455,0.12121617,0.13721184,-0.10774065,-0.16999318,-0.292479,0.015104116,0.0799604,0.103348866,0.13187796,0.036665954,0.17448774,-0.26499462,0.02115983,0.027258608,-0.25008902,0.13993463,-0.05007781,-0.15706913,0.23822156,-0.20579648,0.14796232,0.073495515,0.04909606,0.2109505,0.043960124,-0.3646495,-0.051862642,-0.289047,-0.31163874,-0.29855618,-0.003620132,0.20430405,-0.092172876,0.16315754,0.19092757,0.26067713,-0.047544986,0.11220279,0.31885117,0.26360002,0.103308,-0.020766785,0.121220134,-0.041352205,0.02265849,-0.009667118,-0.2427092,-0.06970727,-0.10506703,-0.049509954,0.41480696,0.06336129,0.16824383,-0.15078883,0.06310578,-0.35873863,-0.26966184,-0.045143284,-0.24332708,-0.051825162,0.23809773,-0.10615661,0.014620055,-0.19151674,-0.22816783,-0.34073955,0.12008938,0.15848422,0.13850123,0.30165812,0.15105484,-0.21556014,0.3751243,-0.43378413,0.0833801,0.041294087,-0.18560207,-0.16478617,-0.32641923,-0.058587622,0.027365593,0.042312123,-0.05470567,0.2104564
A43B007,-0.2926201,-0.24621792,-0.12849656,0.15917529,0.15285182,-0.29315272,-0.06923954,-0.06390019,0.00118486,0.011448507,0.108232304,0.20282957,-0.13871181,-0.426968,0.109425426,-0.20055781,0.17691898,-0.034352034,-0.18307644,0.045074582,-0.13356963,0.20772992,-0.027482843,0.004043762,0.20071973,0.0493231,-0.06628579,0.04722017,0.08403093,0.006555958,-0.27629283,0.11836463,0.1384972,0.2921633,-0.1134032,-0.056027368,0.23722276,0.01035425,-0.030248832,0.2642021,-0.1593312,-0.12607206,-0.038622335,0.1169668,0.0266492,-0.051440824,0.04910138,-0.08971482,-0.055676863,0.047054388,0.07973079,0.005322524,0.17940344,0.12949307,0.108305186,-0.13685897,-0.020000536,-0.16970216,-0.09593028,0.17305009,0.071523696,-0.26279527,0.23282807,0.18615815,0.09044069,0.11433999,0.14282522,0.14837515,-0.03272495,0.12187679,0.22170177,0.15791638,-0.3269108,-0.13199155,-0.18067965,0.100581616,-0.20026101,0.2673618,-0.11125915,0.10973381,0.05666096,0.052713722,-0.016710216,0.060986705,-0.1659715,0.27627218,0.15774253,0.020713344,-0.03334657,-0.01817595,0.04624563,0.21363918,0.19228013,-0.05476585,0.5868762,-0.016448762,-0.17478044,-0.33164722,0.24712242,0.028090945,-0.2698761,-0.11398277,0.14639567,0.10695284,0.38207665,0.06624587,0.1006547,-0.1517665,0.0622161,-0.38232914,0.0916584,0.20728792,0.0968584,0.10332703,0.17683917,0.10067742,0.104909934,0.0706033,-0.07091674,-0.18210123,-0.069690704,-0.08975425,-0.044266816,0.036607,-0.021142282,-0.06254759,0.08722597,0.11890838
A43B013,-0.32204545,-0.14858165,-0.02098559,0.25571036,0.10817788,-0.21379115,0.025534112,-0.2255215,0.12131893,-0.14314169,0.08748093,-0.055461466,-0.2539689,-0.19792086,0.28742558,-0.26415113,0.05701801,0.15085983,-0.02074235,-0.077112116,-0.073947124,0.16527924,-0.08263997,-0.22299054,-0.09346833,-0.07563294,-0.18940586,0.011765055,0.1540641,-0.043792974,-0.2706463,0.08964066,-0.22770515,0.3488443,0.08041889,0.2509373,0.16297267,-0.046489988,0.17495212,-0.10548933,-0.003531277,0.11506429,0.073446825,-0.11683568,0.29288283,0.046975955,0.0670953,-0.41355038,-0.07088522,-0.055208497,-0.047218475,0.07581646,0.1215145,0.20287755,0.1544387,-0.10483883,0.035518195,0.12554711,-0.32997587,0.027038325,-0.19760583,0.12406832,0.076188944,-0.26262134,0.14002195,0.13868822,-0.10410157,0.08657041,0.023514628,-0.014943686,0.3428762,-0.40717867,-0.2605852,0.07845285,-0.08460076,0.034050554,-0.12759759,-0.16439654,-0.1701987,0.054049898,-0.2502686,0.20423995,0.16084543,0.13856573,0.072150156,-0.18369229,0.13461886,0.015661925,0.15749471,0.07414198,-0.03139161,-0.061215755,-0.12587312,0.06410533,0.013602505,-0.25947216,-0.19276217,-0.029894378,0.014071152,-0.063534304,-0.11575264,0.18879612,0.046404567,-0.030026766,0.44902942,-0.052702267,0.08370439,-0.09216925,0.1913464,-0.14308389,0.13820986,-0.079272486,0.2079608,0.012354126,-0.2653116,0.20038715,0.15330003,0.05521529,-0.20322922,-0.08241796,0.12429849,0.2944538,-0.19090803,0.12050417,0.041588247,-0.005667393,-0.18330318,-0.032494172
A43B017,-0.104229584,-0.1620258,-0.296866,0.03411563,-0.3251283,-0.011518349,-0.023834296,-0.24009888,-0.01822057,0.19372165,0.160599,-0.1533991,-0.30535692,-0.35179678,0.24005178,0.089652695,0.032191858,-0.04370588,-0.28320566,0.09430075,-0.07885385,0.21995048,-0.09062381,0.10876128,-0.15818606,-0.02011597,0.08077284,0.01279215,-0.10021516,0.15492454,-0.0575826,-0.12239682,-0.1777852,0.082635574,0.2755486,0.2839567,0.23915794,-0.09534614,0.095154606,0.06009,-0.2357634,0.11591305,-0.04263111,0.03830227,-0.24752024,-0.15535308,0.104952715,0.084092245,-0.05184487,0.14010088,0.13986604,-0.30666193,0.14322399,-0.11402137,0.06719662,-0.07585667,0.12839693,-0.11390937,0.109961696,0.027887296,-0.3890467,0.28748304,-0.054207154,0.09303216,0.33015034,0.14916925,-0.10916386,0.27204868,0.009910523,0.023142539,0.18577442,-0.18654165,-0.2860144,-0.35317928,0.45565885,0.2010865,0.21999614,-0.09821745,-0.19926451,0.18849136,-0.1493596,-0.1779786,0.035851207,0.17024462,0.14603664,0.21980889,-0.042828318,-0.059558395,-0.24734813,-0.005628062,-0.12271682,-0.22867164,0.24338299,0.022420753,0.22087443,-0.073769175,-0.27965254,-0.1417252,-0.033292122,-0.1376105,-0.21030854,0.11810647,-0.10279061,0.32368085,0.14513728,0.25095293,0.031986564,0.19310051,0.013387656,-0.1470526,-0.07431025,-0.33549175,0.016411275,-0.05198961,0.06767828,-0.13683571,0.1541945,-0.11315274,0.15294129,-0.25326076,-0.003681602,0.06946423,-0.003759945,0.3699195,0.03852512,-0.32359555,-0.02727141,-0.037067942
A46B009,-0.18053143,-0.07321317,0.07671555,0.18056154,0.2922074,-0.15148447,-0.25438645,-0.257815,-0.23512581,0.18430178,0.09201728,0.007791585,-0.09767575,-0.2799721,0.19108148,-0.065397784,0.024793096,0.22355099,-0.04976765,-0.16385056,-0.2412342,0.1591769,-0.09922158,-0.31966406,0.0956232,0.35400593,0.061198626,0.10807305,-0.13270675,-0.18345305,-0.14175905,0.0846511,-0.002666431,0.19039375,-0.15750009,0.017660735,0.004514851,-0.01359672,-0.03539807,-0.04141208,-0.10831298,0.20659748,-0.08560084,0.18285531,0.012076799,-0.07966316,-0.013605022,-0.048145737,-0.26901037,0.014560812,0.00331367,0.017726364,0.41081944,0.24525873,0.2324958,0.095361486,0.011963358,-0.1721466,0.1341851,0.2011447,0.019251868,-0.02521616,0.2806705,-0.19597158,-0.20107095,0.123521596,0.27044204,0.18446404,-0.02015579,0.1879524,0.10634103,0.003962051,-0.17181411,0.007120444,-0.07935629,0.13018529,-0.13772589,-0.08984522,-0.19408672,-0.17168301,-0.20616238,0.04621094,-0.047415797,0.24293816,0.29816416,-0.0398684,0.08362381,0.17454296,0.05048652,0.033949383,0.08365658,0.019944366,0.057424173,-0.012119839,0.32451287,0.13845406,-0.17564484,-0.26649994,-0.0757737,-0.20887415,-0.37016645,-0.047128137,0.13059375,0.08098036,0.38906133,0.020252867,-0.061705727,0.015053155,0.13508151,-0.24603343,0.23027554,0.039206386,0.035165716,0.085104324,0.006779373,-0.14580926,0.32764098,-0.24863705,-0.031589348,0.07666475,-0.12765649,0.053805653,-0.06824226,0.07662534,0.13990578,0.07264473,-0.04101469,0.011858199
A46B015,0.22592647,-0.25731316,0.037478853,0.04366894,0.19425002,0.1456748,-0.03625932,0.00971832,-0.3077508,-0.13263689,0.23242913,-0.1061953,-0.15194282,-0.15362833,0.10312614,0.05077765,0.02860229,0.39052942,-0.23838262,0.11419594,-0.054035876,0.6255098,0.07706826,0.070975676,-0.36403677,0.14271083,-0.099015735,-0.063020945,0.02206816,0.096215986,-0.16711864,0.06625559,-0.055486787,0.23290789,-0.3071412,0.3919203,0.29477248,0.17961143,0.16091324,-0.062781624,0.3482715,0.2581965,-0.067753606,0.21490978,0.18812229,0.11417207,-0.039262515,-0.03677277,-0.23486248,-0.20487362,0.20797546,-0.17801912,0.046810918,-0.036328055,-0.15282051,-0.10061228,-0.018601298,0.04986296,-0.057831086,0.29149875,0.14797778,-0.03672144,-0.037060194,0.17651391,0.3797982,0.28364742,0.010457185,-0.11200241,0.12125111,-0.30240378,0.4142625,-0.30067426,0.005541732,-0.21528761,0.054778233,0.089483015,0.017736018,0.15037641,-0.19594881,0.051650353,-0.30168408,-0.03688462,0.17941283,0.33916372,0.09220068,-0.017518172,-0.004302671,-0.054624606,0.05272892,0.05589891,-0.16399406,0.0736296,0.13389426,0.09738483,0.15427487,0.29247642,0.09397259,-0.1879341,-0.081883416,-0.08369263,-0.11248517,-0.051166892,-0.0177755,0.29683766,0.08861893,-0.098961525,-0.1926878,-0.035801087,0.27922383,-0.13420698,0.10263553,-0.029741473,0.3234417,-0.10140662,0.11422769,0.09065026,0.0648404,-0.023986233,0.15444179,0.28147396,-0.12165224,-0.07784527,-0.0819624,0.26829413,0.04279003,-0.029245721,-0.005258793,0.030631278
A47C021,-0.25512505,-0.16170251,-0.040441476,0.040472012,0.20339607,-0.04094464,0.003519938,-0.20164645,0.14918055,-0.12466294,0.23698029,-0.065722,-0.051751982,-0.17276672,0.20220473,-0.26315945,-0.2060843,-0.050301213,-0.033707783,-0.18883406,-0.08404096,0.172343,0.021044629,0.07731899,-0.23252852,0.20589636,-0.03782116,0.13849682,0.12249824,0.121050425,-0.22807175,0.12123228,-0.18313198,0.33267954,0.13174632,0.14917494,0.071649104,-0.08764252,-0.09431127,-0.076206096,0.01209174,0.096183665,0.057792004,-0.14573397,0.22576141,0.11817061,0.045890376,-0.2802309,0.023169234,0.037825048,0.013623092,0.1056591,0.45156452,0.08182153,0.21210273,-0.043086372,0.01967946,-0.19206135,-0.18979922,0.30399635,0.052372497,0.07822755,0.20178473,-0.19867566,0.079330064,0.27303514,0.04981837,0.16287245,-0.052808486,-0.23611836,0.12925081,-0.2308381,-0.22530185,0.19937971,0.039950773,0.005763761,0.13925236,0.0498055,-0.05439803,-0.012448623,-0.21682161,-0.051623788,0.22822261,0.021314556,0.04573827,-0.091097474,0.16564356,-0.14055549,-0.09620066,-0.015132912,-0.08596676,0.10353446,0.024153458,0.15346792,0.12044809,-0.054983296,-0.25013703,-0.18298419,-0.2736043,0.22229366,-0.10997144,0.15560283,0.1486813,-0.11570918,0.5213376,-0.09827919,0.003570133,-0.305414,-0.06990655,-0.14153661,0.15902048,-0.04931537,0.14829993,0.14673932,-0.001626507,0.18085648,0.026593333,0.16092986,0.053511042,-0.07971879,-0.009029741,0.33562762,-0.39271328,0.07626439,-0.019610548,-0.002786394,-0.124087036,0.020392068
A47C031,-0.23799594,-0.2952817,0.15709922,0.1375504,-0.08821519,-0.09564127,-0.031347957,-0.057595752,-0.11067592,0.04308851,0.12084642,0.03909422,0.00335988,0.086117186,0.12780496,0.044749007,0.21525408,-0.008740172,-0.231435,-0.2527198,0.099498965,0.2604714,-0.19924153,-0.24945755,0.23383072,-0.062404897,-0.25915134,0.16320409,0.019915147,-0.19716424,-0.35939255,0.09198405,0.17510042,-0.13389088,0.06321387,0.02709398,0.068963975,-0.19531298,0.15684475,0.013049186,-0.18651155,-0.042902905,-0.019816509,-0.397829,0.08675998,-0.031255815,0.088001974,-0.2456261,0.27790356,0.18044612,-0.011821717,-0.16195263,0.06759174,0.22667643,-0.09013186,-0.0840698,0.24810418,-0.2708142,0.003680238,0.093304835,-0.038124733,-0.07193575,-0.01732576,-0.054395173,0.03019167,0.306657,0.14825238,0.19733952,-0.05008735,-0.17575203,0.21101081,-0.2159971,-0.05103677,-0.11182397,0.28946838,-0.10572694,-0.1298286,-0.17586924,-0.2041362,-0.3102515,-0.05082207,0.033885483,0.10708022,0.11494005,-0.37103733,0.038258307,0.20401202,-0.2362594,0.12650062,0.048087705,-0.16198623,-0.11218063,0.027001977,-0.27967334,0.31167608,0.03702967,-0.009881557,-0.12982345,-0.059460998,-0.07672216,-0.2781169,0.11342718,-0.22092094,0.050987072,0.044473175,0.001723309,-0.049082365,-0.07479816,0.021553539,-0.24323952,0.057899345,-0.07714082,0.013689401,0.026119169,0.21827309,-0.27041003,-0.033726197,-0.14025624,0.004321781,0.045901243,0.031522807,0.089334734,-0.11816508,0.0959414,-0.11426104,-0.09650703,0.09978708,0.13997158
A47J027,-0.13459103,-0.15325475,0.14552136,0.114607506,0.18383554,-0.34626547,-0.044871494,-0.16726124,-0.19161844,0.011514472,0.28454867,0.33995053,0.2756889,-0.075454034,0.30243966,0.14313224,0.20642787,-0.20376772,-0.14684165,0.040221773,0.07830181,0.02462564,-0.052108668,-0.06640003,-0.0842704,0.2793501,-0.118287094,0.008182759,0.09590914,0.02511341,-0.30286348,-0.17741133,0.09632751,0.038845062,0.0646845,0.080930926,0.15183643,0.10075557,0.06245084,-0.044988643,-0.32745454,0.12809065,-0.068276934,0.02286338,0.32559764,-0.2642873,-0.23157658,-0.051241376,0.22065464,0.006412664,-0.07467578,0.035275485,-0.043459952,0.15614413,0.06385214,-0.058596186,0.12149557,-0.10816822,-0.26935536,0.18660943,-0.208033,-0.22590172,0.061309632,-0.10032208,-0.16066973,0.08810018,0.011026174,0.096991494,-0.124650575,0.016558034,0.29547974,-0.31467253,-0.018130811,-0.19726592,-0.01287593,0.142891,-0.0933634,-0.122738585,0.007925896,0.106204905,-0.15430947,-0.2205186,0.103979826,0.36387104,-0.06964126,0.09857952,0.08310154,-0.1333914,0.18238743,-0.06966439,-0.2737696,-0.020608203,-0.010689711,-0.1993715,0.0635025,0.06573832,0.045370728,0.005997518,-0.37986064,-0.11082626,-0.17547977,0.0804203,-0.20477585,0.24789186,0.18383221,-0.04869271,-0.14923455,0.060004532,0.21501946,-0.19067371,0.21688886,0.24652888,0.11291862,-0.18956462,-0.10780089,-0.08087384,-0.1374919,0.18155697,-0.025666071,-0.46416807,-0.05571506,0.03345356,-0.012050406,0.08945674,0.003763632,-0.006096598,-0.104320966,-0.12092143
A47J036,-0.03714863,0.05977703,0.12272913,0.18453664,-0.15460555,-0.08617429,-0.27599782,-0.015151388,0.04160982,0.09123385,0.31993362,0.06773289,-0.099043936,0.11785121,0.14883019,-0.10396943,0.16873339,0.1466456,-0.08627749,0.04010922,0.14041041,0.048810977,-0.05115698,-0.52806586,-0.13087116,0.02917766,0.17186707,0.010878698,-0.103652656,-0.09249718,-0.24953234,-0.061109137,0.08355064,0.008533457,0.03353947,0.2394238,0.27664173,0.026754208,-0.09160589,0.09363446,0.12943473,-0.030337133,-0.019759687,-0.17386976,0.10191071,0.034259297,-0.31574115,-0.22884446,0.109179445,0.04479037,0.17235382,-0.04428117,0.21092497,0.30243185,0.12250796,0.008793375,0.13616456,-0.30229744,-0.34693608,0.016444953,0.007113922,0.028217526,-0.22589399,0.0939957,0.12981915,0.08021318,0.058648072,0.24627712,-0.09184656,0.046574783,0.2432811,-0.13227093,-0.1749253,-0.10990426,0.075987816,-0.22755152,-0.14695579,-0.1780158,0.07299366,0.035906643,-0.2271148,0.0774917,0.04850324,0.28333813,-0.35545674,0.17725329,0.10933832,-0.22448058,0.16672929,0.018384088,0.066909336,0.028880564,-0.14642619,0.058483664,0.22562873,0.07080135,-0.037636742,-0.088720195,-0.18388276,-0.018045573,-0.19574137,0.2312661,0.07441196,0.15040623,0.09369876,-0.005829768,-0.11223611,-0.06355559,0.025862625,-0.17720845,0.25824127,-0.006230801,0.056994595,0.058394734,0.06845233,0.07334177,0.02272743,-0.18880919,0.090769574,-0.02363383,-0.001858166,0.18350941,-0.060802713,-0.044470325,-0.11228091,0.00699476,-0.08853931,0.107571185
A47L009,-0.3422226,-0.17738225,0.31449342,0.112480186,0.078462906,0.006130355,-0.017814968,0.022577047,0.03632376,0.11909821,0.39014372,-0.047244225,-0.070185944,0.1504704,0.22148588,-0.051230945,0.20565365,-0.006675123,-0.14559712,0.052938454,0.16416857,0.46661595,-0.0830509,0.038429085,0.04182262,0.0378288,-0.14772134,0.11445982,0.12097589,0.054216243,-0.2874368,-0.1163157,-0.050496075,-0.12943545,0.120853856,0.13914175,-0.034026287,-0.11432537,0.13197467,0.25473377,-0.24621724,0.21796197,-0.037269734,-0.04636053,0.26269874,-0.13027361,-0.20253238,0.046181593,-0.3996992,0.22004095,-0.18345797,0.12721363,0.095993966,-0.004679711,0.25839832,0.005987996,0.48206645,0.38541925,-0.13609509,0.35496715,0.034656163,0.023364628,0.24933976,-0.46770948,0.26721227,0.063282095,-0.24747811,0.031219894,-0.08783098,0.28641027,0.29457667,0.044323906,0.09361874,0.113201745,0.20638622,0.32218048,-0.34704307,0.22284208,-0.021219207,0.18099532,-0.050082523,0.037910897,-0.097939946,0.15746918,0.1609984,0.12868153,0.12585744,-0.042520303,-0.155332,-0.11966643,-0.124289036,0.07911652,-0.007690853,0.17795412,0.28240818,-0.11806158,-0.046929307,-0.2501732,-0.3866365,0.15383698,-0.108518906,-0.11194008,-0.080389105,0.14440635,0.103838965,0.11183951,0.19606441,-0.21080759,0.1880718,-0.25011048,-0.06645093,-0.37658453,-0.25269613,0.07228069,0.033317238,0.002554444,0.019892404,-0.20065425,0.088855326,0.015307834,0.024223635,0.31941602,-0.13817312,0.12832944,-0.15457082,-0.2479273,0.085982494,0.07663639
A47L011,0.014372776,-0.37598702,0.3235869,0.01903341,0.12870625,-0.09083846,-0.2548349,-0.23413184,0.2633062,0.014390396,0.084973074,0.079748675,0.1988982,-0.2758328,0.45700696,0.1339561,0.21603183,-0.17938434,0.1856997,0.22765645,0.16414015,0.14966628,0.10753894,-0.07130772,-0.38626656,0.009436484,0.52736956,-0.12402215,0.024691142,-0.4287856,-0.2955712,0.17757872,-0.15896727,-0.2635652,-0.36002627,0.42617446,0.05619383,-0.09151998,-0.07235966,-0.33853388,0.000866954,-0.03292046,-0.12315589,-0.27621204,-0.10480752,0.2760991,-0.00062276,-0.2830335,0.1714553,-0.1275705,0.10036558,-0.39456508,0.2233343,0.2233869,0.4047482,-0.49416706,0.31133267,-0.21481958,-0.263265,0.18612178,0.16528158,-0.058603738,0.065502785,0.07779634,-0.16650918,0.027598824,-0.14043792,0.38622114,-0.000319676,0.15971263,0.0813638,0.000677553,-0.3165403,-0.1196703,0.046926614,-0.06350527,-0.23981516,0.11107696,-0.28326768,0.16832025,-0.21277726,-0.052027524,0.11501255,0.29907092,0.17723325,-0.04293246,-0.008149433,-0.14995852,-0.06986721,-0.1692987,-0.4930103,0.28665164,-0.16163222,0.06343098,0.3496015,-0.01793759,-0.233767,-0.40581533,0.13753441,-0.121286325,0.002617737,-0.096618116,-0.12570378,-0.015246039,0.050848234,-0.26310343,-0.12566061,0.22300829,0.13128027,-0.39550096,0.1627928,-0.10426224,-0.11475385,-0.04840382,-0.24766165,-0.11680594,-0.11163118,-0.04445769,-0.29403487,-0.1843662,-0.14147782,-0.31698644,0.001637122,-0.046985038,-0.07753267,-0.14421487,-0.2949987,-0.002549565
A61B001,-0.18163072,0.12574802,-0.24417941,0.14251302,0.15784976,-0.1578809,-0.17615524,-0.015056614,-0.15189359,0.116790794,0.17419472,-0.004915183,0.09718468,-0.10081175,0.32548225,-0.11799017,-0.20454723,0.014663276,0.029686714,-0.09818489,0.21567701,0.17646866,0.12844282,-0.022256602,0.013717806,0.13967411,-0.096491866,-0.02994625,-0.043555636,-0.08375192,0.074974,-0.3436244,0.12553325,-0.019099947,-0.036586113,0.22880033,0.2958339,0.05033551,-0.12682165,0.1119304,-0.1635119,0.16508023,0.05654983,-0.27557757,-0.13885953,-0.031959455,0.06665367,-0.112379,-0.06331419,0.017590582,-0.026003929,-0.15777455,0.09235025,0.17980891,0.09601614,0.06384179,-0.11621538,-0.13553543,-0.20712617,0.107599534,0.19920133,0.13208795,0.11314597,0.07948556,0.21690588,0.27718145,0.19836242,0.008230533,0.015006462,-0.064748295,0.19704585,-0.2588867,-0.14298162,-0.062024336,0.0186492,-0.052656174,-0.18791483,-0.08024652,0.06889019,0.3452764,0.017466662,0.16020948,0.04399403,0.27460775,-0.34304005,-0.012286425,0.13832481,-0.18871513,0.02828148,0.35289434,-0.14671935,-0.017077956,0.004566565,0.13040836,0.12456274,-0.054049492,-0.27840656,-0.10317487,-0.3043891,-0.24132921,-0.24308963,0.17283666,0.09097157,-0.23129457,0.12663876,-0.21818757,0.1034962,-0.26257622,0.15002851,-0.24449259,0.28260335,-0.07795382,-0.08269855,-0.14921308,0.01598938,-0.05136364,0.02108711,0.036939427,0.0635469,-0.045512963,-0.25224695,0.02162352,-0.28712833,0.24086714,0.046032935,-0.17221749,-0.04886308,0.22579053
A61B003,-0.16765554,-0.119339615,0.08373003,-0.18060672,0.06280008,-0.24043262,-0.13862029,-0.17929402,-0.088037856,0.18922381,0.2828571,-0.20223446,-0.15394035,-0.050985783,0.1121691,-0.04830801,0.13839722,0.217291,-0.07689382,0.001311673,0.005893594,0.24472204,0.025604663,-0.05562968,0.03587911,0.322954,-0.12551418,-0.0340696,-0.06838935,-0.226075,-0.14422414,-0.01303081,-0.1461181,0.07906827,-0.117084496,0.06492277,0.1365057,0.020972155,0.03091287,-0.011652751,-0.096021004,0.07652701,-0.034240775,0.05737039,0.08559922,-0.078950256,0.100874685,0.16140509,-0.07348044,-0.008984159,-0.078108594,-0.003551802,0.2701538,0.06555576,0.030618621,-0.13142096,0.015748046,-0.2362551,-0.16050301,-0.09782476,0.018913645,-0.065039895,0.13666642,-0.21262878,0.042938687,0.14414527,0.21773891,0.04251117,0.052753296,-0.25871363,0.028106809,0.02735006,-0.21336143,-0.10531764,0.015192471,-0.05000264,-0.13790277,0.032866273,-0.102355435,-0.002842102,-0.11327335,0.058913782,0.4409395,0.3213001,0.30376923,0.2230485,0.026710853,0.17365856,0.14494333,-0.117675066,-0.17595713,-0.01363321,0.05738826,0.002862782,0.283947,0.032789875,-0.068144605,-0.17238201,0.006097848,-0.38884142,-0.33313328,-0.14520527,0.16832848,0.033470526,0.1611717,-0.058427196,-0.08956328,-0.029420841,0.014272967,-0.24570338,0.20848168,-0.015488092,0.0923186,0.43175453,-0.07909923,-0.23703156,0.27146143,-0.14879848,0.07756814,-0.17595364,-0.04622146,0.045825798,-0.24943268,-0.2317396,0.015039374,-0.17429048,-0.06034071,0.1748771
A61B005,-0.00592573,-0.36321983,-0.19582576,-0.103934094,-0.033535607,-0.04476483,-0.16565472,0.029780775,-0.11520334,0.18026786,0.23191781,-0.029804217,-0.1125887,-0.26741228,0.3594079,0.10108502,0.013862484,-0.16445652,-0.26440185,0.4035097,0.16916433,-0.034990475,-0.1166748,0.055834718,-0.034131657,-0.108733535,-0.14670971,0.21969873,-0.11996335,0.10380608,-0.07671891,-0.02177751,-0.17360738,-0.0992937,-0.1350879,0.3407791,0.40508315,-0.11845234,0.19420992,0.06823319,0.19293144,0.20139997,0.28116587,-0.30726823,0.17280781,0.007517962,0.26898506,0.16022295,-0.14684437,0.015043682,0.00203292,-0.24965756,0.2375459,0.20030038,-0.06544513,0.006155042,-0.11374614,-0.10055037,0.012780373,0.12906057,-0.032704927,0.08271241,0.10546881,0.2936533,0.27111903,0.16079609,-0.16842842,0.21186607,0.036754545,-0.1388547,0.15511739,-0.46066326,-0.166548,-0.20682228,0.37050283,-0.052606776,0.15890534,0.036205426,-0.07886523,-0.100925535,-0.13458009,-0.2169389,-0.038335063,0.36649904,0.17529865,0.0321135,-0.0719342,-0.106886856,0.019370984,-0.14942496,0.12273338,0.00684144,0.022120079,0.21225327,0.19524482,0.20583908,-0.08837156,0.059672207,-0.101029746,0.0722911,-0.3113889,0.09753328,-0.005064314,0.13679756,-0.020411117,0.058722973,-0.038690034,-0.055081327,-0.06112764,-0.25299588,-0.029184116,-0.041398264,0.15493461,0.068521455,0.061680064,0.054271407,0.48968372,-0.073349684,0.08774631,-0.39406207,0.22516991,0.32317498,0.010841372,0.16756333,0.29290754,0.13115864,0.060579244,0.04650241
A61B006,-0.13549145,0.12319233,-0.11304861,0.17393236,-0.14547668,-0.039722003,-0.13811481,-0.051778216,-0.22831185,0.11348836,0.29064107,0.17037162,-0.07668809,0.019331887,-0.002001359,-0.16783202,-0.10721654,0.368568,-0.046903044,-0.006831629,0.014638947,0.12766774,-0.006618085,-0.29566133,-0.010150387,-0.025861325,0.24249358,0.14393018,-0.10428496,-0.2368143,-0.0706542,0.08906191,0.163257,0.049191803,0.000962656,0.20704846,0.24276361,0.1846942,-0.012996616,-0.009244125,-0.004996046,0.050127104,-0.11514162,-0.5340673,0.11942059,-0.2870297,-0.23132412,-0.09820144,0.04661805,0.07410117,0.18232206,-0.15276423,0.08678212,0.20790662,0.1655082,0.011484268,-0.12876062,-0.30299702,-0.123876005,0.2922762,-0.07466297,0.09743619,0.029531121,0.20389698,0.1477455,0.33030525,0.08178866,0.068860665,0.028720425,-0.04099085,0.40007034,-0.03566448,-0.19695829,0.104684874,0.12870361,-0.13645117,-0.5538706,-0.23565781,0.3506046,0.1270815,0.0688961,-0.21388802,0.10538835,0.15287949,-0.11283406,-0.03193875,0.28674304,-0.04306572,-0.04731692,-0.004257631,0.021322053,-0.068540305,0.03210038,-0.072339386,0.2868575,0.03370979,-0.01276864,-0.28865555,-0.3701742,0.008670671,-0.2392284,0.25805655,-0.24394087,0.05177594,0.14674404,0.045533802,0.08894928,-0.14772294,0.0626231,-0.109842405,0.48064572,-0.049324024,-0.11216464,0.31236377,-0.02189657,-0.111673474,-0.06533145,-0.06634573,0.07403596,-0.062268592,-0.014610731,0.16059092,-0.050570972,-0.006991721,-0.14278734,-0.052079815,0.000924577,-0.2755145
A61B007,-0.2871737,0.19604717,-0.19767512,0.110389575,-0.13355477,-0.12740462,-0.31815934,0.04688349,-0.24086915,0.11810928,0.089849845,-0.091159046,-0.16805233,-0.20447543,0.22047485,0.11262262,-0.19036816,0.17171693,0.09102258,-0.1522181,0.13844208,0.22438309,-0.0715362,-0.0824744,-0.20835146,0.23790762,-0.078439765,-0.017738989,-0.032037094,-0.15165327,0.06564337,-0.18251577,0.22562115,-0.076965325,-0.24211407,0.22875905,0.34607333,-0.051791377,0.013261332,-0.004769908,-0.203651,0.30926368,0.36261612,-0.26285738,-0.16313577,0.17950018,0.021852255,-0.27195626,-0.022566909,0.047768638,0.08382714,-0.026910137,0.22318654,0.16779466,0.4287103,0.033178423,0.11576868,-0.240899,-0.07550827,0.06233329,0.12584649,0.10197484,0.2451037,0.070527606,0.15961184,0.3504681,0.27107894,-0.06890275,0.19715942,-0.1358967,0.17830174,-0.15368962,-0.103400424,0.010444548,0.17824496,-0.06856182,-0.03919494,0.14029698,0.051353127,0.19163096,0.1380571,0.1103902,0.259958,0.1274443,-0.3653948,-0.026247412,0.2993803,0.025596159,0.09280738,0.17758779,-0.08555239,0.05414731,-0.010834362,0.06204166,0.017844202,-0.1542459,-0.1877588,-0.26394984,-0.4189482,-0.1070632,-0.08721303,0.35263124,-0.07636246,-0.10366306,-0.006616638,-0.019966258,0.18606187,-0.01575223,0.11452367,-0.2765536,0.14551027,-0.11134815,-0.008652056,0.025712276,-0.036152564,-0.25512043,-0.0434918,-0.1013497,0.052605785,-0.104062885,-0.41963294,-0.12201719,-0.19697925,0.18124768,-0.034387156,-0.05728603,-0.143449,0.13128167
A61B008,-0.121616,-0.2791551,0.4365836,0.07872908,0.14605354,-0.3070938,-0.3299511,-0.42514905,-0.2494449,0.0416709,-0.011835842,0.09555188,-0.019474823,-0.35669145,-0.12974133,0.060455605,-0.05623714,0.40495583,-0.09278752,0.12790045,0.124536514,0.1435886,-0.05501902,-0.39362088,-0.032615572,0.2413233,0.01953756,0.16831261,-0.1808465,-0.18473153,-0.1459751,0.09624824,0.105843596,0.007417147,-0.08171583,0.08076087,-0.03686642,0.033900652,-0.09199955,0.14219491,0.09183722,0.19463108,-0.026196929,-0.10731567,-0.012715026,0.09722645,0.17164607,0.20047186,-0.18181677,-0.09757454,0.16673626,0.002885717,0.31765822,0.23762089,0.03971077,-0.13889351,0.08467867,-0.06785976,0.12024225,0.2908981,0.056329813,-0.076253004,0.22926521,-0.10751502,-0.16807237,0.08000912,0.15585703,-0.07739208,-0.08050272,0.056100342,0.07893299,0.04240704,-0.03900101,-0.24711898,0.07138898,-0.020233138,-0.16491865,-0.0911787,-0.23170862,-0.039355647,-0.13653348,-0.037572466,0.046116542,0.52391505,-0.03161907,0.18766838,0.21611527,0.25573352,-0.05477488,0.20232123,0.028639,0.057025384,0.040670153,0.1942515,0.21094042,-0.16530596,-0.32439277,-0.14884625,-0.28734943,-0.09224983,-0.08885556,-0.27650556,-0.06693342,0.07396112,0.3960071,-0.04117767,0.275046,0.10859126,0.06386098,-0.21264927,0.12329572,0.17163458,0.25618866,0.03650686,-0.05187264,-0.24995685,0.23932177,0.038627982,0.05739137,-0.08472519,0.25079092,0.07220216,0.11782728,0.18810128,0.12792388,-0.053824525,-0.16740012,0.07625121
A61B010,-0.11528101,-0.1021195,-0.010249165,-0.09756118,0.1276791,-0.30239916,-0.20961703,0.121450625,-0.09498392,0.06007771,0.29991046,-0.004665399,-0.09240337,-0.2433725,0.4320749,0.019239368,-0.3594143,0.0640979,-0.16269982,-0.06899983,0.09049462,0.1847903,0.15122837,0.047208738,-0.18977758,0.23310502,-0.10888361,0.062072225,-0.17349029,-0.057655014,-0.08001408,-0.18995698,0.238443,-0.11843371,0.07808865,0.14843471,0.09663476,0.16420364,0.05935756,-0.09830014,-0.16988352,0.09646693,-0.004869395,-0.43312725,0.07615519,-0.086424366,-0.10864559,-0.21061788,0.09633092,-0.12614504,-0.07357118,-0.19473805,0.31792688,0.120980605,0.3203641,0.10729912,-0.14127354,-0.22049427,-0.009347152,-0.007045596,0.14848617,0.25374123,0.21098956,0.15466706,0.09554788,0.19923808,0.35977343,0.13114645,0.17051718,-0.023341535,0.11631462,-0.18132463,-0.076667696,0.16629605,0.19963369,-0.09112432,-0.1645489,-0.07402967,0.040789418,0.4303442,0.03616196,0.14731196,-0.024036894,0.116890416,-0.29367206,0.000166237,0.27594188,-0.014655374,-0.008890966,0.039793387,0.028310109,0.010005872,-0.015155355,-0.0941845,0.21631418,0.10098338,-0.20005177,-0.08093119,-0.1517942,-0.12232701,-0.20940627,-0.008188646,-0.11940861,-0.044765376,0.19824784,-0.09941965,0.1686401,-0.22663736,-0.077211164,-0.17848988,0.3918659,-0.004227483,0.06371095,-0.2293567,0.014015948,-0.043897197,-0.072926514,0.076457135,0.08243531,-0.11920681,-0.11045958,0.12556049,-0.3281455,0.3079537,-0.06709965,-0.11757545,0.053404037,0.021784361
A61B017,-0.12662554,-0.04805301,-0.058429763,-0.11977522,-0.36883673,0.05014668,-0.2859945,-0.1431694,-0.22133936,0.095464215,0.15114196,-0.03750373,0.18834876,0.1147861,0.37922642,-0.12885103,0.3597289,0.39857763,0.08992016,0.17558017,-0.14156558,0.07229676,0.04025551,-0.08526884,-0.12712117,-0.09789766,0.08893098,0.1305259,0.1468352,0.11917829,-0.16055673,-0.24075787,-0.35781294,0.42406037,-0.078174785,0.39850935,0.29667467,0.08939047,0.33844963,0.08245406,-0.25554684,0.24331076,0.27230102,-0.14920354,-0.2270428,0.12865153,-0.03185937,-0.255495,-0.15339646,0.23918286,0.22979562,-0.2452915,0.114924476,-0.27342796,-0.3221538,-0.15081102,0.09201993,-0.05343082,0.24820426,-0.013132619,0.06815329,0.17180067,-0.23043688,0.35858443,0.31204414,0.026866445,0.24655022,0.15721619,-0.13416328,-0.18364827,0.15317711,-0.1879021,-0.2159274,-0.06071677,0.55262214,-0.010172306,0.13786766,0.013125252,-0.14290957,0.031219091,0.15971208,0.24141465,-0.19775525,0.47768688,0.14653133,0.54801494,-0.10071175,-0.10777161,0.04546757,-0.18737434,-0.36694053,-0.10000254,0.23724557,0.25468472,0.28993556,-0.37886444,-0.55754906,-0.081837386,-0.19036388,-0.2934288,-0.40700895,0.014685971,-0.36069202,0.07344062,0.3378405,-0.06451424,0.36769518,-0.21955626,0.32170352,-0.467249,-0.09429034,-0.3240695,-0.06259619,-0.16913098,-0.054448437,-0.1745746,0.50060624,-0.097653896,0.16769241,-0.56456995,-0.21799438,0.27534464,-0.06170201,0.20218234,-0.14587021,0.18753037,0.16544895,0.2566752
A61B018,-0.05573431,-0.26729393,0.11752184,0.23947036,0.14736146,-0.2305482,-0.2524539,-0.054558158,-0.18435657,-0.10253709,0.041497353,0.18517071,-0.032237604,0.19217235,0.10190367,-0.055807956,-0.059115104,0.078869164,-0.0735729,-0.09294629,-0.08253276,0.1379625,0.14159968,-0.23077905,0.03628682,0.2575439,0.156178,0.30336112,-0.20589595,0.17474143,0.10660727,0.24603331,0.1870458,-0.22462635,0.24854273,0.20504476,0.09150919,-0.10002255,0.09239985,-0.02904207,-0.053054806,0.13730015,0.15360245,0.005380896,0.2281863,-0.15227856,-0.1599443,-0.25494304,0.20723286,0.114531234,0.020015426,0.14387324,0.21179724,0.3049571,-0.061965805,-0.17112823,0.19939323,-0.39364064,-0.1137831,0.13104749,-0.015005788,-0.09437812,0.24438919,0.008026563,0.25550064,0.382166,0.06255911,0.1303672,0.12942818,-0.035538055,0.31350848,-0.11818382,-0.12774016,-0.057527475,-0.07402773,0.08110171,-0.22014348,0.06649714,-0.050878014,0.019983977,-0.17697719,-0.22584781,-0.08106457,0.19526029,-0.11718761,-0.20922771,0.10978706,-0.086043805,0.001492271,-0.09667488,-0.3410194,-0.014551338,-0.13273193,-0.17732891,0.1512586,-0.22629224,-0.10298542,-0.29996255,0.18701334,-0.24474464,-0.37799808,0.01820478,0.13384938,0.30046895,-0.007460839,-0.04901456,0.04976739,-0.100705035,0.38853872,-0.11643201,0.07788586,-0.107297495,-0.07189139,0.116505936,0.2829414,0.14896521,0.033370767,-0.17074402,-0.25198022,-0.29826733,0.042294424,0.11392839,-0.1615677,0.017965058,-0.1939424,0.020414252,-0.27171043,0.13708273
A61B034,-0.24584822,-0.20791681,0.3370583,0.009361826,0.013411511,-0.2941193,-0.25365978,-0.11161805,-0.19816206,0.23571391,0.11581402,0.13519864,-0.04215263,-0.15802017,-0.036659442,0.18049212,0.22095479,0.12965167,-0.1103917,-0.21086739,0.10042816,-0.018451596,-0.21934578,-0.4378645,-0.061900336,0.117887884,0.007544129,0.32585338,-0.1503278,0.39002547,-0.015132071,0.014379825,0.21597515,-0.2501464,0.17044035,0.31867224,0.15150502,0.058725353,0.29387036,-0.033680543,-0.036696818,0.4089613,0.22299716,0.1627549,0.24374785,0.015224543,-0.03169079,-0.15060575,0.0582427,0.038749427,-0.11028703,0.04132941,0.13916317,0.27635345,0.14327343,-0.16330408,0.122762986,-0.35032776,0.057345323,0.031503744,0.05647166,0.07238707,0.015431394,0.12018473,0.007193686,0.065892324,0.14872938,0.023100443,0.055180684,0.03894303,0.07738408,-0.10118601,-0.22270548,-0.10824539,0.1093759,-0.048821576,-0.15657134,0.039425716,-0.023457492,0.008308618,0.01493607,-0.14375815,0.043619834,0.2475211,0.026095958,-0.14829595,0.0487889,-0.27240875,0.15582438,-0.036841195,-0.14432861,0.05967682,-0.1827146,-0.03200801,0.1135939,-0.18063024,-0.39382225,-0.12023403,0.1231705,-0.13306116,-0.26650608,0.18244903,0.10178929,-0.08183317,0.056892507,-0.08132143,-0.29560333,-0.18288977,0.18070365,-0.12934177,0.27448055,-0.04544169,-0.16792797,0.10278158,0.06172182,-0.018289393,-0.18370067,-0.017928768,0.05965076,-0.10782577,0.19158617,-0.002595053,-0.28856522,0.18645859,-0.048797883,-0.19841859,-0.08868315,0.13674673
A61B046,-0.2561202,-0.2603199,0.14311557,0.24025232,0.0860444,-0.1317097,0.07133129,0.08526712,0.10115341,0.19980721,0.41713786,-0.25374234,-0.24355824,-0.26070005,0.09202923,-0.097793154,0.2091797,0.06668278,0.029291473,0.08672823,0.1536716,0.029595483,-0.19889641,0.1520979,-0.18771537,0.21709831,0.11212325,0.1933268,-0.026049847,-0.04357071,-0.23350038,-0.1628655,0.14988104,0.008021011,-0.106965244,0.065083325,0.19534488,-0.46888664,0.11486646,-0.14317158,0.085311696,0.36255842,-0.082410604,-0.15544721,0.08704684,-0.08383168,-0.08572268,-0.073398896,-0.459023,0.30691206,0.3399267,-0.10917337,0.0233344,-0.23834805,-0.24903832,0.014959865,0.21762471,0.2200042,-0.41991508,0.19095148,-0.09031009,0.008677872,0.13970166,-0.24776703,0.052617904,0.15183,-0.044819374,0.08019781,-0.14360832,0.0418637,0.08873486,-0.1720296,-0.10716908,0.038505673,-0.08951419,-0.29312298,-0.015058551,-0.10024722,0.031001326,-0.14020415,-0.15337366,0.079056665,-0.112600446,0.2868078,-0.074217014,0.24381737,0.28607556,-0.021494808,0.11396986,0.13655843,-0.2995083,0.2228438,-0.09243846,0.005067038,0.14381352,-0.18685263,0.08326879,-0.14562641,-0.20505711,-0.106773205,-0.49848056,-0.32499075,-0.07385414,-0.08808453,-0.000628116,-0.29454032,0.0738758,-0.06429095,0.1785481,-0.15448658,0.3347737,-0.37830368,0.010023764,-0.111010745,-0.12888037,0.021643208,-0.031123424,-0.023814838,-0.19625597,0.021561202,-0.10577384,-0.28553024,0.19109543,0.3401261,0.18877517,-0.080849364,-0.09392246,-0.13729171
A61B050,-0.23328967,-0.3058076,0.092110254,0.07933404,-0.08737097,-0.14298034,-0.17700002,0.012971993,0.055645157,0.07802193,0.042150214,0.30068165,-0.12915996,-0.026747117,0.031159809,-0.16504472,0.07058227,-0.116679184,-0.014391135,0.027447851,-0.16360302,0.21828501,-0.003675371,-0.37738526,-0.030493299,0.07768281,0.031843938,0.60336214,-0.079022676,0.21959734,-0.065996155,0.099936925,0.025195062,-0.302734,0.09029694,0.220719,0.27942052,0.055391166,0.13413545,0.065174736,-0.13815874,0.28547522,0.025691522,-0.17391929,0.22983293,0.15363814,-0.12970246,-0.16242251,0.12972666,0.08890872,0.02599988,-0.006383503,0.097032025,0.34580103,0.080343515,-0.1267665,0.16065018,-0.32975814,0.027913997,0.3039741,0.21243925,0.080800176,0.16021161,0.09782383,-0.03248157,0.21474232,-0.16466631,0.07140508,0.114375286,-0.03791496,0.08100909,-0.011598022,-0.1457524,0.004069232,0.080304295,0.13222063,-0.3070996,0.099809356,-0.1500591,0.07893854,-0.20624508,0.043594968,-0.16516428,0.2650523,-0.010978861,0.07759928,0.08658826,-0.17469755,0.23362789,0.06971612,-0.3168511,-0.1709106,-0.13072003,0.03626999,0.14205493,-0.007358658,-0.13767768,-0.093299314,0.03898211,-0.066252574,-0.3340969,0.14252603,-0.14712991,0.016196027,0.090215996,-0.119349666,-0.15435424,-0.24922812,0.29649803,0.068317674,0.0972616,-0.19230294,-0.074840784,0.22442184,0.09303647,-0.062009245,-0.11709761,-0.17435847,-0.07778131,-0.12791309,-0.11382004,-0.080382966,-0.02525011,-0.096360885,-0.008035624,-0.057702627,-0.15688537,0.08034195
A61B090,0.1636721,-0.511338,0.08493851,-0.040152848,0.34033749,-0.16831005,-0.20832211,-0.005898695,0.16529809,-0.06366756,0.00107402,-0.36443835,-0.100360766,-0.15432513,0.068349235,-0.15326452,-0.10427572,0.043288857,0.085548796,0.002854061,-0.27015844,0.18662865,0.08127482,0.030236505,0.0716393,0.14418924,0.16282943,0.17619686,-0.17477511,0.020669628,-0.11208483,-0.2505143,0.036806285,0.06796012,-0.10035811,-0.07976577,0.08524079,-0.20969133,0.3171865,-0.25938556,-0.1755989,0.06740484,0.09391903,-0.20641614,0.021688664,0.2940981,-0.26529777,0.06601675,-0.37996835,0.05086534,0.011290541,0.07898765,0.23632659,0.000651132,-0.05410221,0.18188953,0.48640558,-0.07962027,-0.17152685,-0.24409273,0.15718924,0.22543968,-0.16228518,-0.2453187,0.11838572,-0.16002055,-0.00852502,0.2934159,0.033560947,-0.037333637,0.37277916,-0.7098307,-0.42369196,0.10593983,-0.25699064,-0.31778434,-0.044849943,-0.20720065,-0.062085565,0.08480039,-0.116649345,0.06666276,0.02020545,0.2920021,0.03804503,0.119231954,0.49220562,-0.16313021,0.036356043,0.001262365,-0.24353044,-0.15107289,0.062686615,0.015220072,0.052201677,-0.08243234,-0.080036566,-0.43914977,-0.24982205,-0.12970921,-0.2771481,-0.21639447,-0.007486599,0.1378275,0.28149953,-0.17685163,0.11070985,-0.3130999,0.09466759,-0.33327377,0.30862814,0.04605662,-0.06580391,0.23234166,-0.055067457,0.1309498,-0.0699019,-0.16542152,0.041067187,0.026138065,0.030502267,-0.14723767,0.030471005,-0.075547904,0.2628842,-0.015298887,0.08702778,0.06619405
A61C005,-0.017961944,0.16370265,0.1965183,-0.164461,-0.089873634,-0.44608414,-0.105583526,-0.23567136,-0.3927706,0.0924887,0.131265,0.09548801,-0.065584615,-0.22215393,0.28324416,-0.011134181,0.41547874,0.074238785,0.14122808,-0.18665256,0.26964018,-0.005375463,0.18391258,0.030218437,-0.2636606,0.08132163,-0.14744851,0.06001879,0.006640339,-0.26577026,-0.11226339,-0.1336133,0.07517324,-0.09285999,0.14650045,0.25619724,0.32532012,-0.04280223,0.072562285,-0.014023171,-0.040114418,0.08177682,-0.11547878,-0.11038037,0.17606501,0.05491899,-0.18033922,-0.31722653,-0.28761756,-0.12201689,0.30291507,-0.09494026,0.21118696,0.12248263,0.21504821,0.20870951,0.1236183,0.15932414,-0.018048996,-0.09765462,-0.13962483,-0.10896895,0.06883075,-0.107877515,0.26072827,0.030917658,0.029985053,-0.014637143,0.2694167,-0.019772151,-0.013427624,-0.42432448,-0.1002857,0.072862744,-0.18938465,-0.1352578,-0.2906469,0.20857035,-0.3016157,-0.13923857,0.029422622,0.19477068,0.11243741,0.44567204,0.031525668,0.03759778,0.24149379,-0.18896674,-0.12385534,-0.05836029,-0.12286939,-0.048453894,-0.11651005,0.07548684,0.21551171,0.0208706,-0.024982564,-0.19843195,-0.079517156,-0.11932983,-0.20299442,-0.000446178,0.12897241,-0.001802456,0.32033524,0.12096336,-0.09765115,-0.34865725,-0.091702215,-0.28832075,0.106985085,0.030722862,0.14661103,0.23012416,0.29935682,0.12621722,0.09738666,-0.042701285,0.07070991,-0.0791902,-0.00024682,-0.05464736,-0.12716296,-0.24619217,0.27735615,0.013536289,-0.051631693,-0.168394
A61C007,-0.40115952,-0.090919174,0.3223004,0.012994996,0.00114624,0.04758245,-0.17962319,-0.12021442,-0.009164919,0.112792276,0.32000932,0.2664761,-0.14578044,0.06124314,0.29353446,0.016998962,0.1094492,-0.06936725,0.06309503,0.001245769,-0.067506954,0.16392624,-0.15693681,0.258916,-0.17165418,0.08062832,-0.17186251,0.14105384,0.017514147,0.27387425,-0.17770275,0.29415402,-0.2211246,-0.22674185,0.042020343,0.122773595,0.009429063,-0.14070266,0.18940297,-0.04071114,-0.20737758,0.23195456,-0.007942979,-0.007027604,0.43964297,0.012422864,0.14408068,-0.20834732,-0.205478,0.07818769,0.15507911,-0.052100305,0.14740585,0.047429282,0.24726495,-0.23835841,0.17167382,0.138735,-0.084595524,0.2375594,0.049850356,-0.082780294,-0.071359575,0.004628242,0.07767714,-0.055629764,-0.1397946,0.014466875,-0.15459268,-0.0827567,0.3390694,0.21491775,-0.22696358,-0.19730225,0.11505633,0.123548105,-0.2709867,0.12726198,-0.10114683,0.24509005,-0.10254962,0.20883715,0.09258029,0.03997348,-0.07017614,0.18283583,0.11204438,-0.015968993,0.10087675,-0.024191093,-0.025423568,-0.1523427,-0.022657475,0.15281184,0.282436,-0.04680356,-0.025684413,-0.25274163,0.025244923,0.005154369,-0.1886585,0.31133375,-0.38786572,0.10633955,0.1311306,0.08663258,-0.122207336,-0.17842999,0.27937883,-0.34958163,-0.011789602,-0.22134414,-0.061894983,0.122183554,0.16229002,-0.102650814,0.026159633,0.0831544,-0.20675991,0.23325832,0.16400038,0.07221458,-0.1822174,0.017095352,0.030338671,-0.1360623,0.090399876,-0.08604956
A61C009,-0.09528913,-0.099324435,0.22993383,0.24082962,0.08940045,-0.14861372,-0.16984767,-0.22678912,-0.34713748,0.25325057,0.49122274,0.1961503,0.24714886,0.031116715,0.06947311,0.006743314,0.14852533,-0.021897258,-0.31883836,0.1602029,0.23400639,0.16867334,-0.017989548,-0.1509806,-0.000558586,0.14836279,0.19155021,0.060197264,0.07143002,-0.49488452,-0.3344039,0.17993033,0.1862318,-0.44570568,0.14841251,0.41512665,0.28944966,0.02668286,0.06636986,-0.049756154,-0.05107042,0.0315936,0.14809307,0.23017682,0.06686906,0.11808941,0.05072655,-0.07694633,-0.19293328,0.10914557,-0.061541643,0.058407474,0.15315333,-0.28761265,0.19672823,-0.066768326,0.2073078,-0.21549153,0.06249824,0.2826899,0.063195415,0.15504266,0.027130784,-0.41018692,0.18180214,-0.24624619,-0.22259548,0.22169904,0.09235178,-0.04734113,0.37310994,-0.02482352,-0.40908715,-0.23803286,-0.14971156,-0.0931727,-0.2377626,-0.02580119,-0.052066147,0.20802946,-0.23995402,-0.15380713,0.08041174,-0.005990711,0.0725003,-0.1143185,0.2347178,0.013034236,0.05676134,-0.1031046,-0.18056013,0.13908577,0.15391324,-0.05099276,0.43835825,-0.11212799,-0.087287776,-0.055677522,-0.14218557,0.07962344,-0.2509131,-0.05642869,-0.1862655,0.16271406,0.24194297,-0.08768891,0.28385383,0.004307864,-0.046193574,0.10283545,0.04899387,0.0348567,0.24750161,-0.044764135,-0.09054993,-0.06670945,-0.027684854,0.5375009,0.1498318,-0.11742216,0.018365093,0.17583764,0.094843075,-0.16690767,-0.11236904,-0.1351909,0.028877748,0.20772111
A61C013,0.059446458,-0.071819454,0.26737693,-0.2225234,0.14262885,-0.46182433,-0.001157029,-0.12724742,-0.28072506,-0.18051085,0.18977247,-0.006837744,-0.035658684,-0.26061735,-0.05588376,0.09896167,0.001541173,0.2603339,-0.10784228,-0.16026367,0.180091,0.35477313,0.06958369,0.15376452,-0.17479677,0.16145542,-0.25389135,0.19877861,-0.08539521,0.19044697,-0.09652088,-0.078339934,-0.01847146,-0.109804444,-0.31269777,0.30494857,0.100164734,-0.06442193,-0.1054152,-0.1944474,0.2727693,0.011728763,-0.115256816,0.09332399,0.056696553,-0.16932695,-0.15483867,-0.13720201,-0.08182772,-0.08759412,0.110338435,0.12450521,0.10417418,0.11062721,0.047599807,0.046102572,-0.004094061,0.057560526,-0.20449297,0.1812261,-0.21895674,-0.11788949,0.09186284,-0.24152604,0.33533174,0.13300405,0.07982118,0.21333894,-0.03170361,-0.36371657,0.07288542,-0.25440603,-0.48637506,-0.34092116,-0.08354027,0.14880799,-0.074972644,-0.094772,0.20080982,0.2572499,0.10573009,0.18445499,0.22179222,0.15440494,0.21979661,0.010979081,0.14621241,-0.10048782,0.08144666,0.052179288,-0.12926848,0.12180427,-0.000201277,-0.043258686,0.38077945,-0.006678845,0.01573936,0.059331946,0.008552619,-0.45455205,-0.17196584,-0.07497175,-0.35805196,0.12553775,0.21072946,-0.120599784,-0.0725454,-0.3545492,-0.097082704,-0.22835495,0.055822294,-0.021145256,0.21302332,0.21978511,0.015646692,-0.25725418,0.109446116,-0.50608164,0.17911103,0.08043633,-0.07224145,-0.28195903,-0.07075514,-0.0986577,0.02288444,0.01343589,0.017662093,0.23640583
