ipc,E1,E2,E3,E4,E5,E6,E7,E8,E9,E10,E11,E12,E13,E14,E15,E16,E17,E18,E19,E20,E21,E22,E23,E24,E25,E26,E27,E28,E29,E30,E31,E32,E33,E34,E35,E36,E37,E38,E39,E40,E41,E42,E43,E44,E45,E46,E47,E48,E49,E50,E51,E52,E53,E54,E55,E56,E57,E58,E59,E60,E61,E62,E63,E64,E65,E66,E67,E68,E69,E70,E71,E72,E73,E74,E75,E76,E77,E78,E79,E80,E81,E82,E83,E84,E85,E86,E87,E88,E89,E90,E91,E92,E93,E94,E95,E96,E97,E98,E99,E100,E101,E102,E103,E104,E105,E106,E107,E108,E109,E110,E111,E112,E113,E114,E115,E116,E117,E118,E119,E120,E121,E122,E123,E124,E125,E126,E127,E128,E129,E130,E131,E132,E133,E134,E135,E136,E137,E138,E139,E140,E141,E142,E143,E144,E145,E146,E147,E148,E149,E150,E151,E152,E153,E154,E155,E156,E157,E158,E159,E160,E161,E162,E163,E164,E165,E166,E167,E168,E169,E170,E171,E172,E173,E174,E175,E176,E177,E178,E179,E180,E181,E182,E183,E184,E185,E186,E187,E188,E189,E190,E191,E192,E193,E194,E195,E196,E197,E198,E199
A01B063,-0.211878613,0.115075946,0.106776565,0.02310729,0.005064168,-0.341056257,-0.136585623,0.203936294,0.043305013,-0.05103853,0.067426391,0.000579885,0.139784425,0.060038559,-0.067654952,-0.00909357,-0.027268125,0.057272159,0.078678444,-0.104713969,0.115050904,0.227005675,-0.001317172,-0.052560322,-0.15302071,-0.015819326,-0.07757099,-0.256438762,0.094045177,-0.049125262,0.093657292,-0.052177791,0.205042496,-0.211084127,-0.284393549,-0.015894484,0.010595906,0.165087417,0.107926637,-0.131275117,0.025760368,0.134392247,-0.127028227,0.284984052,-0.304892302,-0.017301573,-0.198429346,-0.086319387,0.257555693,-0.084942296,0.159000114,-0.008637423,0.0231425,-0.009095511,-0.149738193,-0.202076539,-0.208153725,-0.000213081,-0.074084178,-0.000725894,-0.029197332,-0.086012885,-0.064380385,0.230739415,0.179871663,-0.002463105,-0.144687638,0.123404235,0.208587229,0.106182769,0.119741738,-0.037862849,0.007298178,0.017896349,0.034834657,-0.121899255,0.032281276,-0.073072232,0.046729248,-0.318937719,0.117405772,0.087816596,-0.095715806,0.047192004,-0.021809472,-0.044061743,-0.201618746,-0.149506882,-0.012210907,-0.006657214,-0.028008319,-0.032265719,0.045583282,0.071219653,-0.184529483,-0.165968195,0.215053305,0.147168681,0.073393129,0.137514323,0.044483453,-0.169023156,-0.185016274,0.049059007,0.006578772,-0.14460592,0.075805508,-0.284207314,-0.211892605,0.197504088,0.001144668,0.027066464,0.256823063,-0.001033259,-0.114893831,0.113473102,-0.150049925,0.212670729,-0.006097799,0.147211254,0.016212957,0.104574546,-0.174008816,-0.030321771,0.030844038,0.025121028,0.007287035,0.052427571,0.093842171,0.174374208,-0.004970997,-0.150522813,0.405337483,-0.1059421,0.035890937,0.197092921,-0.184114486,0.009277327,0.036862087,-0.171356112,0.125040635,-0.054855708,-0.171356514,0.132969633,-0.128536209,-0.08035212,0.135757744,-0.000358379,0.005698882,0.134244427,-0.225460708,0.208646059,-0.021623306,-0.119262867,0.000293122,-0.165176824,0.044392556,-0.168747038,0.055409383,-0.096458025,-0.096531943,0.04428361,-0.153767258,0.045379404,-0.040428169,0.06469845,-0.018385457,-0.10386052,-0.134018421,0.074043982,-0.046581492,-0.004889455,0.020460039,-0.121742442,-0.041079752,-0.06275738,0.082947105,-0.006796731,-0.049259972,0.129648358,0.021127129,0.144524828,0.089254752,0.155478686,0.022244129,-0.004684328,0.094435014,0.214077964,0.015462527,-0.063380927,0.189729527,-0.097839393,0.037631869,0.034444843,0.151418179,0.106980518,-0.28648594,0.016163886,0.108864069
A01B069,-0.18019785,0.083997913,0.085482538,0.051955827,0.048635464,-0.253111511,-0.060161818,0.175874904,0.067906559,-0.106753461,0.111416027,0.007055264,0.11034257,0.052800786,-0.085040286,-0.044629064,-0.048783548,0.065289244,0.062051199,-0.083800465,0.069180027,0.180463821,-0.008872806,-0.040711206,-0.122227013,0.022346342,-0.074440554,-0.216880783,0.128639713,-0.060404591,0.052997965,-0.016543182,0.217883363,-0.169018149,-0.198715508,-0.086875267,-0.003251329,0.111887544,0.056181539,-0.126277357,0.040969588,0.147860587,-0.07394331,0.254353255,-0.245000958,-0.049258236,-0.163429454,-0.070574604,0.214753702,-0.091707133,0.078191519,-0.006701029,0.048396595,0.015654402,-0.143723384,-0.191431016,-0.172478795,-0.019711589,-0.052785602,-0.010453626,-0.055959474,-0.075539447,-0.06210823,0.195461452,0.161547035,-0.000256319,-0.15141803,0.121469669,0.181173101,0.082204253,0.11588461,-0.064215973,0.058096852,0.006198763,0.049527969,-0.098175995,0.023731276,-0.048645083,0.008955552,-0.265265107,0.123199515,0.066181362,-0.058753111,0.022521725,0.001617591,-0.072723009,-0.14974001,-0.083891615,0.010279639,0.017158704,0.007510914,-0.06115545,0.041448657,0.063585803,-0.124146454,-0.147553608,0.196843505,0.144863129,0.039896555,0.088132747,0.031139735,-0.124783337,-0.140353188,0.021512481,-0.017728908,-0.10477145,0.082156315,-0.202462971,-0.163310185,0.162492335,-0.003411096,0.003954409,0.244939715,-0.009015989,-0.088599928,0.066718131,-0.103905462,0.153226867,-0.039155364,0.104715191,0.009049745,0.097642168,-0.1348795,-0.008841596,0.047700133,0.044414461,0.025926866,0.06152923,0.110923745,0.10310445,-0.031198049,-0.100495659,0.317687303,-0.062307771,0.0223381,0.189018354,-0.122272752,-0.003199173,0.072287254,-0.18745175,0.138464555,-0.054573704,-0.118386768,0.06609574,-0.110130355,-0.089601211,0.097653627,0.031940907,0.027679388,0.123149343,-0.18455641,0.169925019,-0.042786274,-0.049562708,-0.009083795,-0.113991566,0.036921613,-0.15812622,0.02671917,-0.087726891,-0.086821228,0.041511681,-0.140856445,0.046221383,-0.021355985,0.035354026,-0.040491186,-0.076424696,-0.123832084,0.072821513,-0.027429549,0.009778362,0.030350482,-0.125505611,-0.076736264,-0.083792642,0.052055553,-0.010812294,-0.005670721,0.049629804,0.003040023,0.085111961,0.057277072,0.118065223,0.000606875,-0.009773308,0.079344034,0.178924039,0.009326188,0.001836251,0.171791434,-0.024490105,0.063488096,0.021570332,0.133136362,0.050909568,-0.233252659,0.032390147,0.120052747
A01B079,-0.10293858,0.04423059,0.04204942,0.03012289,0.02770707,-0.14303064,-0.02976817,0.09680374,0.03229536,-0.06509732,0.06567936,-0.00128942,0.06496849,0.02709621,-0.04452019,-0.02162471,-0.02489163,0.02936664,0.04384277,-0.04333429,0.04484443,0.09788397,0.00381354,-0.02331399,-0.07583151,0.01419395,-0.04768376,-0.11732161,0.07618936,-0.03027267,0.02528069,-0.00934754,0.12163975,-0.09439711,-0.09968904,-0.04939172,-0.00075075,0.06092027,0.02616837,-0.07342446,0.02064765,0.08157126,-0.03368442,0.14114575,-0.13760747,-0.03209907,-0.08254229,-0.03433616,0.11274397,-0.04543712,0.03691889,-0.01301079,0.03330162,0.01301723,-0.08186278,-0.0963687,-0.08516008,-0.01950864,-0.01842172,-0.00208162,-0.03758493,-0.0422356,-0.03820622,0.09944035,0.09430497,-0.00667991,-0.08067263,0.06672573,0.09884313,0.04283727,0.06247763,-0.03382331,0.02941595,-0.00332177,0.02484597,-0.05689507,0.01695356,-0.02563195,0.01645342,-0.1355259,0.06951598,0.03815657,-0.0358615,0.00932533,-0.01109489,-0.03305072,-0.08057862,-0.03520603,0.00345352,0.00944667,-0.00203446,-0.04023453,0.02443354,0.03878098,-0.06910793,-0.08593129,0.09932373,0.08481938,0.02750552,0.05616192,0.0148107,-0.06266677,-0.07044145,0.01760089,-0.00706556,-0.04780549,0.04334193,-0.10914619,-0.09122613,0.09086519,0.00321242,0.00900923,0.13866156,-0.0059242,-0.03936211,0.04029325,-0.05988678,0.0750689,-0.02438782,0.05394268,0.00679079,0.06097065,-0.08065169,-0.00708884,0.03006033,0.020191,0.01442479,0.02967277,0.06487881,0.06056763,-0.01411643,-0.05979173,0.17274371,-0.03689986,0.01811136,0.10278967,-0.06314079,-0.00638859,0.02971633,-0.10853679,0.07192118,-0.02617131,-0.07084211,0.04071278,-0.06105381,-0.05077325,0.05948427,0.01539623,0.01141615,0.0657533,-0.10034906,0.09368411,-0.01984378,-0.02755564,-0.00269451,-0.05798906,0.02545145,-0.08765358,0.01268398,-0.04662761,-0.04552504,0.0173604,-0.0819995,0.02711024,-0.01242248,0.02165179,-0.02378731,-0.03780063,-0.06751518,0.04828238,-0.0110275,0.00805322,0.0097193,-0.06991446,-0.04796937,-0.052382,0.02394506,-0.00467524,0.00327127,0.02359664,0.00018317,0.04601111,0.04442957,0.0688581,0.00294056,-0.00696455,0.04250399,0.09710626,-0.00032922,0.00823264,0.09024012,-0.00703202,0.02918448,0.01179429,0.0658967,0.02843605,-0.12932922,0.01755657,0.06337561
A01C001,-0.191748649,0.094619088,0.084568083,0.037397109,0.04242754,-0.275970846,-0.05556998,0.171409354,0.073308773,-0.135284066,0.126075163,0.004261704,0.121282808,0.061315361,-0.080613338,-0.025799032,-0.051157363,0.056322426,0.080961749,-0.091754995,0.066444203,0.194256917,-0.001523915,-0.040451281,-0.131878614,0.014377158,-0.086391844,-0.213542461,0.13394919,-0.068240501,0.04798479,-0.005387371,0.241844207,-0.169084728,-0.185715511,-0.099689812,0.003157626,0.122163467,0.043236692,-0.121679775,0.034566734,0.159755573,-0.076257527,0.261300355,-0.270014256,-0.078128651,-0.155168578,-0.054804895,0.206951961,-0.095047705,0.064482577,-0.021792753,0.064972736,0.014419485,-0.148319751,-0.187737465,-0.161885113,-0.029565347,-0.04270263,-0.001687755,-0.059971791,-0.089777984,-0.067869604,0.208425701,0.166959524,-0.001472216,-0.155608907,0.130427718,0.175722227,0.080937959,0.109742306,-0.049570713,0.066642322,-3.21e-05,0.042882793,-0.104787342,0.024515403,-0.049740978,0.015317787,-0.254716784,0.125649631,0.075692974,-0.067317188,0.014710574,-0.017607348,-0.077099793,-0.153677151,-0.082140699,0.00233925,0.020702507,-0.004517702,-0.06641674,0.059374649,0.07671725,-0.134216979,-0.159368664,0.18129532,0.162720427,0.043417443,0.103659317,0.028993633,-0.119402319,-0.1300053,0.021401703,-0.015433408,-0.092004433,0.089858472,-0.196734026,-0.157516807,0.182108566,0.011351517,0.004323204,0.237256765,-0.016258819,-0.091299862,0.067219786,-0.104877234,0.148798436,-0.043065924,0.115280457,0.028053016,0.110773623,-0.150311679,-0.013049727,0.058252364,0.041280527,0.016457312,0.072898828,0.119274117,0.107232109,-0.045120645,-0.098191313,0.325441599,-0.074481577,0.039390329,0.198746219,-0.11596591,-0.006237163,0.057298284,-0.205918849,0.137388393,-0.060483817,-0.137579933,0.067936927,-0.108306959,-0.100552268,0.099157982,0.021884615,0.008811428,0.138697058,-0.196446121,0.185788468,-0.036952123,-0.043089055,0.008434064,-0.106710427,0.051013112,-0.170368552,0.030190382,-0.090634398,-0.094855376,0.03944397,-0.156176433,0.047080483,-0.009987396,0.016206235,-0.036520291,-0.073326871,-0.120973796,0.079970934,-0.031595651,0.019700352,0.018432116,-0.121332981,-0.075777188,-0.103260934,0.052985989,-0.015010216,0.007723433,0.046278544,-0.009014538,0.083305359,0.065972328,0.131444782,-0.005910051,-0.016954985,0.074273661,0.179994717,0.006142579,0.01642918,0.167988509,-0.019866472,0.059273265,0.029716484,0.122953482,0.058782365,-0.238277271,0.030796653,0.121042997
A01C021,-0.0887071,0.03586428,0.04262386,0.0232155,0.02256654,-0.12420329,-0.02654835,0.08193307,0.02926027,-0.05768943,0.05661102,0.00150957,0.05352385,0.0240205,-0.03888134,-0.01721912,-0.02103304,0.02993895,0.03759498,-0.03950991,0.04013816,0.08746201,0.00250763,-0.01491495,-0.05739264,0.00922627,-0.03981076,-0.09046295,0.05818545,-0.03055349,0.02098112,-0.01057804,0.10474354,-0.07966363,-0.08300749,-0.0456094,0.00107311,0.05134129,0.02379978,-0.05700058,0.01421049,0.07577673,-0.02951512,0.11869378,-0.12261716,-0.03242388,-0.0720636,-0.03210682,0.09449247,-0.0392517,0.03822071,-0.01019581,0.02586259,0.00958535,-0.0695625,-0.08233832,-0.07319406,-0.01583978,-0.0188185,-0.00858635,-0.02967809,-0.02982808,-0.03242304,0.08258004,0.08063852,-0.00688592,-0.07155557,0.06401904,0.08831525,0.03202662,0.05010387,-0.02266008,0.02682879,-0.00081464,0.01818405,-0.04591102,0.01417762,-0.02865446,0.01103125,-0.11407688,0.05974782,0.03380678,-0.03215175,0.00596965,-0.00259841,-0.03459363,-0.06449324,-0.03347107,0.00910322,0.00811241,0.00206559,-0.03006645,0.02031937,0.02602177,-0.06643468,-0.0686403,0.08395264,0.07277367,0.01652944,0.04379704,0.01414056,-0.05387546,-0.05534712,0.01162801,-0.00132619,-0.04020369,0.03471446,-0.09239588,-0.06960005,0.07559911,0.00417021,0.00394298,0.11430765,0.00053978,-0.04173646,0.03169867,-0.04502601,0.06845535,-0.01636172,0.04519784,0.00918496,0.05471726,-0.07111681,-0.0107023,0.02563227,0.0155125,0.00906385,0.02873864,0.04952145,0.05077576,-0.01093749,-0.05043308,0.14565252,-0.02869933,0.01642367,0.09115131,-0.05738771,-0.00057779,0.03284485,-0.08986517,0.0580273,-0.01786594,-0.05836024,0.0348282,-0.05113502,-0.04351157,0.04289844,0.00950343,0.00594711,0.05970716,-0.08773594,0.07633105,-0.02216197,-0.02416563,-0.00034145,-0.05193949,0.02183343,-0.07897013,0.01031753,-0.03534849,-0.03723706,0.01291713,-0.07002143,0.02550061,-0.00627705,0.01404182,-0.01532738,-0.03379088,-0.05451322,0.04079201,-0.01343407,0.00728387,0.01340852,-0.0527348,-0.04068839,-0.04345141,0.02790577,-0.00267795,-0.00161297,0.02112072,-0.00536061,0.03691639,0.03621044,0.0515944,-0.00314807,-0.00971025,0.0381428,0.07790919,0.00135739,0.00956392,0.07273316,-0.00753568,0.02287029,0.01138134,0.06270511,0.02766179,-0.10853804,0.01513416,0.0509735
A01D034,-0.19773753,0.07310401,0.09731142,0.05826063,0.05114049,-0.2775308,-0.03457496,0.17751816,0.07504236,-0.1229941,0.12914632,-0.01200465,0.11315212,0.06458353,-0.07235345,-0.02623052,-0.0562984,0.04834799,0.09578533,-0.10386928,0.06719486,0.2006236,0.01693124,-0.05285574,-0.14018705,0.02737213,-0.10814635,-0.24285741,0.15181416,-0.09352102,0.047733,-0.03108622,0.24652347,-0.20012197,-0.20441197,-0.08699816,-0.02329536,0.11366158,0.05621781,-0.12565425,0.0545627,0.15070839,-0.09391092,0.2813793,-0.2707096,-0.05502734,-0.17455068,-0.05824147,0.23317927,-0.09858645,0.09221446,0.00682145,0.06738632,0.02868005,-0.15297607,-0.18798092,-0.19150734,-0.00496196,-0.05025556,-0.00804254,-0.06866336,-0.10271651,-0.0616859,0.20883842,0.18878916,-0.00325134,-0.1812571,0.1402092,0.20006295,0.10157237,0.13491297,-0.0693154,0.07349906,0.01433089,0.03510796,-0.11647932,0.03277966,-0.07447863,0.017396,-0.27933702,0.13797036,0.09500281,-0.06895295,0.01601823,0.00184662,-0.06319354,-0.16224901,-0.08815031,0.02134964,0.02067592,0.00564115,-0.06330736,0.04012508,0.09201074,-0.14053135,-0.1706201,0.1895064,0.17052777,0.03515548,0.1081772,0.03349162,-0.11451632,-0.14531946,0.04005122,-0.01240576,-0.08635212,0.09104481,-0.21023753,-0.15155625,0.19733347,-0.00776271,0.01162931,0.28518897,0.00083338,-0.1037759,0.07252452,-0.11454868,0.14874917,-0.0391799,0.1199554,0.01911449,0.1227166,-0.1604432,-0.00868488,0.07092743,0.03484519,0.01222055,0.07507103,0.10966491,0.12266043,-0.0428032,-0.10986117,0.3552576,-0.07014797,0.03755413,0.20014967,-0.12081614,-0.00192297,0.06657763,-0.22565067,0.13954973,-0.03651036,-0.1408045,0.07340149,-0.11790026,-0.0870279,0.1093751,0.03851465,0.01533115,0.14025152,-0.19801535,0.20455496,-0.03847035,-0.02650861,-0.00077032,-0.11451068,0.0434747,-0.17261615,0.00690204,-0.09594016,-0.11355034,0.04920615,-0.16057886,0.05241108,-0.00579129,0.0247433,-0.05234854,-0.07570969,-0.15617764,0.09149347,-0.03614083,0.02052064,0.01150073,-0.14648147,-0.08528218,-0.10055546,0.05842517,-0.02819408,0.01975293,0.05498225,-0.00356467,0.0704869,0.06557708,0.1283744,0.0055832,-0.0249359,0.07223383,0.1818802,-0.01121549,0.01546844,0.17153051,-0.0300326,0.07929211,0.02695127,0.14024827,0.05731525,-0.26500893,0.02980289,0.13150452
A01D041,-0.1566102,0.0636683,0.06616046,0.04428035,0.03900792,-0.21212535,-0.04849822,0.1363114,0.05447311,-0.09341249,0.09548969,-0.00187827,0.09347094,0.03958646,-0.05971459,-0.02796746,-0.03566208,0.05054421,0.05148593,-0.06639389,0.06145776,0.1452479,0.00138757,-0.02931111,-0.11032484,0.02772801,-0.06837801,-0.17469227,0.10557774,-0.05487049,0.04205313,-0.01399394,0.18417457,-0.13873336,-0.14712605,-0.0697376,-0.0064709,0.09664668,0.0406689,-0.10105628,0.04285268,0.12387657,-0.05918092,0.20631202,-0.21379763,-0.05270813,-0.12588456,-0.04944135,0.17297697,-0.07433254,0.04590945,-0.01407159,0.04822327,0.01749772,-0.11458581,-0.1429364,-0.13304532,-0.02566853,-0.03490255,-0.00610056,-0.04313997,-0.05685249,-0.06045763,0.15446645,0.13696305,-0.00878282,-0.12813424,0.10662799,0.14586952,0.06260698,0.08977337,-0.05254073,0.05408856,-0.00684527,0.04394579,-0.0808747,0.02056741,-0.04089145,0.01460849,-0.20268875,0.10127915,0.05429618,-0.04853242,0.01620916,-0.01803808,-0.05239008,-0.11524812,-0.05588851,0.0099456,0.00909692,0.00214634,-0.05859937,0.04465761,0.05455393,-0.11084814,-0.12443752,0.14877428,0.12318846,0.03266453,0.07501541,0.02431672,-0.09144672,-0.1033219,0.01359924,-0.00210714,-0.07846069,0.08017247,-0.15628059,-0.1296165,0.14573719,0.00049974,0.00795107,0.19351475,-0.01518466,-0.06328731,0.05233296,-0.08261671,0.11398066,-0.0343739,0.09293729,0.01790347,0.09105429,-0.12085167,-0.00462392,0.05309358,0.02727823,0.01164645,0.05167726,0.09412169,0.08739244,-0.02917705,-0.08397296,0.25617537,-0.05659121,0.02873195,0.15263692,-0.0914238,-0.00749699,0.04497731,-0.1532272,0.10592508,-0.0378976,-0.1032949,0.05768995,-0.09302849,-0.07241199,0.0812358,0.01949803,0.01517395,0.10292458,-0.15005966,0.13444108,-0.03395148,-0.03104425,-0.00839989,-0.08898242,0.03791301,-0.1291535,0.02223376,-0.06603099,-0.07533169,0.02649537,-0.12522224,0.03341824,-0.01139631,0.0269508,-0.03544079,-0.05715284,-0.10418458,0.05654889,-0.02261405,0.00903225,0.01751347,-0.10181823,-0.06836545,-0.07834377,0.05088712,-0.01395743,-0.00527315,0.03881782,-0.00516769,0.0621106,0.05705461,0.10525832,-0.00361449,-0.00474736,0.06316254,0.13734803,0.0027488,0.00688178,0.13220331,-0.01160719,0.05606164,0.02195682,0.11011337,0.03896451,-0.18638639,0.02536978,0.09062031
A01D046,-0.168282241,0.076303951,0.074974045,0.039172616,0.04280695,-0.234342486,-0.053576924,0.160188705,0.060972605,-0.119827531,0.116625741,0.007999955,0.098554574,0.051567357,-0.073759392,-0.035184629,-0.039585136,0.063389316,0.057012234,-0.079125777,0.068655282,0.166004434,-0.002385989,-0.042233352,-0.118960537,0.01903723,-0.070266046,-0.186424121,0.1138767,-0.058856115,0.038112283,-0.012669485,0.212178588,-0.146228105,-0.164956644,-0.074575432,-0.004898252,0.10956829,0.048428971,-0.118157707,0.036982101,0.134941056,-0.067023404,0.236922428,-0.23694779,-0.060613256,-0.140899524,-0.052989047,0.199225724,-0.079321779,0.051920712,-0.004948711,0.05948516,0.006352028,-0.135305941,-0.167032152,-0.150493026,-0.034290493,-0.043977104,-0.008008195,-0.053100333,-0.063288003,-0.065922946,0.183838859,0.146588311,-0.01538249,-0.137493685,0.114720441,0.163917601,0.063600354,0.08958517,-0.049968384,0.059886407,-0.008630366,0.033259839,-0.091742218,0.022385845,-0.046971697,0.022399895,-0.230650976,0.107399881,0.071713902,-0.052341677,0.018517453,-0.014980135,-0.066980474,-0.128648713,-0.075585686,0.000259869,0.017486079,-0.00441971,-0.063073181,0.047815286,0.058898259,-0.12228743,-0.140738025,0.167751268,0.144255936,0.04031042,0.081472583,0.036702141,-0.112983368,-0.116054706,0.019201633,-0.014389418,-0.084612347,0.084507927,-0.174260974,-0.145469651,0.157276616,0.004577397,0.005865132,0.216817498,-0.01992533,-0.077786729,0.060432915,-0.088576436,0.138010055,-0.036490344,0.100392498,0.015122896,0.105721764,-0.138215452,-0.005467348,0.04706436,0.031178445,0.00736349,0.059387509,0.116662093,0.097583033,-0.024785623,-0.085157417,0.292544305,-0.059314504,0.024507837,0.170663774,-0.105787769,-0.013578747,0.057616044,-0.174665928,0.122133613,-0.054783281,-0.11831028,0.062037308,-0.09651424,-0.080484927,0.093251184,0.021294158,0.004865245,0.118289955,-0.163615525,0.160415873,-0.043988943,-0.042737298,0.001254889,-0.091644563,0.043119468,-0.15162237,0.028466903,-0.08346653,-0.066740148,0.034534279,-0.140379593,0.037208479,-0.014356403,0.024263853,-0.043802857,-0.071969226,-0.111997627,0.057217199,-0.020974636,0.009542246,0.015861176,-0.111907594,-0.071907476,-0.097439021,0.047373947,-0.008562339,-0.001756437,0.04932446,-0.00259598,0.068705775,0.073996365,0.10629259,-0.002803408,-0.004299459,0.069304027,0.161193296,0.013428479,0.01248094,0.149574161,-0.012560399,0.060400531,0.019675493,0.109524414,0.049705304,-0.213342741,0.024684096,0.116867237
A01D075,-0.1072679,0.05272832,0.05673838,0.02869458,0.02789173,-0.15902549,-0.03640956,0.10709307,0.03812304,-0.07959484,0.07403176,-0.00413439,0.07208273,0.03179271,-0.0440622,-0.0197537,-0.02318977,0.04078038,0.04240576,-0.05477396,0.05065594,0.11225789,-0.00131522,-0.02439357,-0.07806481,0.02197695,-0.05158852,-0.12363955,0.08278844,-0.0435227,0.03092891,-0.00837111,0.13252328,-0.10178316,-0.10801508,-0.0480871,-0.00153573,0.06844454,0.03447643,-0.07968941,0.02464603,0.09166395,-0.0450957,0.15424646,-0.1545241,-0.03460127,-0.10162289,-0.03690007,0.1356377,-0.04944924,0.04798301,-0.00614098,0.03926143,0.01352352,-0.08920603,-0.10929007,-0.1016752,-0.01604412,-0.02326875,-0.00320811,-0.02781349,-0.04731995,-0.03698167,0.10775679,0.1000307,-0.00950817,-0.09004048,0.08164607,0.11320279,0.05155376,0.06087112,-0.03188279,0.03781873,0.00203458,0.02683153,-0.06532324,0.01546439,-0.02747687,0.01737466,-0.14998056,0.08064503,0.04407929,-0.04159378,0.01477993,-0.01281136,-0.04462652,-0.08634116,-0.04772964,0.00337974,0.00281055,0.00076774,-0.03414254,0.03161782,0.03825318,-0.07632346,-0.08513651,0.1158385,0.08510578,0.02474679,0.05120957,0.02360587,-0.07077569,-0.07381065,0.01751923,-0.00600092,-0.05838132,0.06203198,-0.12226558,-0.10067824,0.10568382,0.00398184,0.00799944,0.15058821,-0.0013893,-0.05205908,0.04082986,-0.06138969,0.08986072,-0.02759498,0.062427,0.00446372,0.06305006,-0.08317968,-0.00673005,0.03152712,0.01766307,0.0101018,0.03799717,0.06822816,0.06056783,-0.01445004,-0.0618578,0.19121757,-0.0458583,0.02395084,0.11688636,-0.07307322,-0.0082239,0.0330746,-0.11682311,0.08124831,-0.03587713,-0.07016818,0.04661053,-0.07234015,-0.06045287,0.06311492,0.01000828,0.00305408,0.07310372,-0.11117332,0.0977115,-0.02874933,-0.02407636,-0.00563385,-0.06535044,0.03182428,-0.09562857,0.01729767,-0.05373542,-0.05778998,0.02713637,-0.08737365,0.03434065,-0.00870981,0.01746537,-0.02915425,-0.04971632,-0.08149761,0.04096505,-0.02243735,0.00762718,0.00612372,-0.0821969,-0.04874668,-0.0630335,0.03451522,0.00261963,0.00309372,0.03460073,-0.0012185,0.05545393,0.03731037,0.07196832,-0.00272314,-0.00502297,0.04423064,0.10466336,0.00867864,0.00699837,0.10360523,-0.00908115,0.03205049,0.01509458,0.07135098,0.03538032,-0.1414464,0.01466515,0.07279666
A01D101,-0.043638881,0.018940188,0.019573348,0.013945196,0.013172772,-0.070695937,-0.009517086,0.042493489,0.021698352,-0.032732356,0.031626307,0.000989452,0.025888696,0.013472125,-0.022859024,-0.004397023,-0.006469596,0.011909569,0.016782709,-0.018232305,0.023470726,0.051350679,-0.003129418,-0.005404266,-0.02907628,0.005922568,-0.020823509,-0.054871906,0.030057441,-0.018556772,0.012898039,-0.006706902,0.061743446,-0.046102714,-0.049021944,-0.028232461,-2.76e-05,0.025541153,0.013243838,-0.031203587,0.01279459,0.041528828,-0.022511236,0.068121105,-0.071557358,-0.012823233,-0.038479596,-0.014515514,0.059815154,-0.016575713,0.018526875,0.000483464,0.014905972,-0.000155252,-0.038798202,-0.04581105,-0.043332394,-0.011678165,-0.011460208,-0.006356495,-0.016527051,-0.021850219,-0.017884279,0.04466318,0.045442704,-0.005223386,-0.033729006,0.034993969,0.051707685,0.01700197,0.024548296,-0.016317286,0.01089836,-0.000443858,0.015946116,-0.027840093,0.009389788,-0.015480647,0.008910277,-0.069026351,0.029369868,0.016121097,-0.020602824,0.00951575,-0.001986226,-0.014009212,-0.03959078,-0.019460941,0.001583547,0.000913608,-0.004004961,-0.022151038,0.018094745,0.021102125,-0.032732885,-0.041640926,0.048473626,0.036992833,0.010957791,0.027551578,0.010090018,-0.032855574,-0.034035564,0.003396361,-0.003611156,-0.026847538,0.019530462,-0.051543135,-0.046656095,0.044490725,-0.002192684,0.006576674,0.061559111,0.000545602,-0.019991353,0.019755794,-0.030355651,0.033457529,-0.016089555,0.025256505,0.001457922,0.02425915,-0.034620076,-0.007838327,0.017615924,0.010809748,0.00298833,0.012748814,0.027531413,0.022566576,-0.009726492,-0.023624977,0.07780882,-0.016682135,0.003960394,0.044515826,-0.035251938,-0.00524211,0.01371733,-0.053663589,0.033993639,-0.016088259,-0.036983471,0.01754556,-0.028749319,-0.020595441,0.031029733,0.006366917,0.008295083,0.036748346,-0.048556812,0.043494046,-0.013257396,-0.011747891,-0.002261731,-0.031616557,0.007777196,-0.047051437,0.006484984,-0.016217563,-0.026143253,0.009542052,-0.03589616,0.016009102,-0.00722181,0.005040946,-0.016557761,-0.022092704,-0.031351015,0.014109046,-0.002108479,-0.001849465,0.005295227,-0.03265838,-0.016441446,-0.023785496,0.013140624,-0.002492223,-0.003472099,0.009320608,0.001020136,0.021915481,0.014361884,0.034001108,-0.004306468,0.000557853,0.0189324,0.048818011,-0.001255553,0.001868201,0.046734314,-0.003180373,0.015426574,0.005738215,0.030144511,0.014112742,-0.058430739,0.005073634,0.033360031
A01F025,-0.20921808,0.09857812,0.09936268,0.06519016,0.05151044,-0.2962625,-0.06320342,0.2110912,0.06972377,-0.15249193,0.14287929,0.00298763,0.13082905,0.06271221,-0.08848888,-0.04618775,-0.05719587,0.06236608,0.06955746,-0.091423,0.08183208,0.21136285,-0.00149241,-0.04457508,-0.14232104,0.03098387,-0.09655983,-0.24101794,0.14869255,-0.06482299,0.06347801,-0.01971517,0.27098712,-0.19602144,-0.21437925,-0.10334083,-0.00775358,0.12180219,0.06461755,-0.1402564,0.04806716,0.17381985,-0.09046591,0.30233368,-0.30368835,-0.07132667,-0.17884369,-0.06179754,0.26003996,-0.11204442,0.0868264,-0.00993733,0.07423385,0.01350561,-0.17119281,-0.21903972,-0.19405095,-0.02195303,-0.04671561,-0.01289377,-0.0670248,-0.07413864,-0.0724885,0.22954687,0.19865361,-0.00662264,-0.17154033,0.15546444,0.2065036,0.07900584,0.13049757,-0.05983157,0.0839745,-0.01443937,0.0530294,-0.11443655,0.0250172,-0.07054981,0.04006761,-0.28892833,0.15493153,0.0808996,-0.07185403,0.02770761,-0.03086111,-0.08155347,-0.16885734,-0.08819531,-0.00991763,0.02613045,-0.00403287,-0.08118721,0.05613288,0.07623444,-0.1534269,-0.16069365,0.22406948,0.1678903,0.04141933,0.11308962,0.05239344,-0.14413284,-0.15388979,0.03647725,-0.00650865,-0.10632042,0.12360266,-0.22462767,-0.19707994,0.19551484,0.01126572,0.00299897,0.28871176,-0.02541524,-0.10421573,0.08680859,-0.1189959,0.17574039,-0.05455577,0.13113964,0.00748039,0.12541555,-0.17352058,-0.01271506,0.05812561,0.05338386,0.01216064,0.06710769,0.13539308,0.11608125,-0.04522629,-0.1132949,0.3712179,-0.0900059,0.03521834,0.22908558,-0.1385424,-0.01179701,0.07851031,-0.22601037,0.15550874,-0.0723186,-0.14002724,0.07105903,-0.13469568,-0.11300624,0.11247175,0.04660923,0.00495077,0.16732793,-0.22841765,0.1892654,-0.05694174,-0.05464548,-0.00199608,-0.12853715,0.06070172,-0.19766612,0.02331525,-0.09553725,-0.0971132,0.04983775,-0.17470281,0.05031116,-0.02275996,0.03845927,-0.05919432,-0.10055398,-0.14060126,0.07750021,-0.00952793,0.00357346,0.03234074,-0.14708212,-0.08123737,-0.11038388,0.05691521,-0.0136583,0.00351799,0.05155858,-0.01017377,0.08442283,0.07993411,0.15153791,-0.00386821,-0.00597396,0.0982025,0.18863724,0.00497903,0.0229187,0.21425188,-0.02602828,0.0714678,0.02115153,0.14126512,0.06251211,-0.27720177,0.04392663,0.1367033
A01G007,-0.09581745,0.04353644,0.04099968,0.02441591,0.01991307,-0.13833275,-0.03115798,0.09268246,0.03038526,-0.06843443,0.05773667,-0.00233799,0.05502128,0.0289997,-0.04443708,-0.01155445,-0.02010472,0.03135994,0.03770106,-0.04141692,0.03816458,0.08988547,0.00090492,-0.02275845,-0.06669769,0.01365623,-0.05351521,-0.10518181,0.06864092,-0.02902079,0.01883342,-0.01516373,0.10893383,-0.08613122,-0.10153125,-0.04574575,-0.00382298,0.05823693,0.02834861,-0.06589425,0.02134053,0.0818348,-0.03146821,0.1297921,-0.13772354,-0.03113005,-0.08165751,-0.02954712,0.11081962,-0.04753899,0.03386607,-0.00444482,0.02790124,0.01131221,-0.06990113,-0.09310791,-0.08280366,-0.01700825,-0.01992882,-0.00611164,-0.03032012,-0.04269821,-0.03727829,0.09132209,0.08869345,0.0004884,-0.07908174,0.06763308,0.09327779,0.03857727,0.04757876,-0.02791794,0.02694254,0.00223183,0.02303784,-0.06039395,0.01438157,-0.03181028,0.0174422,-0.13312274,0.0659783,0.03802055,-0.03176693,0.01016939,-0.00737838,-0.03089203,-0.08101555,-0.03662088,0.00303152,0.0098896,-0.00284383,-0.03063978,0.03147485,0.02976067,-0.07192647,-0.07623503,0.09431755,0.07307405,0.02675347,0.03867067,0.01719835,-0.06200074,-0.06802334,0.01164503,0.00038875,-0.05470837,0.04700176,-0.10665445,-0.08278053,0.09668728,-0.00051266,0.00048219,0.12835489,-0.00459045,-0.04685512,0.03157163,-0.04626574,0.06987312,-0.02607303,0.05642965,0.01135711,0.0568674,-0.07342207,-0.00726782,0.03030436,0.0199787,0.01361474,0.02707077,0.06385838,0.05405242,-0.01895808,-0.05797857,0.16264778,-0.03524211,0.01158747,0.09394045,-0.05824628,-0.00889397,0.02889229,-0.09812246,0.06606456,-0.02269934,-0.06911627,0.03754165,-0.05362046,-0.04349193,0.05083987,0.01328875,0.00618199,0.06454387,-0.09374717,0.07876792,-0.02112967,-0.02288383,-0.00303001,-0.0585651,0.01869791,-0.08458633,0.01207081,-0.03927782,-0.04119667,0.01658637,-0.0784816,0.02800441,-0.01374828,0.01910931,-0.02685605,-0.04204387,-0.05996167,0.04110264,-0.01259948,0.00572362,0.00952116,-0.07006264,-0.03965758,-0.05448725,0.03389429,-0.00220102,0.00385396,0.02942693,-0.00658756,0.04014776,0.0391724,0.06424669,0.00039571,-0.01069536,0.04213673,0.08743984,0.00077029,0.00205419,0.09255441,-0.01669536,0.03367681,0.01135071,0.06597283,0.03632236,-0.11490122,0.02263088,0.06688537
A01G009,-0.19205518,0.08879181,0.07856843,0.04440551,0.04917246,-0.2723747,-0.06263511,0.18695597,0.07610596,-0.12704742,0.1262901,0.00289024,0.12110344,0.04996897,-0.07981533,-0.03394045,-0.04011723,0.06318781,0.06556603,-0.09512071,0.08108307,0.18471192,-0.00257759,-0.04403627,-0.13521662,0.02146517,-0.09257628,-0.21378067,0.13959895,-0.05997621,0.05440226,-0.01091388,0.23820102,-0.16745116,-0.1846671,-0.09181168,0.00305012,0.12047191,0.04647732,-0.12423131,0.05581773,0.16039814,-0.07018599,0.26210544,-0.27530336,-0.06163852,-0.16518582,-0.05684707,0.22882369,-0.0907426,0.07081047,-0.01277475,0.06391376,0.00336338,-0.15128484,-0.18419652,-0.1620911,-0.04427149,-0.05859249,-0.0079075,-0.0665087,-0.08090146,-0.07370871,0.21055996,0.16808456,-0.01974543,-0.14990167,0.14112596,0.18652081,0.06983724,0.10362639,-0.06016092,0.0598786,-0.01368549,0.0375568,-0.09697925,0.02589383,-0.05876527,0.02655519,-0.2622834,0.12871225,0.07792106,-0.07030207,0.02692588,-0.01683206,-0.06970005,-0.15233144,-0.09276246,-0.00521427,0.02335256,-0.00409876,-0.06888822,0.06269087,0.06006934,-0.13582021,-0.16420403,0.18826924,0.15954715,0.04199519,0.09121505,0.04039206,-0.1313131,-0.1372031,0.02857232,-0.00470012,-0.09478394,0.10222032,-0.20189145,-0.1674641,0.17977354,0.00323149,0.00667217,0.2552523,-0.01123154,-0.09078121,0.07750409,-0.10683382,0.1487756,-0.04564846,0.11080913,0.02090993,0.12424928,-0.15433608,-0.00701729,0.05266999,0.03397533,0.01516914,0.06866077,0.12850374,0.10501273,-0.03883761,-0.10516437,0.33472192,-0.07625337,0.0328568,0.20211992,-0.12551887,-0.01471568,0.06056817,-0.1890943,0.13035756,-0.06318868,-0.13940494,0.07733019,-0.11128662,-0.09058763,0.1070027,0.0328118,0.01402092,0.14514461,-0.18599954,0.17532171,-0.04234026,-0.05215513,-0.00313195,-0.10415305,0.05424495,-0.16488825,0.02329294,-0.09322076,-0.08092134,0.03219696,-0.15087724,0.0406312,-0.01025624,0.01741602,-0.03927703,-0.07866165,-0.12404691,0.07628638,-0.01521032,0.00823369,0.01885605,-0.12743917,-0.08129755,-0.10677411,0.05908902,-0.0152159,-0.00961272,0.04998957,0.00265102,0.07007556,0.07483925,0.11795416,0.00633608,-0.00585141,0.07841175,0.17523028,0.00765127,0.00738202,0.17667636,-0.01832096,0.07505662,0.02215133,0.13331051,0.05188875,-0.25100118,0.02397529,0.1228434
A01G015,-0.12195535,0.06279344,0.06052893,0.03642586,0.02983718,-0.17313445,-0.03507286,0.11561445,0.03846653,-0.07801989,0.07475261,0.00354811,0.07040659,0.03957154,-0.04811228,-0.02315867,-0.03437641,0.0438636,0.04769782,-0.0569248,0.05387907,0.11867815,0.00127238,-0.02402281,-0.08776832,0.02002561,-0.06476163,-0.13729252,0.08642607,-0.04254384,0.02496852,-0.00600658,0.15128417,-0.11454783,-0.12405603,-0.05995922,-0.00732739,0.07126799,0.02356208,-0.07842321,0.03041517,0.10560278,-0.05217844,0.17099686,-0.16919015,-0.03782021,-0.10670064,-0.0403624,0.13824764,-0.05185043,0.05342519,-0.01115109,0.04285536,0.01288573,-0.0923749,-0.12141341,-0.11139411,-0.01566044,-0.02890173,-0.00759521,-0.03858858,-0.04876985,-0.03668312,0.12303707,0.11536608,-0.00207107,-0.09423838,0.08383583,0.11770675,0.04631023,0.06917527,-0.0384872,0.03479271,-0.00470846,0.03071559,-0.07062575,0.01766155,-0.04190643,0.01823665,-0.16644573,0.07997443,0.04984925,-0.04582458,0.0112011,-0.00881768,-0.04536755,-0.09736912,-0.04473148,0.00978773,0.00950703,-0.0029049,-0.0435334,0.03744941,0.04902804,-0.09118179,-0.098943,0.12592885,0.10212019,0.02937393,0.06167697,0.01833775,-0.07510254,-0.08098423,0.02136223,-0.00683413,-0.0659183,0.05452229,-0.1296805,-0.10774531,0.11758817,0.00603744,0.00305518,0.1642472,-0.00283479,-0.05491387,0.03821343,-0.06806888,0.0932985,-0.02221126,0.07040045,0.0068736,0.07494375,-0.0973153,-0.01155507,0.03171642,0.02170596,0.01180624,0.03850241,0.0786446,0.07118152,-0.02294265,-0.06592223,0.21067227,-0.05213045,0.02087341,0.12322483,-0.07204995,-0.00584887,0.04010164,-0.12663184,0.08597232,-0.0385807,-0.08530364,0.04339343,-0.06840691,-0.06416466,0.06352907,0.0186942,0.01323161,0.08129912,-0.12344872,0.11779319,-0.02108216,-0.0227874,-0.00408713,-0.0706811,0.02808293,-0.11102282,0.01249105,-0.06159603,-0.05117999,0.01950069,-0.10041332,0.02817995,-0.01044429,0.02147677,-0.03478326,-0.05322298,-0.07662735,0.05519843,-0.0231507,0.00962981,0.0149412,-0.08194242,-0.05907749,-0.06723631,0.0321391,-0.00780203,-0.0015647,0.03458493,-0.00445924,0.0513098,0.04868577,0.08011363,-0.00247894,-0.00388468,0.04954049,0.11224762,-0.00079124,0.01173023,0.11649054,-0.01256987,0.03300403,0.01695917,0.08106373,0.03231914,-0.15123087,0.02147689,0.08485398
A01G022,-0.141242936,0.070049353,0.075442836,0.032092121,0.045454022,-0.194432899,-0.039391089,0.12457215,0.044272702,-0.101804823,0.099718921,-0.005845643,0.07798592,0.048668053,-0.053500425,-0.024484716,-0.031407584,0.048177991,0.061860599,-0.054322638,0.067069456,0.136110693,-0.00046157,-0.026799588,-0.097546764,0.032025658,-0.076896764,-0.160788298,0.103183232,-0.066007547,0.031741358,-0.005793337,0.174286097,-0.120312788,-0.137430876,-0.077488184,-0.01417347,0.07618767,0.038963594,-0.09889476,0.028386682,0.125784799,-0.055260256,0.198017672,-0.195450976,-0.042227767,-0.121201053,-0.061125603,0.159812719,-0.056241952,0.065676615,-0.017286161,0.040737286,0.012825744,-0.114520572,-0.142643809,-0.130448177,-0.016677661,-0.032132831,-0.01741753,-0.040438764,-0.06020749,-0.043914985,0.135707229,0.137131065,-0.00285053,-0.111048363,0.099367075,0.148048848,0.052312028,0.08386118,-0.03680139,0.0569968,0.001392236,0.035650309,-0.087663077,0.023024064,-0.043037165,0.020224342,-0.200343683,0.106566846,0.0570683,-0.051540252,0.020094514,-0.000483647,-0.064059541,-0.115568042,-0.053013932,0.000439013,0.012079233,-0.004343033,-0.045057274,0.045656551,0.049401589,-0.101832658,-0.112652957,0.147854865,0.108859755,0.029670358,0.067711555,0.018710714,-0.090028249,-0.097369298,0.016325178,-0.010231786,-0.067166045,0.069890738,-0.14866744,-0.121042192,0.125200927,0.00907103,0.001752657,0.186399773,0.008055151,-0.06948223,0.038395613,-0.077228427,0.1054001,-0.03341395,0.083361834,0.007597136,0.092435733,-0.102034315,-0.012315226,0.047281969,0.031037562,0.027572328,0.037063252,0.074247167,0.07228265,-0.026711842,-0.090725757,0.23981823,-0.045486968,0.021881959,0.148196757,-0.09441144,-0.006072552,0.04653411,-0.157303989,0.103148855,-0.032851789,-0.098174699,0.057984501,-0.094207019,-0.082813256,0.0756962,0.025890984,0.014890037,0.093818404,-0.138129711,0.132521152,-0.032000125,-0.026949607,-0.0086719,-0.079167388,0.027695162,-0.13145414,0.015513445,-0.059612591,-0.06948562,0.035386477,-0.122355916,0.038067255,-0.018157236,0.033270456,-0.054959234,-0.060006991,-0.091426589,0.054480799,-0.025906984,0.009332088,0.007793556,-0.099136755,-0.065873615,-0.093239889,0.036017668,9.3e-05,0.014183873,0.026964631,-0.005235852,0.065037422,0.045540251,0.085147016,-0.004372029,-0.007704477,0.059038069,0.129959583,0.008391926,0.01842781,0.134304076,-0.007945807,0.040534724,0.019080766,0.093981415,0.046127528,-0.168192178,0.023312369,0.097324476
A01G025,-0.204504475,0.091537148,0.089608356,0.057979669,0.042989746,-0.284148812,-0.067661017,0.201523036,0.066290379,-0.133821666,0.140867144,0.008859246,0.114487968,0.060410541,-0.093498632,-0.028358689,-0.044018477,0.06158033,0.070239045,-0.099392869,0.080232784,0.200355068,-0.005403876,-0.034569472,-0.131527573,0.015516775,-0.085446112,-0.226644814,0.13910836,-0.069535077,0.05421304,-0.01461063,0.245242327,-0.168609902,-0.20674932,-0.088583335,0.000166664,0.119634517,0.053630523,-0.130119503,0.047910612,0.15767251,-0.079933062,0.274455726,-0.277859211,-0.06593208,-0.170740351,-0.060341828,0.228889018,-0.08995913,0.0804336,-0.006107619,0.062096749,0.012622046,-0.148473382,-0.192666605,-0.174859822,-0.035608675,-0.045473654,0.004253428,-0.062106658,-0.084093586,-0.077365257,0.205738217,0.17548947,-0.013483578,-0.164151117,0.135273054,0.201952219,0.089385361,0.107836969,-0.050320383,0.07120949,-0.009156764,0.046207875,-0.101963028,0.036776204,-0.06799753,0.030422885,-0.277216613,0.124324523,0.082284369,-0.063039146,0.016645197,-0.018215008,-0.073646635,-0.146714821,-0.092828676,-0.00036179,0.012186531,-0.010392469,-0.063753493,0.0560629,0.075197071,-0.139536515,-0.155999824,0.197673857,0.169266149,0.049946342,0.093483627,0.040492579,-0.130748928,-0.1472812,0.03280431,-0.016199209,-0.105740361,0.099193305,-0.207059383,-0.175868317,0.194692582,0.001523534,0.008499336,0.26205194,-0.015040365,-0.084393188,0.079281077,-0.108837716,0.16206941,-0.034069244,0.123730339,0.010989305,0.119582012,-0.156476513,-0.0163149,0.054144401,0.031241979,0.021802612,0.072245963,0.135194659,0.110372722,-0.027227381,-0.102162927,0.343683749,-0.070785247,0.038068909,0.208134577,-0.126238897,-0.014597909,0.06051435,-0.199916109,0.131367415,-0.067347594,-0.138205022,0.081293158,-0.123457491,-0.089953177,0.103202,0.027294021,0.014432612,0.147294044,-0.193243548,0.183679625,-0.038348217,-0.057028957,0.00192429,-0.111790918,0.046537511,-0.178872719,0.019177467,-0.09482307,-0.08711575,0.039656665,-0.159387872,0.044917122,-0.016145827,0.019933343,-0.045826439,-0.091914311,-0.144078627,0.072607786,-0.013813822,0.017490033,0.020595146,-0.138805136,-0.077113457,-0.114752322,0.060583241,-0.007307447,0.000503177,0.053780023,-0.014590934,0.071292706,0.076955698,0.136492953,-0.000735371,-0.005205118,0.083347201,0.194413632,0.001821042,0.009967175,0.182761952,-0.027764209,0.061178513,0.022117844,0.141693875,0.053536907,-0.258711845,0.02930392,0.130324572
A01J005,-0.170148343,0.075755112,0.073904142,0.046967872,0.041026402,-0.2324,-0.050907489,0.154577702,0.057012316,-0.113136277,0.115229979,-0.009369341,0.10183201,0.045138016,-0.065560639,-0.030035382,-0.045786601,0.046552811,0.064448595,-0.07384079,0.07208132,0.16074492,0.001433008,-0.025231898,-0.109004349,0.032386329,-0.071552381,-0.188653708,0.115708627,-0.051994342,0.039339248,-0.014090391,0.197290689,-0.15572767,-0.168078408,-0.083976351,-0.006488286,0.102961168,0.036570806,-0.108028531,0.031310529,0.137934759,-0.066585779,0.217475891,-0.220038056,-0.045128323,-0.133914217,-0.065184876,0.185105518,-0.071391985,0.065854527,-0.015461098,0.049801149,0.024339775,-0.133041769,-0.163741946,-0.147776291,-0.026347026,-0.040259309,-0.007435077,-0.050209317,-0.06916675,-0.04987751,0.163254336,0.140104234,-0.000207978,-0.137485281,0.11163646,0.161615595,0.068943761,0.100228742,-0.05134039,0.051148638,0.002761246,0.039149817,-0.090967722,0.029394122,-0.053176876,0.013596959,-0.235019431,0.111383162,0.055536397,-0.053844832,0.017988058,0.003150869,-0.066258229,-0.121440001,-0.061488707,0.002165801,0.011369619,-0.005570588,-0.054125115,0.056013133,0.058323756,-0.114291988,-0.127915159,0.169195205,0.131584466,0.034266975,0.088216379,0.026308594,-0.107181117,-0.109571107,0.021666141,-0.011644869,-0.07722991,0.077218913,-0.176430896,-0.134987891,0.152514413,0.009424786,0.012777482,0.217383906,-0.008394878,-0.06850221,0.055231933,-0.09231317,0.126175687,-0.047359698,0.092273057,0.009059182,0.091017991,-0.121169813,-0.005710494,0.046668064,0.031662367,0.019423856,0.048801094,0.094000503,0.088518992,-0.020026049,-0.076254584,0.289461881,-0.0565199,0.03026329,0.161601216,-0.105288476,-0.00693411,0.052201789,-0.163489804,0.125002727,-0.044770345,-0.106273569,0.05089584,-0.089702003,-0.071442053,0.090735599,0.022380469,0.019708667,0.108068675,-0.155476227,0.146667793,-0.042687193,-0.037166316,-0.010539636,-0.092850983,0.042572796,-0.141645163,0.019821262,-0.069654681,-0.080105931,0.035473894,-0.137995958,0.037925299,-0.011633093,0.022287823,-0.035591103,-0.062921055,-0.106689692,0.066098027,-0.028938713,0.015699465,0.022868564,-0.11712385,-0.065999851,-0.096264556,0.044296823,-0.00539988,0.006265297,0.036843803,-0.002671799,0.074249126,0.065432109,0.109396495,-0.000965391,-0.0156736,0.072074026,0.154148862,0.004692102,0.006970562,0.151264727,-0.028230209,0.061614517,0.025224987,0.119317435,0.047534891,-0.199367449,0.028378533,0.108990386
A01K001,-0.127680421,0.06436637,0.055393878,0.040957831,0.039900277,-0.188599482,-0.041365542,0.123279072,0.041981895,-0.088290848,0.084290914,0.00467845,0.082493037,0.035951331,-0.05522266,-0.015712222,-0.035219319,0.040041242,0.046903148,-0.055163425,0.060851805,0.119859338,0.000583722,-0.022704853,-0.088406414,0.021909703,-0.062049929,-0.148806751,0.091729671,-0.047100503,0.03118537,-0.004994642,0.161288813,-0.118310943,-0.134591207,-0.065514229,0.004871474,0.070210762,0.038990907,-0.090952821,0.032958463,0.109344751,-0.046467528,0.175826877,-0.183002502,-0.049278345,-0.115265764,-0.04501342,0.156604066,-0.065272443,0.049960069,-0.00828084,0.048504219,0.010414096,-0.10683465,-0.127801135,-0.109418944,-0.015005212,-0.023033287,0.000568284,-0.046035275,-0.05404675,-0.048876248,0.131575823,0.110934578,0.000855997,-0.109131195,0.095045976,0.128471673,0.055415478,0.074180313,-0.039515354,0.042058703,0.001100528,0.028961448,-0.071094312,0.023968922,-0.036518157,0.013471108,-0.181619465,0.088511743,0.058413126,-0.047036402,0.018687695,-0.018381408,-0.049371935,-0.10558486,-0.058379967,0.002175485,0.01718347,0.003754692,-0.0482166,0.03642834,0.053111151,-0.090723954,-0.102141693,0.130098283,0.100953199,0.027655534,0.068339691,0.028089933,-0.080346406,-0.084047966,0.022266146,-0.002714555,-0.070297018,0.059697911,-0.135544538,-0.114977866,0.12000142,-0.000129052,0.008585026,0.16797027,-0.011339795,-0.061091982,0.049235866,-0.072538339,0.102858216,-0.02906424,0.079770125,0.012616448,0.08714547,-0.102089569,-0.007864825,0.042392124,0.029733671,0.014101272,0.040442329,0.080269799,0.068069272,-0.024124013,-0.074129514,0.221520737,-0.046726499,0.01939312,0.125698149,-0.087561309,-0.009458681,0.043899674,-0.136815831,0.09874358,-0.032987326,-0.082825512,0.051000748,-0.075857535,-0.071545027,0.071532264,0.020833707,0.007007122,0.086863264,-0.128967583,0.121110231,-0.029578036,-0.027076686,-0.004940323,-0.072181292,0.026924731,-0.122406594,0.022926675,-0.052022755,-0.05427799,0.030452583,-0.111974023,0.027832061,-0.015196401,0.023645865,-0.028752079,-0.050732095,-0.091043569,0.051071513,-0.012429744,0.009852328,0.009172103,-0.08328405,-0.053919833,-0.072899126,0.034085587,-0.010317742,-0.001020886,0.028934144,-0.011711981,0.055618595,0.052060708,0.082611986,-0.0044852,-0.013813187,0.058106553,0.126878813,0.011491765,0.00859194,0.12095876,-0.008532169,0.046436913,0.020397326,0.094544552,0.035390668,-0.173037842,0.019389713,0.085183837
A01K005,-0.19287938,0.0889041,0.08757878,0.05031453,0.04349845,-0.26197827,-0.05068436,0.16555208,0.06079772,-0.12335403,0.12538089,-0.00263513,0.10507429,0.04873164,-0.07773494,-0.03529994,-0.04223615,0.06303392,0.06474444,-0.0831804,0.08389874,0.17673017,0.00464171,-0.03640152,-0.12221383,0.03530399,-0.08991256,-0.21186887,0.12745951,-0.06416937,0.04775568,-0.02478856,0.22610624,-0.17751531,-0.1892006,-0.08794934,-0.00640543,0.10837866,0.03849636,-0.12135039,0.04265102,0.15399598,-0.07283617,0.25420466,-0.2508832,-0.07249167,-0.16100581,-0.07157446,0.20887427,-0.07860024,0.07758932,-0.00719661,0.06981827,0.02486557,-0.14607304,-0.17919911,-0.16715716,-0.02153905,-0.05157116,-0.01714307,-0.05378845,-0.07011907,-0.0554189,0.19215573,0.16564292,0.00571807,-0.14696966,0.12193877,0.1859804,0.08145633,0.10828014,-0.04458027,0.06169322,-0.00567692,0.03734235,-0.1078779,0.02295614,-0.05663925,0.0214081,-0.25901395,0.13082136,0.06885293,-0.06936265,0.01514857,-0.02190368,-0.07513615,-0.14445192,-0.065208,0.00658511,0.01510666,-0.00168649,-0.05117537,0.07017557,0.06542936,-0.13826498,-0.13814652,0.18782243,0.14575036,0.04108842,0.10407133,0.03334277,-0.12007813,-0.12610736,0.01811619,-0.01717213,-0.08611458,0.08356591,-0.19304687,-0.1485433,0.17730781,0.01066483,0.0003584,0.24009249,-0.02021261,-0.079671,0.07539045,-0.10290955,0.14970303,-0.04699546,0.09983316,0.01860482,0.11064219,-0.14393495,-0.01506524,0.05101228,0.02825691,0.01337472,0.06271188,0.10962233,0.09589186,-0.03153614,-0.09694881,0.326296,-0.06835639,0.03824898,0.19333626,-0.12213096,-0.01463686,0.05605941,-0.19144727,0.13474,-0.04744479,-0.10790726,0.05892874,-0.10280241,-0.07906906,0.09251765,0.03056995,0.01762867,0.11930647,-0.18559375,0.17397381,-0.05656928,-0.03694826,-0.00220377,-0.11452634,0.04785955,-0.16323541,0.02176783,-0.08136033,-0.08530219,0.040232,-0.1546228,0.05121149,-0.01779036,0.02909507,-0.04983966,-0.07749481,-0.1207214,0.07533251,-0.01550756,0.02211154,0.01381543,-0.12718508,-0.0818029,-0.10043367,0.05215834,-0.0245294,0.00769181,0.040578,0.00038457,0.07902974,0.07777908,0.12529224,-0.00097677,-0.01712167,0.07902683,0.16864556,0.01157992,0.0108107,0.17308047,-0.01881805,0.06071675,0.02789253,0.13044095,0.05660376,-0.2270766,0.02788016,0.12892091
A01K011,-0.16505228,0.079301588,0.068513997,0.044743151,0.040164206,-0.223776475,-0.045685567,0.146549389,0.059453476,-0.108388893,0.10546831,-0.001106539,0.099541262,0.046779618,-0.06141863,-0.032039106,-0.039664198,0.051001754,0.065841325,-0.071619451,0.073071271,0.151464671,-0.000159011,-0.030048963,-0.106206469,0.030873749,-0.077541024,-0.180611551,0.115693793,-0.060952298,0.031521291,-0.014118193,0.19151257,-0.146219879,-0.162551224,-0.082202636,0.00369459,0.088958524,0.039255373,-0.10034477,0.041870751,0.127159253,-0.066227235,0.214827716,-0.223656371,-0.046889849,-0.14333114,-0.056070417,0.188472643,-0.072207958,0.066621736,-0.006476894,0.05829481,0.009591222,-0.126738921,-0.149020091,-0.148630992,-0.023054201,-0.030538451,-0.007569042,-0.050825745,-0.069158383,-0.060353089,0.158827513,0.139712945,0.001470268,-0.127698436,0.111554839,0.161252439,0.067173056,0.087810017,-0.048663821,0.055907823,0.002390757,0.035611928,-0.089741826,0.027996818,-0.046340324,0.012194187,-0.22806263,0.11442554,0.063370146,-0.055829078,0.022980832,-0.017097993,-0.053528003,-0.127343804,-0.06974557,0.00845064,0.008780458,0.000343405,-0.052937981,0.041940734,0.056559119,-0.110920303,-0.130455762,0.163761497,0.124540851,0.029824955,0.081390128,0.027249906,-0.097241409,-0.115387879,0.028043984,-0.012823976,-0.082832791,0.07603658,-0.168780133,-0.133153394,0.147625178,0.000114271,0.005065328,0.204752833,-0.013227631,-0.076859877,0.054421034,-0.084302373,0.129753038,-0.038376566,0.087956518,0.014917833,0.100079067,-0.123562396,-0.01667355,0.044578504,0.029528955,0.013551429,0.054855719,0.101475075,0.092774816,-0.026263004,-0.087708414,0.273171306,-0.056690395,0.028204994,0.16862683,-0.104854077,-0.016367683,0.051244445,-0.16782397,0.116805516,-0.041233067,-0.10454049,0.054537091,-0.094755761,-0.074575692,0.082192883,0.026450103,0.006378923,0.104670413,-0.152003944,0.146619514,-0.035819791,-0.034229849,-0.00818377,-0.098345161,0.039636485,-0.143636778,0.026613098,-0.069106311,-0.077924438,0.031659085,-0.129958704,0.046958607,-0.004658116,0.01872493,-0.036484767,-0.068043999,-0.111117043,0.062196828,-0.028624063,0.01369387,0.024724316,-0.115413912,-0.067221627,-0.092982315,0.040890914,-0.003704118,-0.00263229,0.034769159,-0.001110168,0.0651123,0.06221389,0.10793671,0.007317468,-0.010022696,0.060716447,0.14488779,0.00130154,0.007594958,0.145183444,-0.017141266,0.056465592,0.023550553,0.1044043,0.041398212,-0.196987882,0.030480526,0.099988125
A01K023,-0.125123203,0.057601873,0.063306876,0.034679033,0.032583389,-0.179542884,-0.040808402,0.112943701,0.049244553,-0.08831618,0.088860817,0.003273328,0.07663168,0.043310426,-0.051452417,-0.023757551,-0.029453434,0.040701177,0.048196781,-0.056790736,0.055146147,0.118943848,0.003995824,-0.023302332,-0.090513736,0.02602216,-0.058362033,-0.144252181,0.088289991,-0.044561334,0.02617993,-0.011537943,0.15492025,-0.113455117,-0.129647076,-0.065221883,-0.004800639,0.071604967,0.033475183,-0.087166823,0.02458225,0.101765111,-0.048119474,0.17465435,-0.171732917,-0.036662035,-0.107623942,-0.041629795,0.140705496,-0.05742557,0.042085569,-0.015236837,0.044809125,0.007593962,-0.098014474,-0.121857837,-0.107997224,-0.023517206,-0.02328785,-0.013263815,-0.035941251,-0.047090262,-0.044141416,0.125066891,0.115917578,-0.007696522,-0.099164888,0.087863438,0.130157888,0.046910849,0.075601541,-0.038118061,0.045628816,-0.003348089,0.032314409,-0.071685091,0.012779241,-0.032422185,0.016212145,-0.169236138,0.089544274,0.048230797,-0.046485812,0.017354699,-0.012326083,-0.042171814,-0.095146857,-0.045341276,0.00010921,0.005237762,-0.000178182,-0.047200128,0.03228379,0.046415616,-0.089817241,-0.103892595,0.13328208,0.097771935,0.025303595,0.061424494,0.021563817,-0.080599964,-0.083035775,0.012259131,-0.011107082,-0.064125039,0.058695745,-0.135258511,-0.111737862,0.123342551,0.006118313,0.001099228,0.165841043,-0.009254529,-0.05652862,0.040784672,-0.071200758,0.09959951,-0.026913071,0.080443509,0.005787368,0.071868092,-0.094513238,-0.013537558,0.033095624,0.023203246,0.011663228,0.04182959,0.083064638,0.069039501,-0.018261641,-0.068406202,0.213537395,-0.049820814,0.024020826,0.13010332,-0.085557655,-0.011528838,0.045702636,-0.137582064,0.093477435,-0.03546254,-0.090815879,0.045788664,-0.072139673,-0.067245476,0.069302246,0.020278344,0.013862949,0.086064704,-0.125492498,0.120125212,-0.025119668,-0.027620863,-0.009176892,-0.07416305,0.037652981,-0.114948861,0.011395225,-0.059581868,-0.064258806,0.026141657,-0.099728562,0.035860751,-0.007823102,0.014548774,-0.027067067,-0.050613068,-0.086781479,0.050215326,-0.022404587,0.013892435,0.010637382,-0.091119759,-0.060722232,-0.076543242,0.031838834,-0.004349754,-0.003816726,0.031615775,-0.005049205,0.058536828,0.047938291,0.085190952,0.004283675,-0.004582023,0.05964534,0.118609011,0.007505408,0.014282717,0.123409241,-0.018702747,0.047299203,0.020369316,0.084110029,0.039449625,-0.161796302,0.019624842,0.087064162
A01K029,-0.10298929,0.04726169,0.05160639,0.02993313,0.02311961,-0.15050195,-0.02765585,0.09819067,0.04161663,-0.0751454,0.06893539,-0.00385515,0.06070201,0.03107964,-0.03999019,-0.02054708,-0.03115303,0.03151094,0.04559948,-0.04824275,0.04700495,0.10131381,0.0051165,-0.02140025,-0.06995612,0.02194539,-0.05442209,-0.12116157,0.07506186,-0.04372701,0.02711784,-0.01280044,0.13139923,-0.10367956,-0.10441676,-0.05782845,-0.0010088,0.0606824,0.03064142,-0.07203399,0.01818363,0.09015226,-0.04046895,0.14288223,-0.14601274,-0.03075054,-0.09489796,-0.03154716,0.11710477,-0.04650009,0.04528493,-0.00766463,0.03096437,0.00969626,-0.082454,-0.10203971,-0.09727765,-0.01398747,-0.02399439,-0.01044419,-0.03420267,-0.04365014,-0.03411036,0.10990895,0.09762226,0.000979,-0.08140268,0.07246445,0.10818431,0.04270738,0.06727996,-0.02638466,0.03257716,0.00377553,0.02361806,-0.05387455,0.02017834,-0.02949195,0.0107896,-0.14263777,0.07569683,0.047057,-0.0351744,0.01411284,-0.00362043,-0.03989352,-0.08226718,-0.04703132,0.00568236,0.00613898,0.00388777,-0.03697142,0.02555481,0.03772588,-0.07670265,-0.08352774,0.11236991,0.08669181,0.02807164,0.05425824,0.02023856,-0.06512613,-0.07500737,0.0181257,-0.00380429,-0.0498799,0.05399546,-0.11627634,-0.09156745,0.10137529,0.00134843,0.00763532,0.14342926,-0.00862995,-0.04360639,0.04138406,-0.05903214,0.08445273,-0.0248411,0.05776311,0.01015594,0.0593502,-0.08405607,-0.00704734,0.03388427,0.01570398,0.01390067,0.04101299,0.06961427,0.06166241,-0.02058106,-0.0551242,0.1841614,-0.04092057,0.02146968,0.11285824,-0.06433301,-0.00971391,0.04017953,-0.10760437,0.07281118,-0.02326463,-0.06434952,0.03958713,-0.065222,-0.05546171,0.05413132,0.01683744,0.00431582,0.06736293,-0.10699166,0.09462108,-0.01848109,-0.02669956,-0.00357365,-0.06292144,0.02537853,-0.09171415,0.00847424,-0.0492331,-0.05327714,0.02310009,-0.08390039,0.02767516,-0.00663253,0.01855097,-0.03097782,-0.04973288,-0.06900945,0.0405384,-0.01865314,0.01113555,0.00886027,-0.07104677,-0.04461534,-0.06306376,0.03374233,-0.00873765,-0.00064063,0.02603982,0.00190092,0.04626418,0.03909491,0.06858561,0.00331039,-0.00804526,0.04486201,0.09663522,-0.00048801,0.009571,0.09693889,-0.01258052,0.03877809,0.01777798,0.07359528,0.02912918,-0.1389562,0.01903513,0.06896462
A01K061,-0.18177503,0.08489139,0.08061054,0.04411468,0.04349466,-0.23899807,-0.05308147,0.16181222,0.05744473,-0.1149762,0.11021193,0.00634172,0.10513141,0.04419617,-0.06714026,-0.0276258,-0.04307728,0.05543054,0.06523222,-0.07291999,0.06961268,0.15687822,-0.01273,-0.0375338,-0.11632002,0.02714185,-0.07820276,-0.1883542,0.12720369,-0.04795818,0.04756674,-0.00837587,0.20865369,-0.14457579,-0.16893438,-0.07824843,0.00320152,0.10607478,0.05120391,-0.10789122,0.04610097,0.13548519,-0.06190876,0.23342773,-0.2351664,-0.0612621,-0.14901605,-0.0613639,0.20231047,-0.07618231,0.05264043,-0.01017861,0.05613342,0.00675932,-0.1331845,-0.15742467,-0.15358014,-0.03746354,-0.03771667,-0.00750457,-0.05303565,-0.07230178,-0.06464882,0.1806612,0.14696106,-0.0093484,-0.13418725,0.11311234,0.16393961,0.06770598,0.0938975,-0.06018798,0.04639334,-0.0082897,0.03215314,-0.0854362,0.0182955,-0.04576473,0.01359916,-0.22634807,0.11138195,0.06452418,-0.05642138,0.02086409,-0.02113817,-0.05381213,-0.14001982,-0.06979626,0.00481605,0.00715225,-0.00040382,-0.06639055,0.05619897,0.0670799,-0.12286443,-0.13327187,0.16658449,0.12633188,0.0321318,0.09642989,0.0275525,-0.10058293,-0.11427189,0.02267939,-0.00759139,-0.08201107,0.08469556,-0.17626518,-0.15623431,0.1650083,0.01367145,0.00776557,0.21663521,-0.01857509,-0.08137506,0.06952102,-0.09728435,0.14199507,-0.04096592,0.11005223,0.02250807,0.10440439,-0.13684863,-0.00087629,0.05146866,0.0327831,0.01004375,0.05817642,0.11124113,0.10158106,-0.02684971,-0.09595238,0.29372874,-0.06895452,0.02724456,0.17627703,-0.10909518,-0.01379924,0.04738642,-0.17547338,0.12816149,-0.0441291,-0.11677723,0.06331829,-0.10238474,-0.087789,0.09634402,0.03000738,0.01420772,0.11231757,-0.16786525,0.15121366,-0.04850251,-0.04367384,-0.01449253,-0.09770655,0.03857575,-0.14853652,0.03135586,-0.06750116,-0.06927448,0.03109623,-0.13924584,0.03584559,-0.01593612,0.02084446,-0.03644699,-0.064643,-0.11386954,0.06552082,-0.02255033,0.01296006,0.00986684,-0.1217001,-0.07343349,-0.09290368,0.04424593,-0.00364245,-0.00242869,0.04185788,-0.00579156,0.06938488,0.068413,0.10557108,-0.002612,-0.00888182,0.06465301,0.15772355,0.00689825,0.01290295,0.1485379,-0.02301373,0.05591514,0.02366706,0.1224724,0.0470679,-0.2211677,0.03242655,0.09993146
A01K063,-0.2064237,0.093926936,0.090130076,0.055039838,0.050337181,-0.268201858,-0.065397792,0.184278831,0.06549421,-0.13483417,0.132262364,-0.000857027,0.117913552,0.0535197,-0.07655105,-0.037318163,-0.050929532,0.062584184,0.079449028,-0.088198371,0.081522547,0.186870337,-0.005182383,-0.044767536,-0.136002123,0.026022699,-0.087478489,-0.219898567,0.133520842,-0.062038276,0.044396553,-0.018968562,0.242971867,-0.176719055,-0.198696122,-0.089750156,-0.002141356,0.121411644,0.053012066,-0.135934889,0.052998826,0.151305571,-0.07274951,0.261476368,-0.27422905,-0.072839938,-0.171144903,-0.069176152,0.223121047,-0.085693836,0.066443913,-0.005732623,0.06397368,0.006298182,-0.14884983,-0.181982681,-0.171568066,-0.036151037,-0.044942159,-0.014112121,-0.0669064,-0.090458453,-0.064983934,0.206904218,0.17087771,-0.004160052,-0.155823991,0.142390862,0.194908306,0.084763557,0.114604719,-0.059983842,0.056761667,-0.008990482,0.038418539,-0.09864796,0.032897502,-0.056560576,0.018531455,-0.271813154,0.134103507,0.078379475,-0.067386322,0.026069308,-0.023884255,-0.070843145,-0.152847484,-0.086331233,0.002911369,0.012534515,-0.008564363,-0.072773494,0.06057211,0.072495394,-0.143825725,-0.157035619,0.198800504,0.147759199,0.037319824,0.101279944,0.034055822,-0.116350219,-0.13578625,0.031764116,-0.007820693,-0.101102568,0.098635972,-0.202283219,-0.179213509,0.191661999,0.013799198,0.00030868,0.251548111,-0.024732446,-0.093138099,0.070823535,-0.113161281,0.151380762,-0.043775074,0.121234499,0.014554284,0.123164579,-0.155709967,-0.006945245,0.056357537,0.029868737,0.023083119,0.062420439,0.121911705,0.115844674,-0.033320177,-0.10354495,0.3377572,-0.084940709,0.032304991,0.204150617,-0.127363414,-0.012421972,0.063328341,-0.196370065,0.134756938,-0.059161633,-0.134607449,0.073524855,-0.115462653,-0.107307732,0.101196148,0.032380056,0.010876014,0.142292544,-0.201135814,0.177787706,-0.051048525,-0.054136861,-0.012030519,-0.107372366,0.044344764,-0.177150667,0.031120848,-0.078939237,-0.089558385,0.044106007,-0.156195074,0.046927214,-0.023256002,0.022166153,-0.051508427,-0.086011089,-0.137498125,0.067417428,-0.02553151,0.018455615,0.013384629,-0.137994111,-0.084481001,-0.099754393,0.05077932,-0.014194878,-0.010227147,0.054105844,-0.000127461,0.081282489,0.07527554,0.12998952,-0.005235018,-0.009099892,0.080465689,0.173509419,0.008918509,0.015006563,0.17529358,-0.015187487,0.061216384,0.019054739,0.130736664,0.052229121,-0.246662185,0.035596702,0.133266479
A01M001,-0.146588713,0.069843173,0.0633213,0.031615287,0.032576438,-0.206497759,-0.045467053,0.132331312,0.051009338,-0.099327952,0.092590384,2.21e-06,0.085567147,0.042546935,-0.067807004,-0.028503967,-0.038285863,0.044340413,0.051734828,-0.063123457,0.059306651,0.142945796,-0.001357641,-0.03434255,-0.106516048,0.026039464,-0.073950097,-0.161766157,0.100677453,-0.052172806,0.036267478,-0.012468543,0.173403412,-0.129377648,-0.142925382,-0.070264041,-0.006552541,0.090189293,0.034375891,-0.095241733,0.031315222,0.117776655,-0.057575047,0.198929906,-0.205563352,-0.05111856,-0.117180221,-0.040736638,0.1652762,-0.069772705,0.051664759,-0.011682876,0.054401755,0.009966658,-0.111069746,-0.141087458,-0.126092926,-0.017318819,-0.029691655,-0.010495164,-0.044143144,-0.059743598,-0.054240871,0.141157582,0.129107296,-0.001664342,-0.110593855,0.103771284,0.144589797,0.053454958,0.080503479,-0.045322131,0.055979032,0.000105819,0.032354668,-0.072050832,0.016049886,-0.042922743,0.018615346,-0.199013114,0.101807766,0.058261678,-0.044624098,0.019228423,-0.014285655,-0.048326127,-0.117711939,-0.055366654,-0.00409105,0.008539037,0.001515662,-0.044891778,0.043786913,0.053691879,-0.098505378,-0.113592952,0.151491553,0.110716462,0.030338517,0.073499441,0.025499027,-0.090709761,-0.096891925,0.026208276,-0.005394557,-0.072958119,0.075857475,-0.144878477,-0.126703858,0.13719283,0.0055056,0.009735996,0.191810846,-0.015146472,-0.063802399,0.052530367,-0.079671331,0.105548583,-0.026361667,0.083783202,0.011175087,0.087829173,-0.115163863,-0.006077672,0.048854224,0.022511523,0.017876418,0.051775366,0.093708366,0.080663659,-0.023887409,-0.082081273,0.245629475,-0.058017883,0.019652871,0.148120835,-0.091383711,-0.01092471,0.053672258,-0.14987874,0.10195858,-0.047300957,-0.099179827,0.051684495,-0.086554915,-0.076524951,0.083154917,0.021077188,0.005267071,0.099159725,-0.144539207,0.129371315,-0.032525607,-0.027574809,0.001021617,-0.080214568,0.039986514,-0.130175978,0.011224085,-0.06460651,-0.069577605,0.025187057,-0.111566715,0.039551716,-0.010227204,0.019500867,-0.036132127,-0.057461713,-0.096978396,0.056618426,-0.018608958,0.004903911,0.022560254,-0.095725387,-0.065757319,-0.0798968,0.047201157,-0.007962489,0.001989877,0.034406956,0.004843738,0.057458609,0.048940748,0.09362939,0.003840162,-0.014922057,0.065423206,0.133631125,0.001162682,0.006025085,0.128483251,-0.016247748,0.050032638,0.022898875,0.09128084,0.046027403,-0.18013902,0.021552166,0.100461893
A01M007,-0.1557917,0.07796308,0.07923001,0.03808893,0.0346541,-0.223302,-0.04488655,0.14804575,0.05597226,-0.10119308,0.10720211,-0.00358892,0.09079543,0.04939588,-0.07216459,-0.02303323,-0.0373599,0.04652463,0.06937109,-0.06573395,0.07062361,0.15338589,0.00388254,-0.02850973,-0.10488104,0.03336786,-0.0878019,-0.18678306,0.11096873,-0.06551065,0.03066171,-0.02272375,0.1911489,-0.14969441,-0.15748264,-0.07895773,-0.01239263,0.0906191,0.04364097,-0.10492048,0.04215381,0.13080768,-0.06311079,0.22103041,-0.22167939,-0.04243728,-0.13278884,-0.04911599,0.17808314,-0.07484441,0.06050744,-0.01531267,0.05152852,0.01099757,-0.12034686,-0.15446658,-0.15452173,-0.01196611,-0.03179757,-0.01359901,-0.05155258,-0.06233712,-0.05154098,0.15337376,0.13629971,-0.00184499,-0.12666732,0.1138548,0.1586117,0.05979831,0.09422122,-0.03759276,0.05826803,-0.00221965,0.04013278,-0.09204002,0.03084623,-0.0560003,0.02655909,-0.21638846,0.11698889,0.05952901,-0.06171406,0.02654607,0.00350951,-0.06118485,-0.12337751,-0.0646867,0.00718976,0.01404693,-0.00306201,-0.05742231,0.03379774,0.04951168,-0.10590734,-0.129296,0.16982898,0.12972784,0.0474641,0.07397509,0.02384979,-0.1033143,-0.11961444,0.02846344,-0.00102339,-0.08647553,0.07365092,-0.16466135,-0.13740751,0.14802295,0.00473135,0.00284931,0.21899267,-0.00309136,-0.0609738,0.05228121,-0.07754155,0.10844997,-0.03393671,0.09843055,0.0137992,0.0931676,-0.1140151,-0.0140889,0.04744034,0.02770313,0.02859605,0.04784452,0.09949283,0.08984517,-0.03091807,-0.09348653,0.27424026,-0.04942667,0.03106593,0.16473617,-0.09040106,-0.01393688,0.0558024,-0.17589955,0.10839963,-0.04338479,-0.1041264,0.05418891,-0.097021,-0.06481847,0.08982513,0.02945467,0.00878886,0.10733688,-0.16294311,0.14447428,-0.01936182,-0.04224026,-0.00223929,-0.09475651,0.03626984,-0.1370441,0.0217534,-0.07507832,-0.06778907,0.03942337,-0.12668318,0.05064898,-0.0193443,0.03674601,-0.04702618,-0.06978111,-0.11501241,0.06987081,-0.02299831,0.01716186,0.01314733,-0.1023396,-0.08242793,-0.09443264,0.04320876,-0.00947178,0.01594942,0.04099784,-0.01180631,0.0635177,0.05049905,0.10522484,0.00111412,-0.01392985,0.0716926,0.14264533,-0.00596468,0.02250938,0.15340103,-0.01394368,0.05124437,0.02258831,0.10143814,0.05484582,-0.19447553,0.02413045,0.1096419
A01M021,-0.19992098,0.09079619,0.08941887,0.05744342,0.05615515,-0.29815534,-0.05292104,0.19304714,0.07961351,-0.12657152,0.13576522,0.00770671,0.1258994,0.07218124,-0.07816469,-0.04884775,-0.04878203,0.06971557,0.08068508,-0.07968473,0.08312587,0.19970657,0.00403151,-0.04059853,-0.14853571,0.03888046,-0.0919423,-0.23073575,0.15544237,-0.06411659,0.05142353,-0.00876749,0.2407033,-0.1860276,-0.19807146,-0.08867339,0.00185971,0.12427816,0.04776867,-0.14576304,0.04607457,0.16827036,-0.07619905,0.27912018,-0.2861684,-0.07004303,-0.17695516,-0.06307218,0.23212802,-0.09549758,0.07299366,-0.01779018,0.06717504,0.02501763,-0.15586841,-0.19612856,-0.17254066,-0.04056702,-0.05176426,-0.02289259,-0.06261081,-0.07625457,-0.0809628,0.2125714,0.18231432,-0.00244786,-0.15616249,0.13488427,0.21066797,0.07711831,0.11755821,-0.06471748,0.07069416,-0.00043994,0.0401184,-0.10870625,0.0198532,-0.04821002,0.02139702,-0.28704166,0.134131,0.07340918,-0.06623866,0.02167276,-0.02052189,-0.06910822,-0.15564264,-0.08607113,-0.00447741,0.01946953,0.00390523,-0.07082442,0.05436337,0.08548617,-0.14382227,-0.15794697,0.20383285,0.15473627,0.05156151,0.11246032,0.03810525,-0.12818617,-0.13424742,0.02986667,-0.01821084,-0.10252951,0.09930166,-0.21448098,-0.17580903,0.19379403,0.0027057,0.01496417,0.27436233,-0.02044626,-0.09765346,0.08251436,-0.11911502,0.16563708,-0.0471063,0.11071331,0.02356827,0.11488192,-0.1573392,-0.01620614,0.06364744,0.03871735,0.03018356,0.07134652,0.13346012,0.10392668,-0.0398819,-0.10343406,0.3541644,-0.08238402,0.03501207,0.20512061,-0.13083342,-0.01925414,0.07685732,-0.22594076,0.15481989,-0.05889731,-0.1412302,0.06774427,-0.11825472,-0.09977926,0.11143091,0.03717082,0.01676728,0.12934272,-0.19488999,0.18991303,-0.04765949,-0.0350027,-0.0158619,-0.11458338,0.04714098,-0.17822488,0.031465,-0.0890322,-0.0904307,0.04211736,-0.1744411,0.0530128,-0.01616232,0.02737654,-0.04986523,-0.08471535,-0.13405803,0.08715447,-0.0311304,0.00739161,0.02280084,-0.138847,-0.08957309,-0.11470835,0.06072816,-0.01876534,0.00173207,0.04450485,-0.0168588,0.08832089,0.08367906,0.12726717,-0.00245319,-0.01266117,0.09451771,0.18956879,0.00849203,0.01532662,0.18420851,-0.02504935,0.06247276,0.03278937,0.13686822,0.05175348,-0.255509,0.03955084,0.12914167
A01M031,-0.08426181,0.0436012,0.04104573,0.02095904,0.0183342,-0.1227677,-0.02576425,0.07877449,0.03410054,-0.05452273,0.06207531,0.00410612,0.0584966,0.02495522,-0.03487553,-0.01799881,-0.01659532,0.02501059,0.03794513,-0.03585624,0.04425649,0.08863454,-0.00081958,-0.01733961,-0.05813411,0.0121816,-0.04287719,-0.10444298,0.06511321,-0.02512799,0.0174289,-0.01198243,0.11059567,-0.07846647,-0.08493387,-0.04876979,-0.00463446,0.05201807,0.02724212,-0.06609097,0.01760734,0.0761403,-0.0379721,0.12028822,-0.12494905,-0.03021301,-0.07135451,-0.02556705,0.10409476,-0.03826545,0.02989621,-0.00440168,0.02353263,0.01002353,-0.07251193,-0.08429953,-0.0772394,-0.01651848,-0.01927928,-0.00377328,-0.03318642,-0.03480726,-0.02977984,0.08708607,0.08197409,0.00338387,-0.06799226,0.0628057,0.08794351,0.04149904,0.0512426,-0.02842426,0.02519467,-0.00242559,0.02385862,-0.04806616,0.01508416,-0.0193514,0.00564108,-0.12516105,0.05786468,0.03552268,-0.0326589,0.01503936,-0.00139406,-0.03129694,-0.06698805,-0.03730379,-0.00155264,0.00234757,0.00375878,-0.02704932,0.02588948,0.03582218,-0.06647874,-0.06780014,0.09120465,0.07382992,0.0179835,0.04649542,0.01230134,-0.05245176,-0.06458411,0.01006016,-0.00405381,-0.04758841,0.03911107,-0.08983809,-0.07838082,0.08457024,0.00875408,0.00113048,0.11649721,-0.00507624,-0.03658648,0.03525931,-0.04831943,0.0681182,-0.0234504,0.05394001,0.00587144,0.05531603,-0.06816781,-0.01143338,0.02733324,0.0186312,0.01089298,0.0263097,0.05703659,0.0505665,-0.01357185,-0.04467759,0.1512109,-0.03492403,0.01578784,0.09159563,-0.05808656,-0.00421507,0.03534891,-0.08690332,0.06279471,-0.02031791,-0.05561305,0.03178908,-0.05535148,-0.04725586,0.05067271,0.01125035,0.00468514,0.0576016,-0.08949725,0.08408421,-0.01706016,-0.02080121,-0.00111473,-0.05291741,0.02173464,-0.07775402,0.0119492,-0.03546315,-0.0400908,0.01908138,-0.07312503,0.02200963,-0.00296886,0.01888386,-0.02458219,-0.03761964,-0.05947186,0.03094016,-0.01007294,0.00473716,0.01210269,-0.06647708,-0.03913254,-0.04750152,0.02489176,-0.00098779,0.00490651,0.02224278,-0.00365115,0.03884366,0.03095985,0.06004507,0.00435882,-0.00890169,0.03309337,0.08098432,0.00658154,0.01098646,0.08041897,-0.01283499,0.03113667,0.0167787,0.06223296,0.02080441,-0.10963739,0.02045866,0.05403385
A23J003,-0.111067317,0.058019951,0.051482718,0.032942865,0.023365513,-0.163771257,-0.033725012,0.103490025,0.037666313,-0.073425509,0.082218342,-0.000293682,0.068595193,0.038621992,-0.044207092,-0.017071832,-0.025350424,0.034895312,0.042493764,-0.056244236,0.046023309,0.11363928,-0.000658046,-0.022499222,-0.086762026,0.016043622,-0.052337691,-0.132841602,0.082504079,-0.039793398,0.030288013,-0.011820382,0.145283595,-0.103533015,-0.117058054,-0.055325378,0.002607041,0.067056365,0.031312402,-0.079266608,0.020633413,0.098266922,-0.047535311,0.157434136,-0.164836347,-0.037233066,-0.09269309,-0.040793154,0.134964973,-0.051146202,0.039403882,-0.008258908,0.036060594,0.011544046,-0.095022775,-0.108213678,-0.101225093,-0.022239113,-0.028467642,-0.008053822,-0.035127334,-0.048376668,-0.045975123,0.114983514,0.107355714,-0.004663459,-0.096075587,0.081706576,0.114491351,0.048931066,0.066297159,-0.039695703,0.040884595,-0.002444083,0.032417059,-0.059213858,0.018311366,-0.035725899,0.016114853,-0.157510757,0.080249019,0.051949002,-0.037001077,0.010142998,-0.011534317,-0.041790247,-0.091457099,-0.041413195,-0.001872037,0.009341532,0.004176801,-0.041676719,0.027988864,0.038721737,-0.078777477,-0.094378635,0.11829333,0.090602122,0.029394783,0.056141056,0.021637386,-0.075911373,-0.081482947,0.013747755,-0.000337054,-0.059260223,0.061149541,-0.119811714,-0.096846253,0.109205127,0.008066951,-0.000198018,0.154374912,-0.011506627,-0.053483129,0.046913099,-0.063261502,0.090578377,-0.020991871,0.065944046,0.007746215,0.06982477,-0.096815333,-0.004267769,0.038559847,0.027232101,0.0149894,0.03480114,0.074108221,0.05637414,-0.019727377,-0.063532844,0.20011811,-0.043285433,0.018566264,0.11343091,-0.074965142,-0.011429058,0.034689233,-0.126078278,0.082998604,-0.037411746,-0.075973705,0.037759818,-0.063475609,-0.057016816,0.064265959,0.020883994,0.005810754,0.083005495,-0.11405357,0.103114054,-0.02247631,-0.022910774,0.000212372,-0.064480677,0.034425512,-0.109600693,0.015638428,-0.05280095,-0.050915446,0.020407757,-0.094178401,0.036349781,-0.005715253,0.014514699,-0.033545863,-0.047685973,-0.079652146,0.043318462,-0.012867309,0.005770309,0.010938698,-0.083566077,-0.05333361,-0.066268385,0.030307157,-0.00227852,0.00157429,0.032024246,-0.003172558,0.053625714,0.037566174,0.073243611,0.000825343,-0.008933845,0.046633307,0.106903523,0.006306143,0.006581848,0.104322203,-0.007793337,0.041997682,0.015319514,0.085576721,0.033346176,-0.143899828,0.02523751,0.071710624
A23L033,-0.16866572,0.08573706,0.08728135,0.03874321,0.04157162,-0.25157568,-0.04998622,0.1644129,0.06455758,-0.12476662,0.10936474,-0.00116007,0.10143762,0.04558951,-0.07203303,-0.02679333,-0.03500821,0.05638308,0.07272952,-0.07798617,0.06609859,0.17216124,-0.00063075,-0.03492074,-0.12861115,0.03362539,-0.08217832,-0.19561827,0.1329588,-0.0653552,0.04205532,-0.01609007,0.21705483,-0.1672187,-0.1786598,-0.09975179,0.00064158,0.11211965,0.04969599,-0.11021054,0.03811183,0.14884584,-0.06866141,0.25310123,-0.24604426,-0.06630704,-0.14941947,-0.05782883,0.19311535,-0.0816724,0.064395,-0.00747797,0.0599617,0.01119134,-0.13937195,-0.16631413,-0.15119644,-0.02528185,-0.02566056,-0.00908858,-0.06556422,-0.06184942,-0.05143756,0.18030418,0.16053921,-0.00374067,-0.13168705,0.12384488,0.17530824,0.07295173,0.10722159,-0.04620476,0.05900889,-0.00407278,0.03827875,-0.10314969,0.02023312,-0.04265555,0.0237344,-0.2317604,0.11880209,0.0623764,-0.06233283,0.01571861,-0.01981662,-0.06559968,-0.13791849,-0.07127447,-0.0048647,0.01154377,0.00200707,-0.06930616,0.05437724,0.07406323,-0.11846437,-0.13224295,0.1775602,0.13078044,0.03912089,0.09464954,0.04301194,-0.10453559,-0.1257812,0.01972636,-0.00825656,-0.09333081,0.08824258,-0.17971885,-0.1494856,0.1693525,0.01138347,0.010398,0.2289077,-0.00529806,-0.08998719,0.06310962,-0.10628793,0.12852563,-0.04440015,0.1021143,0.01425686,0.10070099,-0.13277985,-0.00788411,0.05272507,0.03561801,0.01715507,0.07075969,0.10784896,0.09536226,-0.02735903,-0.08866132,0.30342683,-0.06826608,0.03638253,0.17988624,-0.11229397,-0.01271376,0.05292512,-0.18649586,0.12286773,-0.04651533,-0.12620999,0.06713218,-0.10117099,-0.08078688,0.10114487,0.03133674,0.01696951,0.13055037,-0.17307249,0.16521238,-0.04170543,-0.04813302,0.00246098,-0.09610321,0.04893229,-0.16836682,0.0288928,-0.0822729,-0.08793979,0.03436499,-0.14544085,0.05442075,-0.01534336,0.0272557,-0.04697729,-0.07149233,-0.11409831,0.06913844,-0.02199912,0.01124328,0.01687625,-0.11674431,-0.07311037,-0.09021963,0.04941009,-0.01226071,0.00830743,0.04524744,-0.01198298,0.07938042,0.06626175,0.1210857,0.00400158,-0.00433269,0.07402751,0.1497049,0.01503841,0.0169712,0.1706473,-0.02278464,0.05478166,0.02616025,0.12065206,0.05723371,-0.22924191,0.04258224,0.11776257
A41B001,-0.06014032,0.0292587,0.02514409,0.01661514,0.0101946,-0.0839752,-0.01374653,0.05133532,0.02362569,-0.03609233,0.04263088,-0.00537408,0.03225037,0.02074027,-0.02935313,-0.01160071,-0.01884779,0.01857335,0.02562902,-0.02571026,0.02183928,0.05446962,-0.00202513,-0.00810164,-0.0383023,0.0155372,-0.03160643,-0.06753484,0.04579993,-0.02180575,0.01548124,-0.00990509,0.07650831,-0.05067609,-0.05997548,-0.03056084,0.00144693,0.03561695,0.01118139,-0.03817402,0.00970639,0.04824045,-0.01896469,0.08490709,-0.08093457,-0.02433516,-0.04912881,-0.01964827,0.06958939,-0.02885041,0.02584065,-0.0009876,0.01852525,0.00267773,-0.04410275,-0.05725469,-0.05630763,-0.00716274,-0.00901345,-0.00902657,-0.01561909,-0.01940742,-0.02242189,0.06227759,0.05046001,-0.00199523,-0.04684838,0.03759696,0.06327341,0.02630541,0.03742065,-0.01941704,0.02508618,0.00216006,0.01208244,-0.03427498,0.00461414,-0.02077833,0.00835837,-0.08166347,0.03957535,0.02193252,-0.01596924,0.00359195,-0.00360846,-0.02341734,-0.05169668,-0.02042581,-0.00174029,0.00214476,0.00241547,-0.02072401,0.01550746,0.02293537,-0.03786835,-0.05147064,0.05520874,0.04788209,0.01885611,0.02538696,0.00587291,-0.04256379,-0.03750443,0.00593249,0.00026394,-0.02609081,0.03041602,-0.06260314,-0.04737798,0.05110477,0.00419218,0.0051614,0.08176299,-0.00815952,-0.02283327,0.02085908,-0.03381938,0.0465716,-0.01127007,0.03976969,0.00061969,0.03581613,-0.04979028,-0.00765438,0.01632435,0.00877762,0.01242248,0.01736835,0.04158668,0.02774808,-0.01001844,-0.03663243,0.09912113,-0.02149779,0.01126419,0.05519685,-0.03955005,-0.00165058,0.02445228,-0.05917484,0.04399955,-0.01540726,-0.04379316,0.01751802,-0.03147041,-0.02493086,0.02956327,0.01069823,0.00896082,0.037411,-0.05892383,0.05215432,-0.01198828,-0.01734845,-0.00162803,-0.03741792,0.01748021,-0.05215463,0.01091645,-0.02444169,-0.02389317,0.01411062,-0.05113411,0.02009212,-0.00267007,0.00919307,-0.01822557,-0.01933941,-0.04264791,0.02353174,-0.00423685,0.00388384,0.00302429,-0.03896342,-0.03005055,-0.03378599,0.02131366,-0.00356721,0.00117694,0.01133025,-0.00068634,0.02722212,0.02005625,0.03578083,0.00375905,-0.00818209,0.02852295,0.05549311,0.00034252,0.00551911,0.05527395,-0.00840201,0.01731585,0.01044435,0.03784145,0.01658407,-0.07302181,0.01071563,0.03812252
A41D001,-0.11415905,0.05063968,0.05690091,0.03196353,0.02941891,-0.16272919,-0.03729888,0.11117265,0.04143924,-0.07911626,0.07997877,-0.0066078,0.07184688,0.02980057,-0.05480133,-0.02508517,-0.02877398,0.03977586,0.04638815,-0.05191438,0.05098262,0.10883825,0.00148707,-0.01964069,-0.07782324,0.02247809,-0.05659663,-0.127267,0.07835981,-0.03753716,0.02682655,-0.01407719,0.14205794,-0.10683735,-0.11437251,-0.05565955,-0.00578341,0.06575245,0.02572636,-0.08329706,0.03031361,0.09153518,-0.04341956,0.15237176,-0.16068333,-0.03538572,-0.09306055,-0.0342168,0.13013607,-0.05348646,0.03940853,-0.00895793,0.03295359,0.01433095,-0.09125134,-0.11101947,-0.10386118,-0.01484312,-0.03112245,-0.00386159,-0.04091842,-0.04176309,-0.03856982,0.11499009,0.1016039,0.0006292,-0.08759833,0.08735469,0.11678539,0.04604851,0.07068023,-0.03597668,0.03304448,-0.00823145,0.02008502,-0.05528136,0.01730623,-0.03219446,0.0147589,-0.15372546,0.08061314,0.05163144,-0.03817693,0.0138687,-0.01030388,-0.04043543,-0.08952006,-0.04357012,0.00055595,0.01227278,-0.00251157,-0.03966992,0.03592278,0.03894016,-0.07951899,-0.08997928,0.11394291,0.09627266,0.03079784,0.05498325,0.02516694,-0.07056636,-0.07773057,0.01747391,-0.0032965,-0.05688838,0.05288293,-0.1123241,-0.09901291,0.10798152,0.00649255,0.00449149,0.14674641,-0.00358657,-0.0505037,0.03849037,-0.06575465,0.0866937,-0.01948469,0.0695558,0.01404384,0.0728223,-0.09049899,-0.00878389,0.03768728,0.019887,0.00775531,0.0359628,0.070348,0.0570719,-0.02134884,-0.05815817,0.19368732,-0.03905637,0.01449513,0.11465547,-0.07314809,-0.00796179,0.03564977,-0.11443436,0.08073522,-0.03297203,-0.07491976,0.03770425,-0.06711785,-0.05074024,0.0579919,0.0197256,0.00692763,0.07528295,-0.11190742,0.10628526,-0.02661339,-0.02917546,-0.00169076,-0.06548633,0.02814574,-0.09925811,0.01020526,-0.05640574,-0.05579751,0.02080471,-0.09025124,0.03147618,-0.0093789,0.01920792,-0.02844279,-0.04551497,-0.07785126,0.04101032,-0.01033059,0.01215695,0.01357469,-0.07537503,-0.05315567,-0.0620746,0.03153425,-0.00389666,-0.00639903,0.03463795,-0.00807752,0.05013292,0.03423573,0.07425211,0.00328333,-0.00778643,0.04275687,0.10765038,0.00855044,0.01421004,0.10263326,-0.01695449,0.03337171,0.01552909,0.0813956,0.03278729,-0.14757034,0.02213965,0.07640183
A41D003,-0.19171232,0.09310139,0.09321908,0.05252647,0.04206095,-0.27536878,-0.06266752,0.18283398,0.06781365,-0.13221015,0.1331664,-0.00282073,0.1184066,0.0609186,-0.09440701,-0.04063668,-0.04468224,0.07274952,0.06867344,-0.08268184,0.08393807,0.18266933,0.00187966,-0.04062639,-0.13753738,0.03135872,-0.09673788,-0.22503538,0.1338785,-0.0713336,0.05427505,-0.01498593,0.24096563,-0.17908087,-0.19788438,-0.09144145,-0.00150307,0.10839231,0.05061379,-0.13410395,0.04765261,0.17133747,-0.07762197,0.27324793,-0.26508516,-0.06652349,-0.173068,-0.05642309,0.22661841,-0.09593084,0.07169251,-0.01782296,0.06488021,0.02541663,-0.14759205,-0.18333697,-0.17447132,-0.03407064,-0.05454165,-0.00636395,-0.06585042,-0.08523498,-0.07161164,0.21561746,0.17997605,-0.00555129,-0.15781228,0.1460583,0.19902618,0.07447748,0.11445679,-0.05915214,0.06272632,-0.00569082,0.03766077,-0.09614199,0.02829215,-0.05714657,0.03013433,-0.2736155,0.1368965,0.07977382,-0.07478558,0.02677669,-0.0234476,-0.070029,-0.1506713,-0.0781373,0.00589051,0.02308709,0.00144222,-0.07780448,0.05600026,0.07686523,-0.13691416,-0.1588289,0.19689058,0.16346599,0.04981371,0.0971889,0.03845971,-0.11962858,-0.13923255,0.03331948,-0.0095316,-0.09684801,0.10190458,-0.20211618,-0.17501822,0.19034196,0.0012891,0.00408546,0.26360804,-0.01031766,-0.09784524,0.06899773,-0.11122522,0.14842208,-0.03715794,0.11782885,0.0270064,0.11844189,-0.15565684,-0.0134165,0.06040214,0.03998598,0.01312419,0.05483741,0.1280216,0.10748048,-0.03043246,-0.11013588,0.33452538,-0.06962477,0.03503985,0.2010726,-0.12903269,-0.01041791,0.06662434,-0.20223178,0.14488997,-0.06670977,-0.13161565,0.06942531,-0.11247905,-0.08994301,0.11327682,0.03673788,0.01768376,0.1395908,-0.20583703,0.18079732,-0.04971684,-0.05550809,0.0004566,-0.11123616,0.0467354,-0.17491496,0.01411782,-0.09287761,-0.08955143,0.04611543,-0.14978573,0.04459759,-0.01577134,0.03351642,-0.04759745,-0.09097107,-0.13690962,0.07710062,-0.01821358,0.01749924,0.02697272,-0.1321815,-0.08139426,-0.09915007,0.06558953,-0.00907121,-0.00643134,0.05675671,-0.0098356,0.08985567,0.05884381,0.1312145,-0.00371882,-0.00989673,0.07644139,0.1895701,0.01793546,0.01288428,0.18476811,-0.02233696,0.06805906,0.02264307,0.13202722,0.06015761,-0.24864745,0.03534758,0.12260447
A41D027,-0.19066174,0.09615064,0.08605108,0.04959693,0.03946766,-0.27145147,-0.06644554,0.19178113,0.06618986,-0.13795637,0.12953818,0.00531627,0.12402301,0.06238891,-0.08514059,-0.02807787,-0.04045592,0.06893623,0.06719908,-0.08410311,0.07704499,0.18919508,-0.00792243,-0.03824429,-0.13940153,0.03181425,-0.09117759,-0.2268749,0.14157636,-0.06592336,0.04473855,-0.02118847,0.24568498,-0.16904093,-0.20364748,-0.08973591,0.00822211,0.12651925,0.05093367,-0.12892795,0.03967038,0.16204678,-0.07278155,0.27586833,-0.27279308,-0.06166641,-0.1662385,-0.06551825,0.23458065,-0.08541059,0.06189973,-0.00858896,0.07097054,0.02285196,-0.15839483,-0.18293902,-0.17440256,-0.03406025,-0.05116093,-0.00391696,-0.06477478,-0.08791072,-0.07461005,0.20602155,0.17318565,-0.00569967,-0.15337263,0.13195996,0.20319676,0.08582134,0.10703731,-0.05972089,0.06625436,-0.00767398,0.049208,-0.11072798,0.02591331,-0.06391641,0.01602783,-0.25836158,0.13578904,0.08403537,-0.06173422,0.0227848,-0.01933237,-0.07226384,-0.14675424,-0.08926806,0.00163823,0.02297082,-0.01062142,-0.0762981,0.05128774,0.07897165,-0.14605463,-0.15965007,0.19642115,0.15573728,0.05502484,0.10329901,0.04664286,-0.12175724,-0.13931872,0.01973121,-0.00344563,-0.10180124,0.10520727,-0.19962563,-0.17621341,0.19006288,0.00497913,0.00144609,0.2575199,-0.01623863,-0.09696413,0.06385748,-0.10650248,0.15349528,-0.04206042,0.11576488,0.01861007,0.12373397,-0.15714149,-0.00745681,0.05928683,0.0392107,0.02671487,0.06424623,0.1333986,0.10905229,-0.02257192,-0.10773861,0.33783227,-0.07746004,0.03773653,0.19872415,-0.12061537,-0.0140395,0.07009811,-0.20090224,0.13760474,-0.05382373,-0.13994534,0.07895137,-0.11632638,-0.08230634,0.11215664,0.02058353,0.01034746,0.13653958,-0.18760747,0.17626302,-0.03771376,-0.05062716,-0.00742257,-0.11815061,0.05152527,-0.17089382,0.02737847,-0.09739989,-0.0877512,0.04177494,-0.15790707,0.04760398,-0.01452113,0.02026721,-0.03333762,-0.07475663,-0.13562602,0.07739894,-0.02622017,0.00726937,0.0152364,-0.13391149,-0.08093204,-0.11189833,0.05725405,-0.00463993,-0.00707447,0.04997464,-0.00577407,0.08931653,0.07477092,0.12424704,-0.0027757,-0.01764938,0.07633337,0.17848366,0.01262601,0.01358228,0.18081717,-0.02897644,0.07062837,0.03156915,0.13215739,0.05479641,-0.25293455,0.03756934,0.13184619
A41H003,-0.18247311,0.08535888,0.08666719,0.04791292,0.04354138,-0.2685419,-0.04947829,0.16204447,0.07339016,-0.11703668,0.11057577,0.00463882,0.11412007,0.05792879,-0.07498698,-0.03676651,-0.04406733,0.05312268,0.0773325,-0.0824345,0.07033452,0.18494217,0.00316406,-0.04360002,-0.13336709,0.02317214,-0.08912378,-0.20844986,0.11981159,-0.0666369,0.04602028,-0.01541273,0.22297224,-0.16685551,-0.18046756,-0.08770529,0.00551223,0.11297728,0.04615874,-0.11666465,0.03969445,0.15655111,-0.06882308,0.25594166,-0.2574081,-0.05908948,-0.15898208,-0.05677323,0.20902026,-0.08425106,0.078042,-0.00917496,0.0626779,0.01955455,-0.14691731,-0.1794298,-0.16376355,-0.02885142,-0.03915684,-0.01060173,-0.06583742,-0.08049549,-0.06703544,0.18552566,0.16783889,-0.00272313,-0.1380413,0.11694548,0.18300104,0.07643361,0.10426289,-0.06014875,0.05796935,-0.00298792,0.0406167,-0.10146257,0.01697453,-0.04363006,0.01550604,-0.25411946,0.11938965,0.0632363,-0.06333413,0.02742327,-0.02084995,-0.07467089,-0.152122,-0.06754209,0.01279245,0.01033784,0.00550688,-0.06464903,0.05140449,0.07174887,-0.13184156,-0.14463161,0.1758058,0.14144826,0.04046565,0.09426687,0.0259047,-0.11438176,-0.12750077,0.02354671,-0.01331284,-0.09885468,0.08055592,-0.18641223,-0.15565805,0.16883545,0.00293286,0.00863505,0.2413702,-0.01856397,-0.08337934,0.07399159,-0.10895662,0.14617234,-0.03947913,0.10986461,0.01462611,0.11045613,-0.14064811,-0.01506324,0.05145374,0.03818804,0.02330623,0.05904671,0.11019285,0.09713341,-0.03463342,-0.1015211,0.31212005,-0.07809576,0.03646557,0.19397776,-0.12299564,-0.00417315,0.05759647,-0.19884104,0.12908155,-0.05646906,-0.1211421,0.07093694,-0.1058547,-0.09673665,0.10187706,0.02775743,0.01409169,0.12672783,-0.18348405,0.1704826,-0.04788038,-0.03905269,-0.00196307,-0.10939666,0.04325119,-0.16560806,0.02728784,-0.07544819,-0.08786226,0.03379069,-0.14903641,0.04546194,-0.01387807,0.02478022,-0.04300225,-0.06982218,-0.11586228,0.07069036,-0.03046601,0.00190831,0.01074681,-0.11585702,-0.0778283,-0.09096058,0.04649053,-0.0106285,-0.00817018,0.04980077,-0.01048624,0.08977009,0.06467428,0.1209759,-0.00337379,-0.00322188,0.07672668,0.16740285,0.00537096,0.0141293,0.16544378,-0.02608732,0.06055635,0.03087501,0.12020943,0.05450482,-0.23239416,0.02263299,0.11901701
A41H043,-0.10970403,0.04639043,0.05551965,0.03261734,0.02976732,-0.16105638,-0.03239738,0.10019789,0.03881128,-0.07678089,0.0765801,0.00198027,0.06448866,0.03454839,-0.04796787,-0.02282558,-0.03130644,0.03395993,0.04932209,-0.0574654,0.04456899,0.10975819,0.00360609,-0.02914248,-0.06969446,0.00945423,-0.04945248,-0.12491844,0.07730402,-0.03447023,0.02264969,-0.00878115,0.1392252,-0.09950828,-0.11738086,-0.05485965,-0.00436284,0.0709608,0.02738211,-0.07566561,0.02930296,0.09587412,-0.0452204,0.14992064,-0.14969668,-0.03674319,-0.09940317,-0.04195725,0.12846176,-0.05673249,0.04551743,-0.00968827,0.03536072,0.0135857,-0.08786002,-0.10969245,-0.10564016,-0.02139024,-0.02568976,-0.00421388,-0.03583591,-0.05035266,-0.03634155,0.11500055,0.09482665,-0.00390606,-0.0928928,0.07726409,0.11280999,0.04660728,0.0623147,-0.03809709,0.03393431,-0.00281958,0.02646697,-0.06187835,0.01334268,-0.03305538,0.00655755,-0.159515,0.0712158,0.04028928,-0.03894424,0.00552505,-0.00841502,-0.04111204,-0.08217837,-0.04043861,0.00061841,0.00794898,-0.00306389,-0.04100684,0.02871474,0.03787147,-0.0858511,-0.08725815,0.11114335,0.08972875,0.02524902,0.0620402,0.01415916,-0.07291767,-0.07728483,0.01296166,-0.00541409,-0.06060317,0.04886953,-0.12418073,-0.10180926,0.10483936,-0.00060633,0.00664303,0.14521779,-0.00572321,-0.05170911,0.03855009,-0.06232315,0.086224,-0.02247024,0.06622714,0.01157602,0.06796317,-0.0879745,-0.00076474,0.03272735,0.02531768,0.01115833,0.04001876,0.0733833,0.06961582,-0.02114317,-0.06501738,0.1927569,-0.03638674,0.01554241,0.11617842,-0.07068571,-0.00819811,0.04235597,-0.11881006,0.08063423,-0.02656603,-0.07714666,0.04860831,-0.06526148,-0.05340941,0.05706671,0.01442948,0.00897285,0.08145167,-0.11165084,0.10691653,-0.01963183,-0.03050927,-0.00466699,-0.0672114,0.02648377,-0.09816039,0.01490734,-0.04892014,-0.0520378,0.02846723,-0.08663312,0.02985612,-0.00502286,0.0220783,-0.02453768,-0.04916113,-0.07812628,0.04868062,-0.02173479,0.00657967,0.01518865,-0.07720914,-0.04977778,-0.0635917,0.02669883,-0.00038536,-0.00027106,0.02879007,0.00588405,0.05661163,0.04643162,0.07555445,-0.00257935,-0.01350276,0.05073135,0.09692223,0.00348198,0.0045706,0.09581396,-0.02051635,0.03708946,0.01877538,0.07874084,0.03130875,-0.14254022,0.01450622,0.06617741
A42B003,-0.16296877,0.080153644,0.081801668,0.041996472,0.042836964,-0.241416797,-0.046089239,0.159019902,0.060795203,-0.113454811,0.110200346,-0.006293008,0.103596546,0.056492589,-0.074450426,-0.033447661,-0.04254489,0.057530407,0.067014687,-0.075941391,0.072100669,0.160974205,0.003650029,-0.033643507,-0.118610524,0.026566716,-0.080137596,-0.192923844,0.123866178,-0.059653137,0.042754605,-0.014540225,0.205849662,-0.150584996,-0.169612184,-0.079391092,-0.004910993,0.103552088,0.047289517,-0.106457375,0.036362529,0.145429403,-0.061781213,0.234635502,-0.23908928,-0.059862208,-0.148513332,-0.053027526,0.192816257,-0.077775553,0.062732644,-0.008959227,0.054117598,0.011804043,-0.138283193,-0.160268009,-0.150468022,-0.03118868,-0.043081105,-0.003873251,-0.048558977,-0.067731232,-0.056429554,0.171255201,0.156245723,-0.003745333,-0.141228244,0.116882212,0.168750763,0.062031694,0.104779661,-0.053511836,0.051741548,-0.008825411,0.03441228,-0.091062188,0.030202305,-0.041886263,0.021705415,-0.235258788,0.115796268,0.072048433,-0.061421745,0.020213651,-0.017549845,-0.063086838,-0.131205529,-0.061578475,0.001365475,0.008265783,-0.005731913,-0.062069036,0.04616328,0.057405874,-0.120178834,-0.138381585,0.172896728,0.135513976,0.039236121,0.090355821,0.035820987,-0.106539421,-0.119804852,0.020242028,-0.008981566,-0.080152765,0.085697442,-0.171422362,-0.153652698,0.164854005,0.005929966,0.008370615,0.225844622,-0.005270043,-0.073230565,0.059143901,-0.094425365,0.128820568,-0.035374098,0.094664961,0.011453855,0.10773094,-0.128863797,-0.008757656,0.050349537,0.028340118,0.022811044,0.060350835,0.107511207,0.087162606,-0.029098729,-0.09660285,0.290617257,-0.060056023,0.031869572,0.174893275,-0.105565302,-0.008149517,0.058736403,-0.17219162,0.128740057,-0.050844308,-0.114921376,0.066547431,-0.093278177,-0.07708884,0.097045712,0.025917236,0.014205116,0.124240063,-0.165950224,0.147580475,-0.035258446,-0.043363005,0.000150341,-0.095271915,0.04723344,-0.156647936,0.023031555,-0.08026728,-0.076637626,0.035096634,-0.142662108,0.04286838,-0.007919951,0.023195535,-0.044312477,-0.075745612,-0.111315317,0.05996944,-0.019396273,0.005817714,0.024240235,-0.118344583,-0.077910319,-0.088620961,0.052450005,-0.013009112,0.003279736,0.041828867,-0.004073655,0.069431044,0.053698413,0.116813593,0.002131785,-0.014783701,0.069419287,0.158232242,0.006134608,0.012357405,0.161302581,-0.02534095,0.050553389,0.02296616,0.114434771,0.054142829,-0.212382928,0.028140189,0.107639275
A43B003,-0.126655951,0.069904208,0.057612706,0.046509981,0.027787134,-0.176182404,-0.03941486,0.118380189,0.049645718,-0.074376226,0.08019235,-0.014150332,0.081239462,0.046957478,-0.059801377,-0.028582608,-0.031348661,0.042280026,0.045530479,-0.055233456,0.060975313,0.127632171,0.012141011,-0.025083879,-0.090071939,0.031781215,-0.068445042,-0.14646107,0.088135541,-0.041224297,0.023786897,-0.008526772,0.166526362,-0.120401233,-0.132766798,-0.057465371,0.003735606,0.075477414,0.03398338,-0.084823638,0.028791791,0.108054981,-0.045684297,0.179099724,-0.177305996,-0.041698158,-0.103505015,-0.032797039,0.144058466,-0.056286335,0.043388791,-0.007393807,0.04048967,0.013497262,-0.110114656,-0.125013262,-0.121091776,-0.013075606,-0.024732197,-0.012070038,-0.039784804,-0.049481485,-0.04442998,0.136173889,0.117306635,-0.005600428,-0.095321491,0.090101235,0.133500203,0.063114442,0.075380877,-0.036723007,0.044434957,-0.000166298,0.03905838,-0.071498007,0.029817469,-0.03055827,0.014667518,-0.181173548,0.102633797,0.054336581,-0.036154613,0.011408822,-0.013527666,-0.03649918,-0.101409495,-0.04979888,0.006428939,0.008348308,0.00829175,-0.049485192,0.040008366,0.050346699,-0.081624523,-0.11725568,0.138119012,0.108823061,0.035737846,0.051523965,0.018734982,-0.08814095,-0.086517267,0.020191466,-0.014015307,-0.070590437,0.062412608,-0.135286599,-0.114940047,0.125970155,0.007726905,-0.001204298,0.165563211,-0.016481662,-0.064165399,0.041417394,-0.065876856,0.094738595,-0.029383756,0.078952573,0.007296017,0.071555167,-0.104429431,-0.018336283,0.046903331,0.013377561,0.013320849,0.049288388,0.082923248,0.070164107,-0.025833758,-0.066296309,0.229520783,-0.049651571,0.018570304,0.134160846,-0.075878359,-0.009400989,0.05640069,-0.149835855,0.097310647,-0.031029565,-0.090287447,0.049952146,-0.072129875,-0.052132942,0.07718005,0.027731979,-0.003439569,0.087729886,-0.121208683,0.125566989,-0.019743726,-0.025251722,0.001697682,-0.066144571,0.035147414,-0.118020266,0.013701391,-0.066410214,-0.069080301,0.021318909,-0.108552858,0.034420073,-0.00816991,0.019701127,-0.030218838,-0.038311344,-0.089042679,0.057251431,-0.018933868,0.004210945,0.021285195,-0.092985205,-0.057859574,-0.071287967,0.030162025,-0.001573649,-0.000952534,0.035981543,0.012763925,0.04760138,0.044569366,0.077597618,0.00236264,-0.021689532,0.060966332,0.116622582,0.008115023,0.012015921,0.121309228,-0.017106725,0.03600489,0.018007001,0.097415887,0.041768484,-0.162813231,0.029942578,0.087595142
A43B007,-0.12491187,0.06259649,0.05381556,0.0335227,0.02783808,-0.18370932,-0.03008009,0.11485297,0.0427646,-0.08631279,0.08166325,-0.00144573,0.08105878,0.04458595,-0.05570295,-0.02253859,-0.03550082,0.03925117,0.0499557,-0.05428523,0.05303878,0.12608361,0.00043248,-0.02092214,-0.09483732,0.02396002,-0.06323794,-0.1384735,0.09410832,-0.04340458,0.02741052,-0.0133712,0.15361296,-0.11234793,-0.12385546,-0.06345706,-0.00210827,0.08307601,0.03092889,-0.08817004,0.03226961,0.10846537,-0.04356591,0.17540655,-0.17907536,-0.03951631,-0.1121053,-0.04366271,0.14348358,-0.0601183,0.04497875,-0.00932916,0.04475076,0.01210597,-0.10067637,-0.12648617,-0.11371826,-0.01479651,-0.0332316,-0.00965024,-0.04470731,-0.04497098,-0.04151822,0.12867607,0.11607858,-0.0077359,-0.10792378,0.08753333,0.12477405,0.04933571,0.07406756,-0.04438717,0.04587863,-0.00687251,0.03609479,-0.07566563,0.0141475,-0.03077913,0.0190099,-0.17516142,0.09383436,0.05484228,-0.04780521,0.01290284,-0.01329797,-0.04709359,-0.10008964,-0.04723622,0.0070332,0.00925915,0.00396228,-0.05106744,0.03368221,0.04651585,-0.08543177,-0.09917016,0.12913427,0.10589938,0.02726965,0.06150909,0.02185161,-0.08270984,-0.08675268,0.02087425,-0.00809637,-0.06256812,0.06690238,-0.13239408,-0.11140013,0.12667628,0.00734521,0.00738874,0.1638984,-0.01242134,-0.05350512,0.0473702,-0.07305121,0.10040464,-0.03455332,0.07130142,0.00484316,0.07748763,-0.10454921,-0.00677859,0.03663012,0.03059832,0.01803989,0.03675972,0.08742133,0.06167633,-0.02984861,-0.06922352,0.21708739,-0.04910423,0.02285427,0.13648902,-0.07986863,-0.00991938,0.04251432,-0.14058621,0.09340615,-0.03416985,-0.08585306,0.04752513,-0.0774046,-0.06596599,0.06333712,0.01636219,0.01358268,0.08256833,-0.12622869,0.11553289,-0.03187698,-0.02484037,-0.00464795,-0.07337512,0.03114435,-0.11258584,0.01276221,-0.05796464,-0.05858343,0.02739641,-0.10081291,0.02971638,-0.01591923,0.02591938,-0.03965372,-0.05250622,-0.08297751,0.05538638,-0.01868778,0.00910116,0.01297843,-0.08797504,-0.05745699,-0.07969771,0.04203005,-0.00532349,0.00306729,0.03357019,-0.00807547,0.05617701,0.04743217,0.08062738,0.00529102,-0.00555746,0.04889554,0.12186937,-0.00063238,0.01202568,0.12056103,-0.01368389,0.04262427,0.01512803,0.08911301,0.03857992,-0.15459311,0.02802234,0.0834673
A43B013,-0.13986365,0.0636396,0.0664572,0.03279236,0.03237921,-0.19431794,-0.03551463,0.121939,0.04637652,-0.09232406,0.08713163,0.00347417,0.08439494,0.04800415,-0.05904096,-0.02060233,-0.03345419,0.04465825,0.05553481,-0.06170601,0.05667166,0.12795688,0.00628633,-0.02759084,-0.08867086,0.02175575,-0.06260189,-0.15009806,0.10418332,-0.04910785,0.02889913,-0.01583105,0.15903494,-0.1214987,-0.1346086,-0.07012827,-0.00507439,0.08068479,0.03700984,-0.09686206,0.0257955,0.11947366,-0.04910281,0.18572015,-0.1885902,-0.04333543,-0.1156279,-0.04549406,0.15401943,-0.06676767,0.04927236,-0.0093697,0.04472934,0.01318118,-0.10854784,-0.13104928,-0.12376399,-0.01702449,-0.0258676,-0.00416556,-0.04727843,-0.05237033,-0.04511452,0.13558292,0.11947597,-0.0038386,-0.11121679,0.09864532,0.12920165,0.06004329,0.08269889,-0.03933328,0.04581627,-0.00473483,0.02918054,-0.07061484,0.01857794,-0.03332536,0.01256965,-0.18696424,0.09485297,0.05478519,-0.05134733,0.0198641,-0.01154649,-0.04691839,-0.10795647,-0.05355504,0.00545984,0.011355,0.00076505,-0.0469915,0.03380807,0.0526194,-0.09352157,-0.1040219,0.13457678,0.10530459,0.02768564,0.07049699,0.0223888,-0.08931302,-0.09530196,0.01342843,-0.01046241,-0.07379951,0.06487145,-0.1455426,-0.11297411,0.1276925,0.00655878,0.00416089,0.17894171,-0.01342017,-0.05750617,0.04336379,-0.07925192,0.10246409,-0.0260331,0.07745496,0.0100153,0.07872449,-0.11125007,-0.01160536,0.04000292,0.0231938,0.02042809,0.04683691,0.07954542,0.07411579,-0.02800118,-0.07241803,0.22736762,-0.05076079,0.02478938,0.14163816,-0.09183387,-0.00753455,0.04641717,-0.1396349,0.10470991,-0.03949413,-0.09081155,0.04639231,-0.08308682,-0.06037277,0.07310466,0.01541488,0.01318678,0.09468592,-0.1388293,0.1255245,-0.03881424,-0.03650775,-0.00269326,-0.07507005,0.03851357,-0.11874925,0.02033615,-0.05987744,-0.06078435,0.0317694,-0.10813785,0.03808952,-0.0082159,0.01827255,-0.02937335,-0.05166879,-0.09105794,0.04937973,-0.02116234,0.00861876,0.01790698,-0.09893019,-0.06581362,-0.07255618,0.04442533,-0.00665893,0.00462476,0.03666481,-0.00452009,0.06065239,0.05314429,0.08766567,-0.0029491,-0.0156641,0.05439876,0.12062325,0.00831349,0.00501977,0.13332734,-0.01235728,0.05134338,0.02206619,0.09751918,0.03655668,-0.17377396,0.02164739,0.09064616
A43B017,-0.215380952,0.100498848,0.100088984,0.049773052,0.050207399,-0.302162915,-0.060678948,0.200132847,0.067928568,-0.138446167,0.136618257,0.005108877,0.135280043,0.060348101,-0.083217949,-0.042971216,-0.046446569,0.076016709,0.09146145,-0.089178607,0.097399704,0.206083849,-0.003498717,-0.050746068,-0.14829284,0.031899925,-0.106883727,-0.231755525,0.149489999,-0.077106915,0.049271207,-0.011048046,0.261075526,-0.184742138,-0.208438709,-0.104538746,0.00478423,0.127644122,0.049809825,-0.148158357,0.055449322,0.175671935,-0.083016425,0.283275485,-0.292325765,-0.0744325,-0.175410837,-0.059268445,0.254821032,-0.106473416,0.077533931,-0.016042555,0.072607733,0.015403152,-0.17059426,-0.210714653,-0.180442721,-0.031770103,-0.046819478,-0.014489193,-0.066369742,-0.087824158,-0.076661706,0.213486582,0.192310646,-0.003078616,-0.163077146,0.145210594,0.210245445,0.09468466,0.126428172,-0.063879147,0.073962711,-0.008928112,0.046312057,-0.114351965,0.030307097,-0.049157746,0.028707156,-0.293022603,0.146490201,0.084482446,-0.070154771,0.021267576,-0.025693787,-0.077826351,-0.165997282,-0.090753511,-0.000131629,0.019802177,0.000981693,-0.067434758,0.06265875,0.082940288,-0.144649938,-0.173544511,0.208145693,0.163497642,0.051665094,0.115142412,0.040500291,-0.140804246,-0.133786693,0.025541449,-0.007584026,-0.106645733,0.10493657,-0.217862979,-0.177956179,0.203778595,0.003234647,-0.000927685,0.271928251,-0.02315619,-0.091921464,0.074400254,-0.116993658,0.164429292,-0.050272755,0.123344541,0.027020499,0.121720083,-0.166856676,-0.013244893,0.069219053,0.040093496,0.022666404,0.071618915,0.140224561,0.110771239,-0.042179313,-0.121862285,0.356414735,-0.088946275,0.032778107,0.225381941,-0.134685919,-0.019419834,0.068798959,-0.220062554,0.153561309,-0.05673226,-0.143241495,0.075840086,-0.127707139,-0.109186642,0.113192961,0.031232996,0.012394915,0.137957856,-0.214580387,0.191152737,-0.04913665,-0.04982084,-0.001174518,-0.115133174,0.053286675,-0.187324256,0.02922363,-0.092911825,-0.097355634,0.04763275,-0.174103707,0.050547522,-0.020913366,0.028804336,-0.059887718,-0.083081529,-0.150783196,0.079981826,-0.036426555,0.014905978,0.018154612,-0.147420064,-0.091422997,-0.117207289,0.064794906,-0.003112354,-0.002648797,0.058687758,-0.007571837,0.093523786,0.074038848,0.139214844,-0.002186175,-0.011595628,0.090980277,0.199319199,0.012444193,0.007304244,0.197582632,-0.015018808,0.075225301,0.02897743,0.144055322,0.068340242,-0.262156785,0.037048768,0.141243145
A46B009,-0.12946276,0.06325166,0.05989744,0.03907567,0.03715325,-0.18934894,-0.03126574,0.11239912,0.04986634,-0.08212956,0.07898364,-0.00052188,0.07995091,0.04158601,-0.05384907,-0.02891476,-0.03144907,0.0456228,0.05418673,-0.05705071,0.05748197,0.1277875,0.00920372,-0.02716384,-0.09383119,0.02267322,-0.0655897,-0.14572945,0.08854491,-0.04970238,0.0270645,-0.0160721,0.15914883,-0.11985068,-0.13002297,-0.06189052,0.00120213,0.0839386,0.03511491,-0.09125029,0.02921169,0.10939614,-0.04049427,0.17879742,-0.18445484,-0.04261312,-0.11247367,-0.04176148,0.14955662,-0.06466436,0.05692596,-0.00350948,0.04698741,0.01435157,-0.10298818,-0.12591593,-0.11960049,-0.02501739,-0.0263923,-0.00991896,-0.03559045,-0.05198585,-0.04566214,0.1421876,0.11412866,-0.00637273,-0.09724589,0.09825883,0.12157407,0.05460516,0.07877468,-0.03981198,0.04363879,-0.0054237,0.0394082,-0.06968815,0.0227209,-0.03621568,0.014195,-0.19025509,0.09251735,0.04589087,-0.04477971,0.01780108,-0.01056159,-0.04374474,-0.10810493,-0.04400671,-0.00045908,0.01548088,-0.00439594,-0.04435811,0.03533037,0.04008122,-0.08476553,-0.10098066,0.13443953,0.10271592,0.0283885,0.05849135,0.03045041,-0.08442032,-0.08814412,0.02112865,-0.00581697,-0.06411439,0.06727409,-0.13639697,-0.1195705,0.12800045,0.00281057,0.0016999,0.17113817,-0.00803848,-0.05070131,0.04862097,-0.07554137,0.10319217,-0.03398672,0.08081289,0.01003299,0.07740536,-0.10446547,-0.0135384,0.04588273,0.02611952,0.01837433,0.04737426,0.08759797,0.06290545,-0.02200632,-0.07438922,0.21893902,-0.0549011,0.0125088,0.13136739,-0.0772723,-0.00434514,0.04806928,-0.1439057,0.10175776,-0.03341475,-0.0834541,0.04649622,-0.07178694,-0.06072525,0.07186483,0.02298843,0.00523169,0.08595906,-0.1317065,0.11599176,-0.02624823,-0.03496198,0.00244268,-0.07036593,0.03464425,-0.12094238,0.01356488,-0.06332964,-0.06443267,0.02881067,-0.09956453,0.03770896,-0.01165972,0.02835055,-0.03200225,-0.05474691,-0.08581391,0.05723111,-0.0226214,0.01167344,0.01267742,-0.09078687,-0.06205989,-0.07248355,0.03813604,-0.00253593,-0.00042604,0.03750903,0.00028663,0.0563068,0.04910414,0.08488254,0.00666783,-0.00891945,0.05714514,0.11694616,0.00617466,0.00621256,0.12059407,-0.00977943,0.04678025,0.0221654,0.09608891,0.04310331,-0.1608747,0.02218551,0.08554785
